[{"nodesPerLayer":[13,10,3],"numLayers":3,"learningRate":0.1,"weights":[{"rows":10,"cols":13,"data":[[-0.8157396816955745,1.2189426693898642,7.811900954847965,2.9947008533956394,-0.048251823136023914,1.4684738441137357,5.937835709496096,2.8554721840746544,3.9831193673176326,-3.7797773581607346,-0.34326291579486345,-3.5668856400416757,0.7173411690376623],[1.890340970043317,1.977937330168663,2.507763600665047,-0.5881183693346365,-1.9557696256872754,3.6859274405660245,-1.4290285768314201,-5.351803749407068,0.1914700363292119,-2.3500054917740325,-1.662958413322116,0.9843958777422653,1.4465084853791197],[-4.49593536945968,0.09103005944791112,-5.020120092555418,-1.617735947614341,-3.35053780243926,-2.1947589413101425,-1.6993940684027358,-0.0797315392710426,-1.5601508238307158,0.5296734059114647,1.0222847435258209,2.2081298659764435,1.7681634792272174],[-1.2265952928376422,1.4723727918265628,0.5449019583732643,1.9343047942355827,2.5872774458319103,-0.2882505527945882,-1.1627273814385857,-0.6013526635844142,-4.239191124082156,-0.26278594782805687,-1.4127410641475058,-3.313651785445085,-0.19384541377151143],[1.8215547833063472,-0.3446049809790286,-3.5744518797577425,-3.7685418378529203,-0.07114870946154223,-1.6923680826337293,-3.347550990803071,1.315487199282706,3.2977883231692298,-2.52416897431828,1.4679272160391696,0.4430423523479774,1.8968051163787514],[1.542631618521633,0.7163495807625553,-2.254423710038738,3.7106512859897416,0.7480765480034168,-0.9710773117949494,-1.336889164965887,-3.7645461889285134,-2.9084792396106005,0.6672368641099066,-0.9579428663582568,2.6850165646549247,1.054522632879615],[4.926250671085678,-1.0538607607310981,-1.6338887913689093,-4.143402209914274,1.5722227960593058,2.0171388493171643,2.264278367282889,-1.2220153899285147,4.147645730640084,-6.505653202363916,-0.4405773288398599,0.24036116054636875,2.8463308939572927],[-0.12143633981061203,-0.7916372350681855,0.25403995875903007,-1.7737311385229055,2.594398622376698,2.4531370186903514,-3.3270804396679208,2.1734792994387515,1.4888114046618686,-2.2304006731454296,-1.6081868181074728,0.7173401164669923,-2.534346036269492],[2.247711887075777,-2.0133382774988253,-0.48274139532168503,-1.7119621818539135,1.4282829083152668,2.5716448375017555,-3.6289086889552813,-3.745323895179487,-1.5872715182523252,-0.01907726118589209,0.5925550872501428,-1.621226853393595,-3.29907037964652],[-2.361967322187539,0.32161448801173026,2.7975956053625426,0.14575475815729474,7.054056743296972,-1.4544162581601372,-3.0909218696565657,1.074848805397836,4.970172201671217,0.16707732463808356,-8.304662913855472,1.6177442181252506,1.1863713471043322]]},{"rows":3,"cols":10,"data":[[-0.2922632963291101,-3.0310941265531204,-0.24046487168837793,-0.2284699966546364,-1.0928510754828267,1.853036735642433,-0.6044197268119533,-2.2925068333759775,1.605035983213691,2.1335720743540687],[-5.710690647447534,4.548106456194627,1.283350078015846,2.126036173243722,6.455234804291789,0.5643151816026837,-1.2694538844160395,3.886073568930099,2.359300362761479,-4.479453776907975],[-3.7699185914798243,11.061198095604839,-1.9114795257622392,-0.3527246863124601,0.48683668180940604,2.868917189798336,-0.17999469234695753,3.228172096177713,-2.283071616829746,0.407936189715543]]}],"biases":[{"rows":10,"cols":1,"data":[[-2.8310423010062054],[-1.2185292115978656],[-1.2499176199449444],[2.083636365988764],[-1.4333557572696909],[0.8346657214301036],[0.8550867784987374],[1.1305093446612902],[-0.8326651175131065],[-4.928491435282716]]},{"rows":3,"cols":1,"data":[[0.698670834643329],[-1.1221736912172207],[-2.5292398796217603]]}],"isDead":false,"currentFitness":37069.66508155881,"positionNumber":1,"isBest":true},{"nodesPerLayer":[13,10,3],"numLayers":3,"learningRate":0.1,"weights":[{"rows":10,"cols":13,"data":[[-0.34159434159104873,1.040589018347998,7.811900954847965,3.8294979220716576,-0.013709774921430884,1.060238557374037,5.756356271798412,2.4055891864763503,3.68920343198027,-4.560708849182983,1.561685138067364,-3.0060402314715007,-0.8720210715691756],[0.9542318921598603,3.036138173907963,1.8962109394362234,-1.6359225722072868,-1.3648432088098996,4.869271212664244,-2.727267891339851,-5.328670978140175,-1.1920210865498242,-1.193971438553224,-1.813349443322663,1.6460946187933896,1.4395683114706253],[-5.860642908606461,-1.659682267398622,-3.928083851650959,-1.7283239709524978,-2.694008342237193,-2.5774660242349023,-2.43012912565321,-0.9020563057066169,1.0453685701763704,0.17944824373241264,-0.3644868706917674,2.841971537254724,1.4951020469594516],[-1.2265952928376422,1.4723727918265628,0.5449019583732643,2.3838670619766953,2.895088844684076,-0.2882505527945882,-1.1627273814385857,-1.2046701461425413,-4.239191124082156,-0.26278594782805687,-1.4127410641475058,-3.313651785445085,-0.19384541377151143],[1.8215547833063472,-0.672245217767958,-3.5744518797577425,-3.7685418378529203,-0.07114870946154223,-0.7707593558824068,-3.347550990803071,1.1161949943426768,3.2977883231692298,-2.52416897431828,1.439286780520849,0.4430423523479774,1.8968051163787514],[1.542631618521633,0.7163495807625553,-2.269826590836942,4.284208430444032,0.623396407548849,-0.08175621570188057,-1.336889164965887,-3.7645461889285134,-2.9084792396106005,0.6672368641099066,-0.9579428663582568,2.6850165646549247,1.054522632879615],[5.1286629457006105,0.03797435724384324,-0.3106177194042745,-1.0043736035905892,1.4189358029960264,2.501356979423445,1.724390590775703,-0.5952156094583895,3.91587500731805,-5.964545823403193,-0.8031476035061147,0.7523512466367663,4.048126686049571],[-2.258047940351184,-1.4807293627244231,0.44184283029355004,-1.7507498840566067,3.10298304231586,1.5015392243369718,-3.182533325737224,1.59071658781485,1.2839321095106375,-3.007995137404929,-1.8896537864283478,1.155089156384479,-1.972814167530034],[2.9806398494315958,-1.845408707418931,-2.8762425669935983,0.5067237108651506,1.458183855668576,1.8204529364856001,-4.507214636026054,-3.5998199273108105,-1.7793547650008832,1.027691323289452,-1.2174248217022499,-3.2390855050085663,-3.6234557357673935],[-0.7439076556727301,-0.6084959622605404,2.213569154007168,1.633521358646579,7.449900529518027,-0.529390546619058,-3.480483935548285,0.33524604050490237,4.631546384728905,3.2046811715945323,-6.671368978450885,1.2048817646781018,-0.009617455123586971]]},{"rows":3,"cols":10,"data":[[-0.6149879422016113,-5.743611108975286,-0.3633509736010908,-0.32823319236488746,-1.5008065569392006,2.033071018678521,0.20859604686851307,-3.3992744948769333,0.6904915159466603,1.268778288382608],[-5.710690647447534,4.548106456194627,1.3435426038544707,2.302754849112583,6.974741660589499,0.9515337093797299,-1.1096957104225438,3.886073568930099,2.359300362761479,-4.479453776907975],[-2.942008202901338,8.83433940470629,-2.445462994028261,1.3100115073042782,-0.2730151912292801,2.7529746126896275,-0.16186103799864549,3.431153381183656,0.38447634233486416,0.9040372170860367]]}],"biases":[{"rows":10,"cols":1,"data":[[-3.491202752153661],[-0.19625864408989213],[1.1564728276893488],[2.083636365988764],[-1.475851958387278],[0.6572100116076061],[0.54321768874573],[0.04949568976269986],[0.17998046497361672],[-4.937161482004567]]},{"rows":3,"cols":1,"data":[[0.6761105492811498],[-1.1221736912172207],[-0.595994942671913]]}],"isDead":false,"currentFitness":36988.82642988879,"positionNumber":2,"isBest":true},{"nodesPerLayer":[13,10,3],"numLayers":3,"learningRate":0.1,"weights":[{"rows":10,"cols":13,"data":[[-0.34159434159104873,1.9297595042728573,7.811900954847965,3.3860235692847773,-0.5280435374275698,1.4684738441137357,6.439382083427442,2.8554721840746544,2.8133666801469386,-4.3111277097318,-0.6705855171754711,-3.6597357704332274,-0.06738644522075872],[0.6722032699719067,4.914039482340664,1.4470463585128053,-0.6012370248680542,-1.8893882560419437,4.363500253286898,-0.8595183987242356,-6.256509661120206,-0.7987952131641631,-3.3270652553967706,-0.7295570217699778,0.8489452258335308,1.2445646581393992],[-4.733381739052316,0.18813300605941602,-5.064310341552291,-2.232538558829154,-3.1077927475119793,-2.408148135283343,-2.730086927392649,1.875652608805879,0.7872875154239746,0.5296734059114647,0.2513059546140084,1.1778497326828374,1.4912721842071415],[-1.2265952928376422,1.4723727918265628,0.5449019583732643,2.3838670619766953,2.5872774458319103,-0.2882505527945882,-1.1627273814385857,-0.6409950832608522,-4.239191124082156,-0.26278594782805687,-1.5309323064353249,-2.8091573203552493,-0.19384541377151143],[1.8215547833063472,-0.3446049809790286,-3.5744518797577425,-3.7685418378529203,-0.07114870946154223,-0.7707593558824068,-3.347550990803071,1.315487199282706,3.2977883231692298,-2.936507004359891,1.4679272160391696,0.4430423523479774,2.3708467436519163],[1.7972198884819004,0.7768443372033108,-2.269826590836942,3.7106512859897416,0.7480765480034168,-0.08175621570188057,-1.8886000224586454,-3.7645461889285134,-2.995024251695299,0.6672368641099066,-0.9579428663582568,2.6850165646549247,1.2323007410580096],[4.926250671085678,0.9530372240663999,-1.6338887913689093,-2.9414482620992035,3.97766117249697,1.6093473614633949,1.6229293836052812,-0.8858407986332263,3.5441844485760248,-5.872487049692867,-0.5558643191599314,0.9025572886834523,3.5646352296298898],[-0.12143633981061203,-1.504997735471142,0.25403995875903007,-1.382268614562852,2.594398622376698,1.588605091064522,-3.0837985691159218,1.0347089589696046,2.5098970951047956,-2.6928715661474825,-1.6081868181074728,0.3655053556009321,-3.199393190126999],[2.3247769958066593,-2.3339233345726687,-1.9208006094729155,-0.8203113165467515,1.4797100488413857,2.196291734402674,-4.240530029041008,-3.505036867783408,-0.3204319518266917,1.009469091297169,0.062126097941987896,-2.5330321676010095,-3.070925085306066],[-2.1790613860096526,0.8353150646744613,3.0619636622219177,1.1195121605414056,7.708555616948387,-1.770160644099813,-2.1649662428510843,1.296908382797694,5.187994153356847,-0.9042595600126506,-7.77681378738978,0.7282479288719124,1.2846025496605311]]},{"rows":3,"cols":10,"data":[[0.32785529864109697,-3.573858374183993,-1.015351640278968,0.23618002416693362,-0.9107220674960492,1.851403137832976,-0.29838647225529785,-2.2925068333759775,-0.2907748757634717,2.884501274151995],[-5.710690647447534,4.243158176881846,1.3435426038544707,2.126036173243722,6.974741660589499,0.5643151816026837,-1.4956125514720586,3.886073568930099,2.359300362761479,-4.070986596998874],[-4.306242618922048,9.571528423474202,-1.9114795257622392,0.1679399677985365,-0.230730263767577,4.199526025105216,-0.17999469234695753,2.1558158566345442,-2.5430037672507178,-0.29015842875034503]]}],"biases":[{"rows":10,"cols":1,"data":[[-2.338094693597194],[-1.4972690818698808],[-0.41297547299089366],[2.083636365988764],[-1.3804477247329625],[0.7036637226879107],[0.7880392175531259],[0.03363261956655987],[-0.42117240659477645],[-4.947291533182455]]},{"rows":3,"cols":1,"data":[[1.0456737194070547],[-1.1221736912172207],[-1.3795732224465937]]}],"isDead":false,"currentFitness":36673.59218248126,"positionNumber":3},{"nodesPerLayer":[13,10,3],"numLayers":3,"learningRate":0.1,"weights":[{"rows":10,"cols":13,"data":[[-0.34159434159104873,0.4073583267098988,7.811900954847965,3.8294979220716576,-0.013709774921430884,1.060238557374037,5.756356271798412,2.4055891864763503,3.68920343198027,-4.560708849182983,1.561685138067364,-3.0060402314715007,-0.8720210715691756],[0.9542318921598603,3.036138173907963,1.8962109394362234,-1.6359225722072868,-1.3648432088098996,4.869271212664244,-2.727267891339851,-5.328670978140175,-1.1920210865498242,-1.193971438553224,-1.813349443322663,1.6460946187933896,1.4395683114706253],[-5.860642908606461,-1.659682267398622,-3.580197649041662,-1.7283239709524978,-2.4167591145444582,-2.5774660242349023,-2.43012912565321,-1.154090603375831,1.0453685701763704,0.17944824373241264,-0.3644868706917674,2.841971537254724,1.3049718295552426],[-0.8914386151478996,1.4723727918265628,1.299067156016035,2.0752802426103423,2.5872774458319103,-0.8352303970451564,-1.4638328502290294,-1.9416119486598304,-2.179615901712336,-1.1611930595376296,-1.5188803071746486,-3.313651785445085,2.136698929356575],[2.3771768895066065,-0.3446049809790286,-3.692353962058302,-3.7685418378529203,0.3596744020698589,-1.7536802701731138,-3.183972360287972,0.831006903718895,2.9246918739301857,-2.52416897431828,1.2172995263636197,0.08077703736116648,1.8968051163787514],[1.8047083447864023,0.22283366892434028,-2.269826590836942,2.8257220887012715,1.4544130238633837,0.21022557084278448,-1.003770084771028,-4.271517962875418,-2.9084792396106005,-0.17241583348471834,-0.9579428663582568,3.096159252915671,1.9638367353247523],[5.1286629457006105,0.03797435724384324,0.5915954581003232,-1.0043736035905892,1.4189358029960264,2.501356979423445,1.724390590775703,-0.5952156094583895,3.91587500731805,-5.964545823403193,-0.8031476035061147,0.7523512466367663,4.048126686049571],[-2.258047940351184,-1.4807293627244231,0.44184283029355004,-1.7507498840566067,3.10298304231586,1.5015392243369718,-3.182533325737224,1.59071658781485,1.2839321095106375,-2.6714080778963174,-1.8896537864283478,1.155089156384479,-1.972814167530034],[2.9806398494315958,-1.845408707418931,-2.8762425669935983,0.5067237108651506,1.458183855668576,1.8204529364856001,-4.507214636026054,-3.5998199273108105,-1.9765992940694714,1.027691323289452,-0.9302564590065241,-3.2390855050085663,-3.6234557357673935],[-0.7439076556727301,-0.6084959622605404,2.213569154007168,0.15771550749732827,7.449900529518027,-0.529390546619058,-3.480483935548285,0.33524604050490237,4.631546384728905,3.2046811715945323,-6.671368978450885,1.2048817646781018,-0.009617455123586971]]},{"rows":3,"cols":10,"data":[[-0.6149879422016113,-5.743611108975286,-0.3633509736010908,0.035461526768960194,-1.5008065569392006,2.033071018678521,0.20859604686851307,-3.3992744948769333,0.6904915159466603,1.268778288382608],[-6.106571363652776,4.051467584769551,1.6263641051064788,1.5480852348352903,8.384988455429411,0.5643151816026837,-1.2694538844160395,3.8826254406124674,1.6213674101371471,-5.137027806437644],[-2.3868264557536047,8.83433940470629,-2.445462994028261,1.3100115073042782,-0.2730151912292801,2.7529746126896275,-0.16186103799864549,3.431153381183656,0.38447634233486416,0.9040372170860367]]}],"biases":[{"rows":10,"cols":1,"data":[[-3.491202752153661],[-0.19625864408989213],[1.1564728276893488],[2.083636365988764],[-1.3804477247329625],[-0.04220172852110715],[0.54321768874573],[0.04949568976269986],[0.17998046497361672],[-4.937161482004567]]},{"rows":3,"cols":1,"data":[[0.6761105492811498],[-1.1221736912172207],[-0.591066089673057]]}],"isDead":false,"currentFitness":36363.179965154726,"positionNumber":4},{"nodesPerLayer":[13,10,3],"numLayers":3,"learningRate":0.1,"weights":[{"rows":10,"cols":13,"data":[[-0.34159434159104873,1.040589018347998,7.1250480215577126,4.338481048158999,-0.013709774921430884,1.060238557374037,5.756356271798412,2.4055891864763503,3.2221339495153805,-3.913795090535914,0.6752718930432146,-2.3982074446957777,-0.8720210715691756],[1.380952967688732,3.7651339446115157,2.066157731594304,-1.6359225722072868,-1.6887821321547989,4.840859918318083,-1.8389798766087488,-5.025895842325371,-2.149135278994507,-1.1815099689385384,-1.813349443322663,1.9387400672762414,0.7390942090567447],[-4.119380118821478,-0.7636754563799355,-3.735495474783364,-1.8632595428216143,-2.4460485563091723,-1.818085510401594,-2.8659334655211226,-0.1487392457615377,0.7209021741662048,0.4034454051867358,-0.38874220006324683,1.9636933404176802,1.6814284563834507],[-1.2265952928376422,1.4723727918265628,0.5449019583732643,1.8736773883065645,2.5872774458319103,-0.2882505527945882,-1.1627273814385857,-0.6013526635844142,-4.239191124082156,-0.26278594782805687,-1.178490275773994,-3.313651785445085,-0.19384541377151143],[1.8215547833063472,-0.3446049809790286,-3.377101445718243,-3.7685418378529203,-0.07114870946154223,-0.7707593558824068,-3.347550990803071,1.315487199282706,3.2977883231692298,-2.52416897431828,1.4679272160391696,0.4430423523479774,1.9323396779836879],[1.7972198884819004,0.7163495807625553,-2.269826590836942,3.7106512859897416,0.7480765480034168,-0.08175621570188057,-1.336889164965887,-3.7645461889285134,-2.9084792396106005,0.6672368641099066,-1.2515087537524365,1.6176731694588544,1.054522632879615],[4.902026602582416,1.5242365000258569,-0.24334387430244928,-1.6721616115362403,1.3271359434458356,2.696033726265076,1.724390590775703,0.6097768491751066,4.3100277621539655,-5.978652684614509,0.02415646638021207,1.0136383540698217,2.7035352617178714],[-0.8642777942695472,-1.4807293627244231,-0.06884997599746152,-2.0486782019528254,3.10298304231586,0.9333958278007066,-3.182533325737224,1.1447510056889925,1.8867046370595015,-2.6714080778963174,-1.8896537864283478,1.7695801379572234,-1.7882809146859797],[2.9806398494315958,-1.845408707418931,-2.8762425669935983,0.5067237108651506,0.9871202755493719,2.5377587692363246,-4.5612680899382125,-3.5998199273108105,-1.9721169379052015,0.5898312590216495,0.4065828702320162,-3.2390855050085663,-3.436939025159773],[-0.7439076556727301,-0.9298069408615721,2.0024567921267247,0.23359845818146013,8.401783525533245,-0.9770781567093251,-2.794893098442493,0.03607282995252087,4.708364577992811,3.2046811715945323,-6.671368978450885,1.2048817646781018,-0.15720096534865757]]},{"rows":3,"cols":10,"data":[[-0.8475144218080694,-5.425023127641876,-1.263971852632519,0.12398222827594291,-1.8439009467274143,1.9811398180938735,0.8776152074984079,-3.7905072575393346,0.08428851821980016,1.0409947624651466],[-5.710690647447534,5.310327115137849,1.3435426038544707,2.126036173243722,6.581262860286409,0.5643151816026837,-1.2694538844160395,3.886073568930099,2.359300362761479,-3.6870538182351416],[-2.3681835572370877,8.522351158438806,-2.779490518524432,1.4374970137008507,-0.2730151912292801,3.7834498025836623,-0.3327161495896087,2.889089203615544,0.3207381839397897,1.17895192169337]]}],"biases":[{"rows":10,"cols":1,"data":[[-2.4208847176521258],[-0.6637202719464407],[-0.15218550454302315],[2.083636365988764],[-1.5168785339828705],[0.7036637226879107],[0.54321768874573],[0.19390098071629508],[-1.4247199787959957],[-4.937161482004567]]},{"rows":3,"cols":1,"data":[[0.6761105492811498],[-1.1221736912172207],[-0.6117910781811073]]}],"isDead":false,"currentFitness":36306.22613033844,"positionNumber":5},{"nodesPerLayer":[13,10,3],"numLayers":3,"learningRate":0.1,"weights":[{"rows":10,"cols":13,"data":[[-0.34159434159104873,0.9385601876046521,7.280317947510817,4.338481048158999,-0.013709774921430884,1.7840080874735333,5.756356271798412,2.4055891864763503,3.354757422562918,-3.561282910226759,1.5030000966151977,-3.009999405118897,-1.642092703625884],[0.47889205417244585,2.5167500063353887,2.5236280657666583,-1.2366465949856018,-1.6394871594385458,4.7963311795112835,-1.2533766071641868,-5.328670978140175,-1.1570276689398378,-1.193971438553224,-1.813349443322663,1.8212627292189227,0.7390942090567447],[-5.125434649100987,-0.5437945678185881,-4.141034080636833,-2.276251260240861,-2.772490648113667,-2.7619137795552806,-2.73989099169865,-0.5305600372796542,0.6449723721456037,0.7898089026558526,0.08895999667304944,2.326977472948608,1.3049718295552426],[-1.2265952928376422,1.4723727918265628,0.5449019583732643,1.9343047942355827,2.5872774458319103,-0.2882505527945882,-1.1627273814385857,-0.6013526635844142,-4.239191124082156,-0.26278594782805687,-1.4127410641475058,-3.313651785445085,-0.19384541377151143],[1.8215547833063472,-0.3446049809790286,-3.5744518797577425,-3.7685418378529203,-0.07114870946154223,-0.8356907299173005,-3.347550990803071,1.315487199282706,3.2977883231692298,-2.52416897431828,1.4679272160391696,0.4430423523479774,1.8968051163787514],[1.542631618521633,0.7163495807625553,-2.254423710038738,3.4354629501109706,0.7480765480034168,-0.08175621570188057,-1.336889164965887,-3.7645461889285134,-2.9084792396106005,0.6672368641099066,-0.9579428663582568,2.6850165646549247,1.054522632879615],[5.615238491531113,0.7261455198097553,-0.24334387430244928,-0.749332890789029,0.4110262924982876,2.7792078541457914,1.724390590775703,0.6097768491751066,4.593447529091231,-5.964545823403193,-1.131167634643128,0.7523512466367663,2.9420936253707097],[-1.1412332592669112,-1.4807293627244231,0.29549682089112894,-1.6572891276609774,3.10298304231586,0.9333958278007066,-3.182533325737224,0.7963671600480794,1.8867046370595015,-2.902320876579079,-3.0880397616014066,2.3282282366593248,-1.7882809146859797],[3.1842139415258925,-1.845408707418931,-2.063576928243521,0.18008056063974204,1.5643243728299283,1.8515210693809685,-5.07325565887276,-3.5998199273108105,-1.7793547650008832,0.7453774711063837,0.4065828702320162,-3.2390855050085663,-3.04957564514411],[-0.7439076556727301,-0.1419838942195576,1.9381487436625024,0.23359845818146013,7.815340693684955,-0.20487670858838614,-4.474032847733162,-0.30180749517758576,5.236473258184406,2.8498496853289863,-6.671368978450885,0.1956136215649127,-0.15720096534865757]]},{"rows":3,"cols":10,"data":[[-0.6149879422016113,-4.552571412035626,-1.2332377131978653,0.5839279498319854,-1.8439009467274143,2.2193508586427164,0.8776152074984079,-3.0166069488999723,0.2518850386722002,2.3760576782050116],[-4.902037069656645,4.548106456194627,1.283350078015846,2.126036173243722,6.974741660589499,0.5643151816026837,-1.2694538844160395,3.886073568930099,2.359300362761479,-4.479453776907975],[-2.3681835572370877,8.773895361253146,-2.0415003421842193,1.769037885622741,-0.368216241061912,3.4847601903249417,-0.7629284808209893,3.417197804928923,0.6899190542518412,1.0330160704466838]]}],"biases":[{"rows":10,"cols":1,"data":[[-3.491202752153661],[-0.19625864408989213],[-0.006359861729994393],[2.083636365988764],[-1.4333557572696909],[0.7036637226879107],[0.6830709101606718],[-0.17138611426192454],[-1.015264734156685],[-4.937161482004567]]},{"rows":3,"cols":1,"data":[[0.6761105492811498],[-1.1221736912172207],[-0.6321548949651358]]}],"isDead":false,"currentFitness":36186.33270310263,"positionNumber":6},{"nodesPerLayer":[13,10,3],"numLayers":3,"learningRate":0.1,"weights":[{"rows":10,"cols":13,"data":[[-0.34159434159104873,1.040589018347998,7.811900954847965,2.784518290334307,-0.013709774921430884,1.060238557374037,5.7534438131549,2.4055891864763503,3.68920343198027,-4.560708849182983,1.561685138067364,-2.704358708729354,-0.8720210715691756],[0.9542318921598603,3.036138173907963,1.8962109394362234,-1.6359225722072868,-1.3648432088098996,4.869271212664244,-2.727267891339851,-5.328670978140175,-1.1920210865498242,-1.193971438553224,-1.813349443322663,1.8631755534772045,1.4395683114706253],[-5.860642908606461,-1.659682267398622,-3.580197649041662,-1.7283239709524978,-2.4167591145444582,-2.5774660242349023,-2.43012912565321,-0.6956259004608929,1.0453685701763704,0.17944824373241264,-0.3644868706917674,2.841971537254724,1.3049718295552426],[-1.2265952928376422,1.4723727918265628,0.5449019583732643,2.2398663312768883,2.5872774458319103,-0.2882505527945882,-1.1627273814385857,-0.7574092535603427,-4.239191124082156,-1.3966914570298958,-1.4127410641475058,-3.313651785445085,-0.19384541377151143],[1.8215547833063472,-0.3446049809790286,-3.5744518797577425,-3.5323291464546274,-0.07114870946154223,-0.7707593558824068,-3.347550990803071,1.315487199282706,3.2977883231692298,-2.52416897431828,1.4679272160391696,0.4430423523479774,1.8968051163787514],[1.542631618521633,0.7163495807625553,-2.269826590836942,3.7106512859897416,0.7480765480034168,-0.08175621570188057,-1.336889164965887,-3.7645461889285134,-2.9084792396106005,0.6672368641099066,-0.9502711158966224,2.6850165646549247,1.054522632879615],[5.1286629457006105,0.03797435724384324,0.5915954581003232,-1.0043736035905892,1.4189358029960264,2.8370511671384686,1.724390590775703,-0.5952156094583895,3.91587500731805,-5.964545823403193,-0.8031476035061147,1.1271486211529835,4.048126686049571],[-2.258047940351184,-1.4807293627244231,0.44184283029355004,-1.7507498840566067,3.10298304231586,1.5015392243369718,-2.2499482705199716,1.565924130693085,1.2839321095106375,-2.6714080778963174,-1.8896537864283478,1.155089156384479,-1.972814167530034],[2.9806398494315958,-1.845408707418931,-2.8762425669935983,0.5067237108651506,1.458183855668576,1.8204529364856001,-4.507214636026054,-3.5998199273108105,-1.7793547650008832,1.027691323289452,-0.9302564590065241,-3.2390855050085663,-3.6234557357673935],[-0.7439076556727301,-0.562269858007644,2.213569154007168,0.15771550749732827,7.449900529518027,-0.529390546619058,-3.480483935548285,0.33524604050490237,4.631546384728905,2.827869284024899,-6.671368978450885,1.2048817646781018,-0.009617455123586971]]},{"rows":3,"cols":10,"data":[[-0.6149879422016113,-5.743611108975286,-0.3633509736010908,0.035461526768960194,-1.5008065569392006,2.033071018678521,0.20859604686851307,-3.3992744948769333,0.6904915159466603,1.268778288382608],[-5.710690647447534,4.548106456194627,1.3435426038544707,2.126036173243722,6.174406657713448,0.2597810068535563,-1.2694538844160395,3.886073568930099,3.4447994636197827,-4.479453776907975],[-3.2342526761280626,8.83433940470629,-2.169892668918306,1.3100115073042782,-0.2730151912292801,2.7529746126896275,-0.16186103799864549,3.431153381183656,0.38447634233486416,0.9040372170860367]]}],"biases":[{"rows":10,"cols":1,"data":[[-3.491202752153661],[0.23715559341921816],[1.1564728276893488],[2.25124296582769],[-1.475851958387278],[0.7036637226879107],[0.54321768874573],[0.04949568976269986],[0.17998046497361672],[-4.937161482004567]]},{"rows":3,"cols":1,"data":[[0.6761105492811498],[-1.1221736912172207],[-0.591066089673057]]}],"isDead":false,"currentFitness":36074.90875506846,"positionNumber":7},{"nodesPerLayer":[13,10,3],"numLayers":3,"learningRate":0.1,"weights":[{"rows":10,"cols":13,"data":[[-0.34159434159104873,1.9297595042728573,7.811900954847965,3.3860235692847773,-0.5280435374275698,1.4684738441137357,6.439382083427442,2.8554721840746544,2.8133666801469386,-4.3111277097318,-0.6705855171754711,-3.6597357704332274,-0.06738644522075872],[0.8076618597105351,4.914039482340664,1.4470463585128053,-0.6012370248680542,-1.8893882560419437,4.363500253286898,-0.8595183987242356,-6.256509661120206,-0.7987952131641631,-3.3270652553967706,-0.7295570217699778,0.8489452258335308,1.2445646581393992],[-4.389743950136215,0.18813300605941602,-5.064310341552291,-2.232538558829154,-3.1077927475119793,-2.408148135283343,-2.730086927392649,1.7464301924654206,0.45050915509321443,0.5296734059114647,0.2513059546140084,0.6901957502323653,1.4912721842071415],[-1.2265952928376422,0.6091863593080359,0.5449019583732643,2.3838670619766953,2.5872774458319103,-0.2882505527945882,-1.1627273814385857,-0.18557169125777623,-5.119613529060409,-0.26278594782805687,-1.5309323064353249,-3.313651785445085,-0.19384541377151143],[1.8215547833063472,-0.3446049809790286,-3.5744518797577425,-3.9778146834336736,-0.17597494823206283,-0.7707593558824068,-3.3667146469501863,1.315487199282706,3.2977883231692298,-2.52416897431828,1.4679272160391696,0.4430423523479774,1.8968051163787514],[1.7972198884819004,0.44345580104652843,-2.269826590836942,3.7106512859897416,0.7480765480034168,0.47538087043432914,-1.336889164965887,-3.7645461889285134,-3.184816898164368,0.6672368641099066,-0.9579428663582568,2.6850165646549247,1.054522632879615],[4.926250671085678,0.9530372240663999,-1.6338887913689093,-2.9414482620992035,3.97766117249697,2.1009962951322976,1.6229293836052812,-0.8858407986332263,3.5441844485760248,-5.0540467864426235,-0.5558643191599314,0.9025572886834523,3.5646352296298898],[-0.12143633981061203,-1.504997735471142,0.25403995875903007,-1.382268614562852,1.6844532286219513,1.588605091064522,-3.0837985691159218,1.0347089589696046,2.9860896082371413,-2.6928715661474825,-1.6081868181074728,0.3655053556009321,-3.199393190126999],[2.796862236860034,-2.3339233345726687,-1.9208006094729155,-0.8203113165467515,1.4797100488413857,2.196291734402674,-4.082419723982818,-3.505036867783408,-1.1519598009332035,1.009469091297169,0.062126097941987896,-2.5330321676010095,-3.070925085306066],[-2.1790613860096526,0.8353150646744613,3.0619636622219177,1.163140996852975,7.708555616948387,-1.159342891097642,-2.1649662428510843,1.296908382797694,5.99627692839001,-0.9042595600126506,-7.77681378738978,0.7282479288719124,1.2846025496605311]]},{"rows":3,"cols":10,"data":[[0.32785529864109697,-3.573858374183993,-1.015351640278968,0.23618002416693362,-0.9107220674960492,1.853036735642433,-0.7376362242393535,-2.2925068333759775,-0.2907748757634717,2.884501274151995],[-5.710690647447534,3.8489579479701663,1.3435426038544707,2.0573062332358587,6.974741660589499,0.5643151816026837,-1.2694538844160395,3.886073568930099,2.359300362761479,-4.786004768528171],[-4.624975713861992,9.571528423474202,-1.9114795257622392,0.1679399677985365,0.09600427325752398,3.3373046024607294,-0.17999469234695753,1.9366677204199827,-2.5430037672507178,-0.29015842875034503]]}],"biases":[{"rows":10,"cols":1,"data":[[-2.338094693597194],[-1.4972690818698808],[-0.41297547299089366],[2.083636365988764],[-1.3804477247329625],[0.5917620917303424],[0.7880392175531259],[0.03363261956655987],[-0.42117240659477645],[-4.947291533182455]]},{"rows":3,"cols":1,"data":[[0.9271095988382732],[-1.1221736912172207],[-1.3795732224465937]]}],"isDead":false,"currentFitness":36008.270047833925,"positionNumber":8},{"nodesPerLayer":[13,10,3],"numLayers":3,"learningRate":0.1,"weights":[{"rows":10,"cols":13,"data":[[-0.34159434159104873,1.040589018347998,7.811900954847965,3.8294979220716576,-0.013709774921430884,1.060238557374037,5.756356271798412,2.4055891864763503,3.68920343198027,-4.560708849182983,1.561685138067364,-3.0060402314715007,-0.8720210715691756],[0.9542318921598603,3.036138173907963,1.8962109394362234,-1.6359225722072868,-1.3648432088098996,4.869271212664244,-2.727267891339851,-5.328670978140175,-1.1920210865498242,-1.193971438553224,-1.813349443322663,1.6460946187933896,1.4395683114706253],[-5.860642908606461,-1.659682267398622,-3.580197649041662,-1.7283239709524978,-2.4167591145444582,-2.5774660242349023,-2.43012912565321,-0.6956259004608929,1.0453685701763704,0.17944824373241264,-0.3644868706917674,3.618286446889968,1.3049718295552426],[-0.8914386151478996,1.9871474847242219,0.8512659356529835,2.3838670619766953,2.5872774458319103,-0.879186114716222,-1.4638328502290294,-0.6013526635844142,-3.8816612858967687,-0.26278594782805687,-1.185353479898098,-3.103140704897429,0.24103150570072518],[1.8111117457479702,-0.19341369212133777,-3.2354922809532516,-3.580016797014157,0.6105161666258574,-1.7279866027887598,-2.6687548669950014,1.315487199282706,2.9429232576321107,-2.47677640587231,0.8457836158515483,0.08077703736116648,2.7186817822265814],[1.7972198884819004,0.10049311807803034,-1.7653735029024178,2.8257220887012715,1.2939921946651656,0.21022557084278448,-1.336889164965887,-3.086834839858458,-2.9084792396106005,0.6672368641099066,0.7594233947030136,2.6850165646549247,1.054522632879615],[5.1286629457006105,0.03797435724384324,0.5915954581003232,-1.0043736035905892,1.4189358029960264,2.501356979423445,1.724390590775703,-0.5952156094583895,3.91587500731805,-5.964545823403193,-0.8031476035061147,0.7523512466367663,4.048126686049571],[-2.258047940351184,-1.4807293627244231,0.44184283029355004,-1.7507498840566067,2.381951782186503,1.5015392243369718,-3.182533325737224,1.5650288428244616,1.2839321095106375,-2.6714080778963174,-1.8896537864283478,1.155089156384479,-1.972814167530034],[2.9806398494315958,-1.845408707418931,-2.8762425669935983,0.6336079762726485,1.458183855668576,1.8204529364856001,-4.507214636026054,-3.5998199273108105,-1.7793547650008832,1.027691323289452,-0.9302564590065241,-3.2390855050085663,-2.995518608250223],[-0.7439076556727301,-0.6084959622605404,2.213569154007168,0.15771550749732827,7.449900529518027,-0.529390546619058,-3.480483935548285,0.33524604050490237,4.631546384728905,3.2046811715945323,-6.671368978450885,1.2048817646781018,-0.009617455123586971]]},{"rows":3,"cols":10,"data":[[-0.6149879422016113,-5.743611108975286,-0.3633509736010908,0.035461526768960194,-1.5008065569392006,2.033071018678521,0.20859604686851307,-3.3992744948769333,-0.23676497019364906,1.268778288382608],[-5.710690647447534,4.051467584769551,0.7063975029184171,2.9903255367703316,9.390174010847247,0.5643151816026837,-1.2694538844160395,2.5186978277103886,2.359300362761479,-3.828953289194526],[-2.942008202901338,8.742523838344136,-2.069240328407422,1.3100115073042782,-0.2730151912292801,2.7529746126896275,-0.16186103799864549,3.431153381183656,0.38447634233486416,0.9040372170860367]]}],"biases":[{"rows":10,"cols":1,"data":[[-3.491202752153661],[-0.19625864408989213],[1.1564728276893488],[2.083636365988764],[-1.3804477247329625],[0.7256959124778152],[0.54321768874573],[0.04949568976269986],[0.17998046497361672],[-4.937161482004567]]},{"rows":3,"cols":1,"data":[[0.6761105492811498],[-1.1221736912172207],[-0.591066089673057]]}],"isDead":false,"currentFitness":35967.941246646216,"positionNumber":9},{"nodesPerLayer":[13,10,3],"numLayers":3,"learningRate":0.1,"weights":[{"rows":10,"cols":13,"data":[[-0.34159434159104873,1.9297595042728573,7.811900954847965,3.3860235692847773,-0.5280435374275698,1.4684738441137357,6.439382083427442,2.8554721840746544,2.8133666801469386,-4.73087770432298,-0.6705855171754711,-3.6597357704332274,-0.06738644522075872],[0.8076618597105351,4.914039482340664,1.4470463585128053,-0.6666067282614703,-1.8893882560419437,4.363500253286898,-0.8595183987242356,-6.209060985270579,-0.12484561293873886,-3.3270652553967706,-1.340786240389774,0.8489452258335308,1.2445646581393992],[-4.733381739052316,0.18813300605941602,-5.064310341552291,-2.232538558829154,-3.1077927475119793,-2.408148135283343,-2.730086927392649,1.7464301924654206,0.7872875154239746,0.5296734059114647,0.2513059546140084,1.1778497326828374,1.4912721842071415],[-1.2265952928376422,1.4723727918265628,0.5449019583732643,2.3838670619766953,2.5872774458319103,-0.2882505527945882,-0.7661191535487436,-1.2046701461425413,-4.239191124082156,-0.26278594782805687,-1.4127410641475058,-3.313651785445085,-0.19384541377151143],[1.8215547833063472,-0.672245217767958,-3.5744518797577425,-3.7685418378529203,-0.07114870946154223,-0.7707593558824068,-3.347550990803071,1.315487199282706,3.2455214088426363,-2.52416897431828,1.439286780520849,0.4430423523479774,1.8968051163787514],[1.542631618521633,0.2982604854906057,-2.269826590836942,4.284208430444032,0.7480765480034168,-0.08175621570188057,-1.336889164965887,-3.7645461889285134,-2.9084792396106005,0.6672368641099066,-0.9579428663582568,2.6850165646549247,1.054522632879615],[4.926250671085678,0.9530372240663999,-1.6338887913689093,-2.9414482620992035,3.97766117249697,1.6093473614633949,1.6229293836052812,-0.8858407986332263,3.5441844485760248,-5.872487049692867,-0.5558643191599314,0.9025572886834523,3.5646352296298898],[-0.12143633981061203,-1.504997735471142,-0.661684810749811,-1.382268614562852,2.594398622376698,1.588605091064522,-3.0837985691159218,1.0347089589696046,2.9860896082371413,-2.6928715661474825,-1.6081868181074728,0.3655053556009321,-3.199393190126999],[2.3247769958066593,-2.3339233345726687,-1.9208006094729155,-0.8203113165467515,1.4797100488413857,2.196291734402674,-4.240530029041008,-3.505036867783408,-1.1519598009332035,1.2777908412147887,0.062126097941987896,-2.5330321676010095,-3.070925085306066],[-2.1790613860096526,0.8353150646744613,3.0619636622219177,1.163140996852975,7.708555616948387,-1.800822135528814,-2.1649662428510843,1.296908382797694,5.187994153356847,-0.9042595600126506,-7.77681378738978,0.7282479288719124,1.2846025496605311]]},{"rows":3,"cols":10,"data":[[0.32785529864109697,-3.573858374183993,-1.015351640278968,0.23618002416693362,-0.9107220674960492,2.091516345110116,-0.29838647225529785,-2.2925068333759775,-0.2907748757634717,2.884501274151995],[-5.710690647447534,4.548106456194627,1.3435426038544707,2.302754849112583,6.974741660589499,0.2162577850603234,-1.2694538844160395,3.886073568930099,2.359300362761479,-4.479453776907975],[-4.306242618922048,9.571528423474202,-1.9114795257622392,0.1679399677985365,-0.230730263767577,3.3373046024607294,-0.17999469234695753,2.1558158566345442,-2.5430037672507178,-0.29015842875034503]]}],"biases":[{"rows":10,"cols":1,"data":[[-2.338094693597194],[-1.4972690818698808],[-0.41297547299089366],[2.083636365988764],[-1.475851958387278],[0.7036637226879107],[0.7880392175531259],[0.03363261956655987],[-0.42117240659477645],[-5.3266707058773]]},{"rows":3,"cols":1,"data":[[1.0456737194070547],[-1.470525678185743],[-1.3795732224465937]]}],"isDead":false,"currentFitness":35952.85015343763,"positionNumber":10},{"nodesPerLayer":[13,10,3],"numLayers":3,"learningRate":0.1,"weights":[{"rows":10,"cols":13,"data":[[-0.1518250464888062,1.5812753927596201,6.935147447917679,4.4520984601870115,-0.3315638472032406,1.4909037706651747,6.40557822985424,2.8554721840746544,3.210409427699693,-4.263192901284866,-0.8598733342015362,-3.8756991961568863,-0.12758074981720552],[0.8076618597105351,2.810057626390919,1.3151238748845087,-0.6012370248680542,-2.0350499366705637,4.2806095907735555,-1.8524400287434855,-6.256509661120206,-0.5177014655327249,-3.4454529028297354,-1.123793568496542,0.825064055208977,2.6108016474620244],[-4.733381739052316,0.2538727740023604,-5.680825005715777,-2.2013351794849503,-2.69860987795899,-3.0094258723275233,-2.730086927392649,1.433770092808179,0.01394697823307948,0.5296734059114647,1.149082004166025,1.4174800735976014,1.5856188576283519],[-0.8914386151478996,1.4042090953499253,0.8512659356529835,2.3838670619766953,2.5872774458319103,-0.8352303970451564,-1.4638328502290294,-1.7907024262052849,-3.7816854278388465,-1.1611930595376296,-1.5188803071746486,-3.313651785445085,2.136698929356575],[2.3771768895066065,-0.3446049809790286,-3.692353962058302,-3.7685418378529203,0.3596744020698589,-1.7536802701731138,-3.3583628973015376,0.831006903718895,2.9429232576321107,-2.52416897431828,1.2172995263636197,0.08077703736116648,1.8968051163787514],[1.8047083447864023,0.22283366892434028,-2.269826590836942,2.8257220887012715,1.4544130238633837,0.21022557084278448,-1.003770084771028,-4.2779947707027715,-2.9084792396106005,-0.17241583348471834,-0.9579428663582568,1.8169720860242418,1.9467296136094114],[6.136760094118324,0.45890393796705875,-1.6338887913689093,-3.689184898645753,1.9429026630491226,1.0294785195752496,2.4045819582987837,-2.283636096854504,4.350668854726134,-6.505653202363916,0.473973058253922,0.9025572886834523,2.7102980209992373],[-1.091431998965515,-1.2068006950448829,0.41988189967414447,-0.887793818916021,1.5052569300140746,1.588605091064522,-3.066903981394599,0.7465561733896078,2.718233758817243,-1.9580729430661417,-2.159071369621379,0.23204607217276066,-3.420436298876785],[1.7399198687421713,-0.5214709580805463,-2.4697136468842946,-0.6587779673173,1.876152697333093,3.09364865639019,-4.240530029041008,-3.8108083784699684,-1.1519598009332035,0.5741612285851515,0.28938789297494566,-2.5330321676010095,-3.369760004175783],[-2.660090288205727,-1.0390715918906344,1.9811943929723708,0.730478635984581,7.800171957006495,-1.4418190186396063,-3.4209204962030637,0.32048527098975454,5.324783470259453,0.19767850987255037,-7.262948566548151,0.18237840610895079,1.2846025496605311]]},{"rows":3,"cols":10,"data":[[0.8947324973428685,-2.2929568704709355,-1.5242848175141952,-1.5718820950171826,-0.9107220674960492,1.6745505021593912,-1.3182093209912247,-2.9009985609508613,0.10783548570851614,1.3664642324493497],[-5.710690647447534,4.051467584769551,1.6263641051064788,1.5480852348352903,8.384988455429411,0.5643151816026837,-1.2694538844160395,3.8826254406124674,1.6213674101371471,-5.137027806437644],[-4.306242618922048,8.286582752966892,-0.7887278606570975,-0.3527246863124601,-0.9752173334593786,3.3705522976458946,-0.17999469234695753,2.884497311098836,-1.9861935311668502,0.23175751819208856]]}],"biases":[{"rows":10,"cols":1,"data":[[-2.636977589307056],[-1.2185292115978656],[-2.2343026479588213],[2.083636365988764],[-1.3804477247329625],[0.34742573402309523],[0.20609331681651877],[-0.09005948285841564],[0.34045408782385606],[-5.88783420445996]]},{"rows":3,"cols":1,"data":[[0.9053814395015338],[-0.7396087099109758],[-1.3795732224465937]]}],"isDead":false,"currentFitness":35806.04564751332,"positionNumber":11,"isBest":true},{"nodesPerLayer":[13,10,3],"numLayers":3,"learningRate":0.1,"weights":[{"rows":10,"cols":13,"data":[[-0.1518250464888062,1.5812753927596201,6.935147447917679,4.4520984601870115,-0.3315638472032406,0.9681048197100192,6.40557822985424,2.8554721840746544,3.210409427699693,-4.263192901284866,-0.8598733342015362,-2.723949062465338,-0.12758074981720552],[0.8076618597105351,2.810057626390919,1.3151238748845087,-0.6012370248680542,-2.0350499366705637,4.2806095907735555,-1.8524400287434855,-6.256509661120206,-0.5177014655327249,-3.4454529028297354,-1.2362436926968359,0.825064055208977,1.8703662572759947],[-4.733381739052316,0.2538727740023604,-4.879874782363573,-2.2013351794849503,-2.69860987795899,-3.0094258723275233,-3.23492700773598,1.433770092808179,0.3086540699927147,0.3261163827508494,0.5541247770910702,1.4174800735976014,1.388455393892212],[-0.8092734193065539,1.4723727918265628,0.5449019583732643,1.8736773883065645,2.5872774458319103,-0.2882505527945882,-1.1627273814385857,-0.6013526635844142,-4.239191124082156,-0.26278594782805687,-1.178490275773994,-3.313651785445085,-0.19384541377151143],[1.8215547833063472,-0.3446049809790286,-3.360454051615999,-3.7685418378529203,-0.07114870946154223,-0.7707593558824068,-3.347550990803071,1.315487199282706,3.2977883231692298,-2.5730792533837574,1.4679272160391696,0.4430423523479774,1.9323396779836879],[1.7972198884819004,0.7163495807625553,-2.269826590836942,3.81048214159752,0.7480765480034168,-0.08175621570188057,-1.336889164965887,-3.7645461889285134,-2.9084792396106005,0.6672368641099066,-1.2515087537524365,1.6176731694588544,1.054522632879615],[6.136760094118324,0.22207271787999938,-1.6338887913689093,-3.4145842263917174,1.1591329828933807,1.4170506356202832,2.4045819582987837,-1.5138996971332739,4.350668854726134,-6.505653202363916,0.473973058253922,0.9025572886834523,2.7102980209992373],[-0.6807815764500644,-1.2068006950448829,0.41988189967414447,-0.887793818916021,1.5052569300140746,1.588605091064522,-3.066903981394599,0.9781667547747482,2.718233758817243,-1.9580729430661417,-2.159071369621379,0.23204607217276066,-3.420436298876785],[1.7399198687421713,-0.5214709580805463,-2.4697136468842946,-0.6587779673173,1.876152697333093,2.4928007251063744,-4.240530029041008,-3.8108083784699684,-1.1519598009332035,0.2944598166153421,0.34959712059801995,-2.158081380946582,-3.369760004175783],[-2.95205786927252,-1.0390715918906344,3.315925329163073,0.730478635984581,7.800171957006495,-1.4418190186396063,-3.4209204962030637,0.32048527098975454,5.324783470259453,0.19767850987255037,-7.262948566548151,0.18237840610895079,1.2846025496605311]]},{"rows":3,"cols":10,"data":[[0.29555609073860234,-2.2929568704709355,-1.5242848175141952,-1.3940761814301779,-0.9107220674960492,1.6745505021593912,-1.3182093209912247,-2.9009985609508613,0.10783548570851614,2.2147289335387303],[-5.710690647447534,4.548106456194627,1.3435426038544707,2.126036173243722,6.581262860286409,0.5643151816026837,-1.2694538844160395,4.21770926631269,2.7946109224136575,-3.6870538182351416],[-4.306242618922048,8.286582752966892,-0.7887278606570975,-0.3527246863124601,-0.9752173334593786,3.3705522976458946,-0.17999469234695753,2.562069572183891,-1.9861935311668502,0.23175751819208856]]}],"biases":[{"rows":10,"cols":1,"data":[[-2.636977589307056],[-1.2185292115978656],[-2.2343026479588213],[2.083636365988764],[-1.5168785339828705],[0.7036637226879107],[0.20609331681651877],[-0.09005948285841564],[0.34045408782385606],[-6.484601065483677]]},{"rows":3,"cols":1,"data":[[0.9053814395015338],[-1.1221736912172207],[-1.3795732224465937]]}],"isDead":false,"currentFitness":35775.43437600361,"positionNumber":12},{"nodesPerLayer":[13,10,3],"numLayers":3,"learningRate":0.1,"weights":[{"rows":10,"cols":13,"data":[[-0.1518250464888062,1.5812753927596201,6.913038160771105,4.234504319951617,-0.20173654032592808,0.9111463632804864,6.40557822985424,2.8554721840746544,3.210409427699693,-3.538522473175676,-0.8598733342015362,-3.8756991961568863,-0.12758074981720552],[0.8076618597105351,2.810057626390919,1.9988148471594287,-0.6012370248680542,-1.9099210039129295,4.074936547917642,-0.7959265978287733,-6.256509661120206,-0.1895074602418989,-3.087225758779182,-1.123793568496542,0.05529502956660126,1.8703662572759947],[-4.733381739052316,0.18813300605941602,-5.063630660370534,-2.2013351794849503,-2.69860987795899,-2.408148135283343,-2.730086927392649,1.433770092808179,0.01394697823307948,0.5296734059114647,0.5541247770910702,2.4642007416661573,1.388455393892212],[-1.2265952928376422,1.4723727918265628,0.5449019583732643,2.3838670619766953,2.5872774458319103,-0.2882505527945882,-0.01836187176650439,-1.2046701461425413,-4.239191124082156,-0.26278594782805687,-1.4127410641475058,-3.313651785445085,-0.19384541377151143],[1.8215547833063472,-0.672245217767958,-3.5744518797577425,-3.6689125816769947,-0.07114870946154223,-0.7707593558824068,-3.347550990803071,1.315487199282706,3.2977883231692298,-2.52416897431828,1.439286780520849,0.4430423523479774,1.8968051163787514],[1.542631618521633,0.7163495807625553,-2.269826590836942,4.284208430444032,0.7480765480034168,-0.08175621570188057,-1.336889164965887,-3.7645461889285134,-2.9084792396106005,0.6672368641099066,-0.9579428663582568,2.7352662617404593,1.054522632879615],[5.9757223183747055,0.22207271787999938,-1.6338887913689093,-3.6937609878532625,1.8390020333133081,1.7758272683405572,2.7636588218394866,-0.8858407986332263,4.073972920109371,-6.505653202363916,0.473973058253922,0.9025572886834523,2.7102980209992373],[-1.1220399712412692,-1.2068006950448829,0.25403995875903007,-0.887793818916021,2.0659487651337116,1.3881830126283516,-4.049715536674114,0.8721782875376263,2.5811742267340296,-1.9580729430661417,-2.159071369621379,0.23204607217276066,-3.1976361993736666],[1.7399198687421713,-1.3204871193454226,-2.4697136468842946,-0.8203113165467515,1.9227390306912735,2.175819303018701,-4.240530029041008,-3.478531089806362,-1.1519598009332035,-0.014148786208848962,0.28938789297494566,-2.5330321676010095,-3.407600423480067],[-2.1790613860096526,-1.0390715918906344,3.166292751842247,1.0000308228918902,7.0848722484005595,-1.4418190186396063,-3.4209204962030637,0.32048527098975454,5.324783470259453,0.19767850987255037,-7.262948566548151,-0.22271518752196184,1.6979221946749048]]},{"rows":3,"cols":10,"data":[[0.6732924231126343,-3.3375218133631255,-1.5242848175141952,-1.3940761814301779,-0.9107220674960492,1.853036735642433,-1.3182093209912247,-2.2925068333759775,0.10783548570851614,2.491145884196355],[-5.710690647447534,4.548106456194627,1.3435426038544707,2.7018385542976806,6.974741660589499,0.5643151816026837,-1.2694538844160395,3.886073568930099,2.359300362761479,-4.479453776907975],[-4.306242618922048,8.286582752966892,-1.9114795257622392,-1.0185054377873444,-0.9752173334593786,3.3705522976458946,-0.17999469234695753,2.562069572183891,-1.9861935311668502,0.23175751819208856]]}],"biases":[{"rows":10,"cols":1,"data":[[-2.338094693597194],[-1.5825801475356198],[-2.2343026479588213],[2.083636365988764],[-1.475851958387278],[0.7036637226879107],[-0.06962611999059604],[-0.09005948285841564],[-0.42117240659477645],[-5.7085266409595405]]},{"rows":3,"cols":1,"data":[[0.9053814395015338],[-1.1221736912172207],[-2.396363859986031]]}],"isDead":false,"currentFitness":35771.2737623748,"positionNumber":13},{"nodesPerLayer":[13,10,3],"numLayers":3,"learningRate":0.1,"weights":[{"rows":10,"cols":13,"data":[[-0.1518250464888062,1.4038317816482908,6.749081004362677,4.7824520641933495,-0.20173654032592808,1.4909037706651747,6.40557822985424,3.597201105757566,3.210409427699693,-3.966937708462395,-0.8598733342015362,-3.8756991961568863,-0.12758074981720552],[0.8076618597105351,2.810057626390919,1.9228547302478254,-0.6012370248680542,-1.8041818811170094,4.074936547917642,-1.8524400287434855,-6.256509661120206,-0.5745580216026792,-3.4454529028297354,0.07571521609738263,0.5293882612075654,0.5472383845011576],[-4.749254814284513,0.18813300605941602,-4.879874782363573,-1.8792082924996054,-2.69860987795899,-2.408148135283343,-2.730086927392649,1.433770092808179,0.126884918115912,0.5296734059114647,0.5541247770910702,0.5695209598379739,1.388455393892212],[-0.2819362024439779,1.7422970697562694,0.8512659356529835,2.3838670619766953,2.8412176073047966,-0.8352303970451564,-1.4638328502290294,-0.6013526635844142,-3.7816854278388465,-0.26278594782805687,-1.185353479898098,-3.103140704897429,0.24103150570072518],[1.8111117457479702,-0.19341369212133777,-3.2354922809532516,-3.580016797014157,0.6105161666258574,-1.1746280425114703,-2.9458241898558866,1.315487199282706,2.9429232576321107,-2.47677640587231,1.2358367417070466,0.08077703736116648,1.853023713982079],[1.7972198884819004,0.22283366892434028,-1.7653735029024178,2.8257220887012715,1.2939921946651656,0.21022557084278448,-1.2241364694643138,-3.7645461889285134,-2.9084792396106005,0.6672368641099066,-0.9579428663582568,2.6850165646549247,0.8063877374524029],[6.00130330300879,0.22207271787999938,-1.6338887913689093,-5.009666832002223,1.8390020333133081,1.6176885439629498,2.4045819582987837,-0.11942507562717275,3.9061394326390344,-6.505653202363916,0.473973058253922,0.9025572886834523,2.9310596458472897],[-1.1220399712412692,-1.0155048915662799,0.25403995875903007,-0.887793818916021,2.0659487651337116,2.818826417639338,-3.066903981394599,0.9781667547747482,2.718233758817243,-1.9580729430661417,-2.159071369621379,0.23204607217276066,-3.420436298876785],[1.7399198687421713,-0.5214709580805463,-2.4077824390657985,-0.17170006741089894,1.8171127376986016,1.8118690872037497,-4.240530029041008,-3.8108083784699684,-1.1519598009332035,0.5741612285851515,0.28938789297494566,-2.502391204683189,-3.407600423480067],[-2.1790613860096526,-1.5450527576105997,3.841478453356176,0.730478635984581,7.272736944995476,-1.4418190186396063,-3.4209204962030637,0.32048527098975454,5.324783470259453,0.19767850987255037,-7.262948566548151,0.09856883304596403,1.2846025496605311]]},{"rows":3,"cols":10,"data":[[0.29555609073860234,-3.3375218133631255,-1.5242848175141952,-1.3940761814301779,-1.3813006163783847,2.0461197840327294,-1.3182093209912247,-2.975950804691995,0.10783548570851614,2.491145884196355],[-6.0573888347783535,4.739832100804171,0.7063975029184171,2.126036173243722,8.97206013392746,0.5643151816026837,-1.2694538844160395,3.3748993995685423,2.359300362761479,-3.8969521261235047],[-4.628105737031955,8.286582752966892,-1.9114795257622392,-0.3527246863124601,-0.9752173334593786,2.5094348058917713,-0.17999469234695753,2.791834248141691,-2.481800799960274,0.23175751819208856]]}],"biases":[{"rows":10,"cols":1,"data":[[-2.338094693597194],[-1.2185292115978656],[-2.2343026479588213],[2.083636365988764],[-1.3804477247329625],[0.7036637226879107],[0.20609331681651877],[-0.09005948285841564],[-0.42117240659477645],[-5.7085266409595405]]},{"rows":3,"cols":1,"data":[[0.6431853179703241],[-1.1221736912172207],[-1.3795732224465937]]}],"isDead":false,"currentFitness":35756.67008403065,"positionNumber":14},{"nodesPerLayer":[13,10,3],"numLayers":3,"learningRate":0.1,"weights":[{"rows":10,"cols":13,"data":[[-0.34159434159104873,1.9297595042728573,7.811900954847965,4.062496965696743,-0.31975166070628924,1.4684738441137357,6.086421851605263,3.077750201863252,3.373029237288557,-4.492280546601556,-0.6705855171754711,-3.400854029054334,-0.5166405655321666],[0.8076618597105351,4.256994045078976,1.6581725950103303,-0.6012370248680542,-2.0350499366705637,4.074936547917642,-1.1488805343324298,-6.256509661120206,-0.7987952131641631,-3.3270652553967706,-0.32957083550816413,0.8489452258335308,1.2445646581393992],[-4.733381739052316,0.18813300605941602,-5.064310341552291,-2.232538558829154,-3.425116946565929,-2.4766781208627173,-2.730086927392649,0.6648489176295946,0.4468517180208543,0.2513016663466077,0.2513059546140084,1.1778497326828374,1.5080606166015198],[-0.8914386151478996,1.7422970697562694,0.8512659356529835,2.3838670619766953,2.5872774458319103,-0.8352303970451564,-1.4638328502290294,-0.6013526635844142,-3.0340815579995626,-0.26278594782805687,-1.185353479898098,-3.103140704897429,0.24103150570072518],[2.0965555524934727,-0.19341369212133777,-2.6075050587814927,-3.580016797014157,0.6105161666258574,-1.1746280425114703,-2.9458241898558866,1.315487199282706,2.9429232576321107,-2.47677640587231,0.9043515970774925,0.08077703736116648,1.853023713982079],[1.7972198884819004,0.22283366892434028,-1.7653735029024178,2.8257220887012715,1.2939921946651656,0.21022557084278448,-1.2241364694643138,-3.7645461889285134,-2.9743046674562956,0.6672368641099066,-1.5705237102392693,2.6850165646549247,1.054522632879615],[5.232842598854635,1.042548154142636,-1.6338887913689093,-2.9414482620992035,3.97766117249697,2.0171388493171643,1.6229293836052812,-0.8858407986332263,3.5441844485760248,-5.984149273748633,-0.29518385541641734,0.0057668042888988635,3.2982988060499774],[-0.12143633981061203,-1.504997735471142,0.4718932720020471,-1.382268614562852,2.8456928228061074,1.588605091064522,-3.0837985691159218,1.0347089589696046,2.718233758817243,-2.632947965911528,-1.6081868181074728,0.5627347934408188,-2.715847367923469],[2.7003455771407614,-0.7360107125097395,-1.9208006094729155,-0.8300429365590679,1.7584300297404956,1.976696417361667,-4.240530029041008,-4.067961111562122,-1.989191417890833,1.2850661668186505,-0.21638754042148903,-2.6861326192866697,-3.070925085306066],[-2.1790613860096526,0.3619661231877031,3.0619636622219177,1.2424435441930517,7.344782208806073,-1.770160644099813,-2.7037951777385762,0.32048527098975454,4.753027585097588,-0.5035000854737934,-7.77681378738978,0.7282479288719124,1.2846025496605311]]},{"rows":3,"cols":10,"data":[[-0.5250740229283019,-3.3458507875262478,-1.11993542114062,-0.2930285053314927,-1.50789359604644,1.853036735642433,-0.29838647225529785,-2.2925068333759775,0.19693404039958617,2.491145884196355],[-5.710690647447534,4.799428292789767,0.7063975029184171,2.126036173243722,8.97206013392746,0.5643151816026837,-1.2694538844160395,3.3748993995685423,2.359300362761479,-3.828953289194526],[-4.306242618922048,9.571760691413532,-2.545975421022253,-0.03073106627491462,1.2434462712529422,3.2427621105356526,-0.17999469234695753,2.1558158566345442,-2.178717772808745,0.23175751819208856]]}],"biases":[{"rows":10,"cols":1,"data":[[-2.338094693597194],[-1.6511802754547613],[-0.41297547299089366],[1.511649067203778],[-1.3804477247329625],[0.7036637226879107],[1.2751539715188045],[-0.09005948285841564],[-0.42117240659477645],[-4.947291533182455]]},{"rows":3,"cols":1,"data":[[1.0456737194070547],[-1.1221736912172207],[-1.6288526923476485]]}],"isDead":false,"currentFitness":35719.12649514767,"positionNumber":15},{"nodesPerLayer":[13,10,3],"numLayers":3,"learningRate":0.1,"weights":[{"rows":10,"cols":13,"data":[[-0.6185575312872315,1.040589018347998,8.295745188052894,4.047480894767958,-0.013709774921430884,1.060238557374037,5.756356271798412,1.7354589391705872,2.5714133664150367,-3.561282910226759,-0.38524922177679916,-2.654081073224626,-0.8720210715691756],[0.47889205417244585,3.036138173907963,2.066157731594304,-1.7372014218959864,-1.3648432088098996,4.7963311795112835,-1.7499568091781863,-5.328670978140175,-1.1920210865498242,-1.128159144794258,-1.813349443322663,2.2965478801145878,0.7390942090567447],[-4.119380118821478,-0.5437945678185881,-3.735495474783364,-1.4313142467296804,-2.4460485563091723,-2.733717128180965,-2.1058802580810827,-0.5305600372796542,0.020154773429812867,0.7898089026558526,0.6033811310383349,2.326977472948608,0.18969689481054414],[-1.4607904954013273,1.4723727918265628,0.5449019583732643,2.3838670619766953,2.5872774458319103,-0.2882505527945882,-1.1627273814385857,-1.2046701461425413,-4.239191124082156,-0.26278594782805687,-1.4127410641475058,-3.313651785445085,-0.19384541377151143],[1.8215547833063472,-0.672245217767958,-3.5744518797577425,-3.7685418378529203,-0.07114870946154223,-0.7707593558824068,-3.347550990803071,1.315487199282706,3.2977883231692298,-2.52416897431828,1.439286780520849,0.4430423523479774,1.8968051163787514],[1.542631618521633,0.7163495807625553,-2.269826590836942,4.284208430444032,0.7480765480034168,-0.5887918274116186,-1.336889164965887,-3.7645461889285134,-2.9084792396106005,0.6672368641099066,-0.9579428663582568,2.6850165646549247,1.054522632879615],[5.339891594240915,1.1622581713465427,-0.24334387430244928,-0.17205049819766993,1.4390673559373899,2.7680721323120747,1.5199660022473198,-1.1479264267851383,3.056201649391195,-5.679835377469213,-0.8031476035061147,1.2454839306407655,2.9420936253707097],[-1.3219262925744928,-1.4807293627244231,-0.19888762433333643,-1.6572891276609774,3.1029731886782685,0.9333958278007066,-3.4239665485151614,1.1447510056889925,1.8867046370595015,-2.4217882067340466,-2.6100078756569967,0.7342157380089098,-1.901875301582915],[2.9364900936190725,-1.673243033850998,-2.996447469284184,0.7625181769373975,0.6167172532079896,2.5377587692363246,-5.001553193203119,-3.400940260623617,-2.0144194954231036,0.5898312590216495,0.33611018698643574,-3.161152022973756,-3.6234557357673935],[-0.7439076556727301,-0.1419838942195576,1.9381487436625024,0.23359845818146013,7.815340693684955,-1.7801606468815894,-3.480483935548285,-0.1863388435453904,3.9254547211164112,2.7034599985459047,-6.671368978450885,2.1021324971410813,-0.49730430690819044]]},{"rows":3,"cols":10,"data":[[-1.6635524244167357,-4.552571412035626,-1.263971852632519,0.5839279498319854,-2.211702902933812,2.033071018678521,0.3933962889057058,-3.0166069488999723,0.2518850386722002,2.3192361411731945],[-5.710690647447534,4.548106456194627,1.3435426038544707,2.302754849112583,6.974741660589499,0.02959006987781332,-0.5975946409325475,3.886073568930099,1.5213768969503993,-4.479453776907975],[-2.3681835572370877,9.097290909603055,-2.0415003421842193,1.594542967667533,-0.8510133280531075,3.192941319597239,0.03203612779432419,2.889089203615544,0.38447634233486416,0.4980443360331015]]}],"biases":[{"rows":10,"cols":1,"data":[[-3.491202752153661],[-0.8193824682914805],[0.09267453693407177],[2.083636365988764],[-1.6571670865626553],[1.5579596470356774],[0.5456381083731913],[0.7075204728304194],[-0.8033096727986451],[-4.719784975359539]]},{"rows":3,"cols":1,"data":[[0.9358149623307856],[-1.1221736912172207],[-0.591066089673057]]}],"isDead":false,"currentFitness":35689.99372722302,"positionNumber":16},{"nodesPerLayer":[13,10,3],"numLayers":3,"learningRate":0.1,"weights":[{"rows":10,"cols":13,"data":[[-0.3889643373695636,1.694296239082209,6.935147447917679,4.7824520641933495,-0.20173654032592808,1.4424528088223574,6.40557822985424,2.8554721840746544,3.210409427699693,-4.263192901284866,-0.8598733342015362,-3.8756991961568863,-0.42985986183567204],[0.8076618597105351,2.810057626390919,1.3151238748845087,-0.6012370248680542,-2.257770308899608,4.074936547917642,-1.8524400287434855,-6.256509661120206,-0.5177014655327249,-4.157661167243861,-1.123793568496542,0.8489452258335308,1.8703662572759947],[-4.733381739052316,0.1460916168964183,-4.879874782363573,-1.9098973663281402,-2.69860987795899,-2.408148135283343,-2.5956985409536304,1.3948774796804604,0.01394697823307948,-0.11239415647797613,0.6795568767140221,1.7174130403442494,1.388455393892212],[-1.2265952928376422,1.4723727918265628,0.5449019583732643,2.3838670619766953,2.5872774458319103,-0.2882505527945882,-1.1627273814385857,-0.6409950832608522,-4.239191124082156,-0.26278594782805687,-1.5309323064353249,-3.313651785445085,-0.19384541377151143],[1.8215547833063472,-0.3446049809790286,-3.848935177927511,-3.7685418378529203,-0.07114870946154223,-0.7707593558824068,-3.347550990803071,1.315487199282706,3.2977883231692298,-2.936507004359891,1.4679272160391696,0.4430423523479774,2.3708467436519163],[1.7972198884819004,0.7163495807625553,-2.269826590836942,3.7106512859897416,0.7480765480034168,-0.08175621570188057,-1.8886000224586454,-3.7645461889285134,-2.995024251695299,0.6672368641099066,-0.9579428663582568,2.6850165646549247,1.2323007410580096],[6.00130330300879,0.22207271787999938,-1.6338887913689093,-3.6937609878532625,1.8390020333133081,1.6176885439629498,2.4045819582987837,-0.8858407986332263,4.47868620437028,-6.505653202363916,0.473973058253922,0.9025572886834523,2.7102980209992373],[-1.1220399712412692,-1.2068006950448829,0.25403995875903007,-0.887793818916021,2.0659487651337116,1.588605091064522,-3.066903981394599,0.9781667547747482,2.718233758817243,-1.9580729430661417,-1.2009917698798946,0.5636250158085266,-4.096851663435367],[1.7399198687421713,0.6527841168624857,-2.7211583252933926,-0.8203113165467515,1.876152697333093,2.175819303018701,-4.240530029041008,-3.8108083784699684,-1.1519598009332035,0.5741612285851515,0.28938789297494566,-2.5330321676010095,-3.407600423480067],[-2.1790613860096526,-1.0390715918906344,3.166292751842247,0.0399393409769504,7.800171957006495,-1.4418190186396063,-3.4209204962030637,0.32048527098975454,5.324783470259453,0.19767850987255037,-7.262948566548151,-0.22271518752196184,1.2846025496605311]]},{"rows":3,"cols":10,"data":[[-0.26706301599157856,-3.3375218133631255,-1.5242848175141952,-1.3940761814301779,-0.9107220674960492,1.853036735642433,-1.3182093209912247,-2.2925068333759775,-0.20709133401776414,2.491145884196355],[-5.710690647447534,4.243158176881846,1.3435426038544707,2.126036173243722,6.974741660589499,0.5643151816026837,-1.2694538844160395,3.3932130634430804,2.359300362761479,-4.070986596998874],[-4.392626481057199,7.650292649846978,-2.3871315853567014,-0.3527246863124601,-0.9752173334593786,3.81394090069337,-0.17999469234695753,2.562069572183891,-1.6100503789998055,0.23175751819208856]]}],"biases":[{"rows":10,"cols":1,"data":[[-2.338094693597194],[-1.2185292115978656],[-2.2343026479588213],[2.083636365988764],[-1.3804477247329625],[0.7036637226879107],[0.20609331681651877],[-0.5389775195756568],[-0.05328895478435863],[-5.7085266409595405]]},{"rows":3,"cols":1,"data":[[0.9053814395015338],[-1.1221736912172207],[-1.3795732224465937]]}],"isDead":false,"currentFitness":35690.15465611044,"positionNumber":17},{"nodesPerLayer":[13,10,3],"numLayers":3,"learningRate":0.1,"weights":[{"rows":10,"cols":13,"data":[[-0.34159434159104873,1.3396343440572358,7.71824145926236,3.8294979220716576,-0.013709774921430884,1.060238557374037,5.756356271798412,3.1070847530531776,3.2221339495153805,-3.894856042848196,1.9661465785060994,-3.0060402314715007,-0.8022152399334919],[0.9542318921598603,3.3969691121636467,1.8962109394362234,-1.6359225722072868,-0.9594898847672355,4.869271212664244,-2.727267891339851,-5.328670978140175,-1.1920210865498242,-1.193971438553224,-1.813349443322663,1.4490859987432596,1.6655963769825952],[-5.860642908606461,-1.659682267398622,-3.580197649041662,-1.7283239709524978,-2.4460485563091723,-2.5774660242349023,-3.3512415995653577,-0.5305600372796542,0.6114193422005885,0.17944824373241264,0.08895999667304944,2.841971537254724,1.3049718295552426],[-0.8914386151478996,1.4723727918265628,0.8512659356529835,2.3838670619766953,2.5872774458319103,-0.8352303970451564,-1.4638328502290294,-1.9416119486598304,-3.7816854278388465,-1.1611930595376296,-0.37897703712342645,-3.313651785445085,2.136698929356575],[2.3771768895066065,-0.3446049809790286,-3.692353962058302,-3.7685418378529203,0.3596744020698589,-1.7536802701731138,-3.5341605763829778,0.8463284616135919,2.9429232576321107,-2.52416897431828,1.2172995263636197,0.08077703736116648,1.8968051163787514],[1.8047083447864023,0.5339302539213348,-2.4532513076819615,2.8257220887012715,1.4544130238633837,-1.4059840882852122,-1.003770084771028,-4.271517962875418,-2.9084792396106005,-0.6285681456031162,-0.9579428663582568,2.722256785196212,1.9638367353247523],[5.07941036039932,0.4967269426432678,0.5915954581003232,-1.9935939049690532,1.3967833139208659,2.501356979423445,1.724390590775703,-0.5952156094583895,3.91587500731805,-5.651044348063727,-1.4221311091598032,0.7523512466367663,4.048126686049571],[-2.258047940351184,-1.4807293627244231,0.44184283029355004,-1.7507498840566067,3.10298304231586,1.5015392243369718,-3.182533325737224,0.2677902097077567,1.8867046370595015,-2.6714080778963174,-1.8896537864283478,1.155089156384479,-1.972814167530034],[2.645320560661658,-1.845408707418931,-2.8762425669935983,0.5067237108651506,1.458183855668576,2.113922092120139,-4.589500751985626,-3.5998199273108105,-1.7793547650008832,1.027691323289452,-0.24223648848758175,-3.2390855050085663,-3.6234557357673935],[-0.10951917307275405,-0.6084959622605404,1.5828922744229452,0.15771550749732827,7.815340693684955,-0.529390546619058,-3.480483935548285,0.33524604050490237,4.631546384728905,3.2046811715945323,-6.671368978450885,1.2048817646781018,-0.15720096534865757]]},{"rows":3,"cols":10,"data":[[-0.6149879422016113,-6.244045992578197,-0.8193972985589004,0.29285527654462046,-1.5495776044151965,2.033071018678521,0.20859604686851307,-3.3992744948769333,-0.06997462057938614,1.268778288382608],[-5.710690647447534,4.051467584769551,1.6263641051064788,1.5480852348352903,8.384988455429411,0.5643151816026837,-1.2694538844160395,4.107649899492938,1.6213674101371471,-5.137027806437644],[-2.942008202901338,8.83433940470629,-2.445462994028261,1.3100115073042782,-0.2730151912292801,2.7529746126896275,-0.45660637093518236,3.431153381183656,0.38447634233486416,0.9040372170860367]]}],"biases":[{"rows":10,"cols":1,"data":[[-3.491202752153661],[-0.19625864408989213],[1.1564728276893488],[2.083636365988764],[-0.7165578868142459],[0.23238662158751477],[0.54321768874573],[0.04949568976269986],[0.19375234023128463],[-5.750222297898939]]},{"rows":3,"cols":1,"data":[[0.6761105492811498],[-1.1221736912172207],[-0.591066089673057]]}],"isDead":false,"currentFitness":35666.361617566305,"positionNumber":18},{"nodesPerLayer":[13,10,3],"numLayers":3,"learningRate":0.1,"weights":[{"rows":10,"cols":13,"data":[[-0.34159434159104873,1.040589018347998,7.967510787425524,3.8294979220716576,-0.013709774921430884,1.060238557374037,5.756356271798412,2.4055891864763503,3.2221339495153805,-4.560708849182983,1.561685138067364,-3.0060402314715007,-0.8720210715691756],[0.9542318921598603,3.036138173907963,2.8823945692212583,-1.6359225722072868,-1.3648432088098996,4.869271212664244,-2.727267891339851,-5.328670978140175,-1.1920210865498242,-1.193971438553224,-1.813349443322663,1.0850053289073136,1.6655963769825952],[-5.860642908606461,-1.659682267398622,-3.580197649041662,-1.7283239709524978,-2.4460485563091723,-2.5774660242349023,-2.43012912565321,-0.5305600372796542,0.6114193422005885,0.17944824373241264,0.08895999667304944,2.841971537254724,1.806071500464184],[-0.8914386151478996,1.4723727918265628,0.8512659356529835,2.3838670619766953,2.5872774458319103,-0.8352303970451564,-1.4638328502290294,-1.9416119486598304,-3.7816854278388465,-1.1611930595376296,-1.5188803071746486,-3.313651785445085,2.136698929356575],[2.3771768895066065,-0.3446049809790286,-3.692353962058302,-3.7685418378529203,0.25271222564720425,-1.7536802701731138,-3.3583628973015376,0.831006903718895,2.7182674469379036,-2.52416897431828,1.2172995263636197,0.08077703736116648,1.8968051163787514],[1.8047083447864023,0.22283366892434028,-2.269826590836942,2.8257220887012715,1.4544130238633837,0.21022557084278448,-1.003770084771028,-4.2779947707027715,-2.9084792396106005,-0.17241583348471834,-0.9579428663582568,1.8169720860242418,1.9467296136094114],[5.1286629457006105,0.4967269426432678,0.5915954581003232,-1.0043736035905892,1.4390673559373899,1.8604526677004163,1.724390590775703,-0.5952156094583895,3.91587500731805,-5.964545823403193,0.37126570956641103,0.28596057216620197,4.048126686049571],[-2.258047940351184,-1.4807293627244231,0.44184283029355004,-1.7507498840566067,3.10298304231586,1.5015392243369718,-3.182533325737224,1.1447510056889925,1.8867046370595015,-2.6714080778963174,-1.8896537864283478,1.155089156384479,-1.972814167530034],[2.9806398494315958,-1.845408707418931,-2.8762425669935983,0.5067237108651506,1.458183855668576,2.5377587692363246,-4.589500751985626,-4.573725559095529,-2.911993573152498,1.027691323289452,-0.24223648848758175,-3.2390855050085663,-3.9520484168607153],[-1.197905095553433,-0.6084959622605404,1.5828922744229452,0.15771550749732827,7.815340693684955,-0.529390546619058,-3.480483935548285,0.33524604050490237,4.631546384728905,3.2046811715945323,-6.671368978450885,0.8424931346496181,-0.15720096534865757]]},{"rows":3,"cols":10,"data":[[-0.6149879422016113,-5.743611108975286,-0.8193972985589004,0.035461526768960194,-1.5495776044151965,2.033071018678521,0.20859604686851307,-3.3992744948769333,0.2518850386722002,1.268778288382608],[-5.710690647447534,4.051467584769551,1.6263641051064788,1.5480852348352903,8.384988455429411,0.5643151816026837,-1.2694538844160395,3.8826254406124674,1.6213674101371471,-5.137027806437644],[-2.942008202901338,8.83433940470629,-2.445462994028261,1.6898227209735195,-0.2730151912292801,2.7529746126896275,0.18607005859661058,3.431153381183656,0.38447634233486416,0.9040372170860367]]}],"biases":[{"rows":10,"cols":1,"data":[[-3.491202752153661],[-0.19625864408989213],[1.1564728276893488],[2.083636365988764],[-1.3804477247329625],[0.34742573402309523],[-0.30042632510237244],[0.04949568976269986],[0.19375234023128463],[-4.937161482004567]]},{"rows":3,"cols":1,"data":[[0.6761105492811498],[-1.1221736912172207],[-0.591066089673057]]}],"isDead":false,"currentFitness":35651.0749815768,"positionNumber":19},{"nodesPerLayer":[13,10,3],"numLayers":3,"learningRate":0.1,"weights":[{"rows":10,"cols":13,"data":[[-0.34159434159104873,1.040589018347998,8.295745188052894,4.047480894767958,-0.013709774921430884,1.060238557374037,5.756356271798412,1.7354589391705872,3.8957975242828864,-3.561282910226759,-0.6113646142688733,-2.1858681129246844,-0.8720210715691756],[0.47889205417244585,3.036138173907963,2.066157731594304,-1.7372014218959864,-1.3648432088098996,4.576368650475645,-1.7499568091781863,-5.328670978140175,-1.1920210865498242,-1.128159144794258,-1.813349443322663,1.5496598949993468,0.7390942090567447],[-4.119380118821478,-0.5437945678185881,-3.735495474783364,-2.027661857697758,-2.4460485563091723,-2.733717128180965,-2.1058802580810827,-0.25545150775993236,0.020154773429812867,0.7898089026558526,0.08895999667304944,2.326977472948608,0.5370591355029856],[0.08957264127135026,1.8491774904916667,0.8512659356529835,1.0741863686260091,1.4598424376178014,-0.27636686296715035,-1.3324700014277242,-0.46813000403774263,-3.543711436441366,-1.4763315180571008,-1.2025667081742535,-2.1938515443591653,0.16333744306771136],[2.4125604998872134,-0.5161152217150788,-4.257700787942655,-4.1610829672332255,0.3596744020698589,0.20750770856418688,-3.5733687828864142,1.234163986868721,3.1462129911426704,-2.5108765934337822,0.8856518811892439,0.8298677502677869,1.6940159251090612],[2.7174060494608314,0.1848161062729471,-1.311041086322407,1.7676890696939196,0.7480765480034168,-0.6752944883009606,-2.8790379369947905,-4.975201339867425,-3.11326190507807,0.8643114360834048,-0.9579428663582568,2.781575624343735,0.8341095060101765],[5.339891594240915,0.4967269426432678,-0.24334387430244928,-0.17205049819766993,1.4390673559373899,2.501356979423445,1.5199660022473198,-1.1479264267851383,3.2628941461726484,-5.679835377469213,-0.8031476035061147,0.7523512466367663,2.9420936253707097],[-1.3219262925744928,-1.4807293627244231,-0.19888762433333643,-1.6572891276609774,3.10298304231586,1.0355656883248494,-3.4239665485151614,1.1447510056889925,1.8867046370595015,-2.4217882067340466,-2.6100078756569967,0.27564500235432876,-1.9139204418109323],[2.9364900936190725,-1.7287351709123748,-2.996447469284184,1.0942056225040275,0.6167172532079896,2.5377587692363246,-5.001553193203119,-3.400940260623617,-1.7793547650008832,0.5898312590216495,0.403267717122191,-3.2390855050085663,-3.628127419749871],[-0.7439076556727301,-0.1419838942195576,1.9381487436625024,0.23359845818146013,7.815340693684955,-1.3585388489500316,-3.480483935548285,-0.3404555718061997,3.9254547211164112,3.2268807177881818,-6.671368978450885,2.1021324971410813,-0.15720096534865757]]},{"rows":3,"cols":10,"data":[[-1.6635524244167357,-4.552571412035626,-1.263971852632519,1.5224911810971826,-2.211702902933812,2.033071018678521,0.3933962889057058,-3.0166069488999723,-0.13035744032980734,2.3192361411731945],[-6.555177045114619,4.3721519434396985,0.8432571775948309,1.9395664186135826,8.860219409675917,0.5643151816026837,-1.072610322158431,2.8821571145022133,2.070341330984163,-4.9563205319381325],[-2.3681835572370877,8.683678695294642,-2.0415003421842193,1.685300411410675,-0.8510133280531075,3.192941319597239,-1.0246314475609752,2.889089203615544,0.38447634233486416,1.0330160704466838]]}],"biases":[{"rows":10,"cols":1,"data":[[-3.491202752153661],[0.09826571965530717],[-0.15218550454302315],[3.046681722962226],[-1.8688503975361554],[0.7036637226879107],[1.0126652280337116],[0.04949568976269986],[-0.8033096727986451],[-4.4846609746232815]]},{"rows":3,"cols":1,"data":[[1.0650616752486748],[-1.0219288839339404],[-0.591066089673057]]}],"isDead":false,"currentFitness":35623.04308068494,"positionNumber":20},{"nodesPerLayer":[13,10,3],"numLayers":3,"learningRate":0.1,"weights":[{"rows":10,"cols":13,"data":[[-0.34159434159104873,1.040589018347998,8.295745188052894,4.047480894767958,-0.013709774921430884,1.060238557374037,5.756356271798412,0.6406619928999395,3.496324127066034,-3.561282910226759,-0.38524922177679916,-2.654081073224626,-0.8720210715691756],[-0.11468908583628978,3.036138173907963,2.066157731594304,-1.7372014218959864,-1.3648432088098996,4.7963311795112835,-1.7499568091781863,-5.258238403045211,-1.1920210865498242,-0.2568775439853488,-2.0488803170550733,1.4389513027787217,0.7390942090567447],[-4.119380118821478,0.26134692063786247,-3.735495474783364,-1.8606613934701726,-2.4460485563091723,-2.733717128180965,-2.1058802580810827,-0.4575731824582102,0.020154773429812867,0.7898089026558526,0.7644649215197247,1.4139632189072722,0.5370591355029856],[-0.02959718050841431,1.4412130853576834,0.8512659356529835,1.48985642655347,1.8864339717597245,-0.27636686296715035,-0.9011378209060557,-1.1527459468842767,-3.543711436441366,-1.145755798023959,-1.103855394085728,-1.2713613250581215,0.16333744306771136],[1.9390615043494974,0.32287013036698264,-4.257700787942655,-4.1610829672332255,0.26217086584118,-0.6525941046099327,-2.7356787666232494,1.234163986868721,3.1462129911426704,-2.9253278613407936,-0.18550285842373015,0.6762487661231911,1.6940159251090612],[2.7174060494608314,0.1848161062729471,-1.311041086322407,1.7676890696939196,0.7480765480034168,-1.514084483098478,-2.8790379369947905,-5.530290620933179,-3.11326190507807,0.8643114360834048,-0.9579428663582568,2.023067251286585,0.6215019031909604],[5.339891594240915,0.4967269426432678,-0.8317361681571923,-0.749332890789029,1.4390673559373899,3.2463101988709844,1.5199660022473198,-0.7183170199681561,3.362687859696465,-5.978673739795104,-0.8031476035061147,-0.10026543699509771,2.9420936253707097],[-1.3219262925744928,-1.8898404233100587,-0.5400115407435182,-1.6572891276609774,3.10298304231586,0.9333958278007066,-3.4239665485151614,1.1447510056889925,1.8867046370595015,-2.4217882067340466,-2.6100078756569967,1.09105274351513,-1.7882809146859797],[3.0783534957543193,-1.640112959430806,-2.996447469284184,1.0942056225040275,0.6167172532079896,2.5377587692363246,-5.001553193203119,-3.400940260623617,-1.7793547650008832,0.5898312590216495,0.7879998411940343,-3.2055205432956018,-3.6234557357673935],[-0.7439076556727301,-0.1419838942195576,2.4564788954479377,0.23359845818146013,7.815340693684955,-0.6972793284941576,-3.480483935548285,-0.3404555718061997,3.1824800146086627,3.3148833812261764,-6.671368978450885,2.1021324971410813,-0.15720096534865757]]},{"rows":3,"cols":10,"data":[[-1.6635524244167357,-4.749037985426035,-1.263971852632519,0.5839279498319854,-1.8439009467274143,2.033071018678521,0.3933962889057058,-3.0166069488999723,0.2518850386722002,2.3192361411731945],[-6.34459546363158,5.032700820229623,0.8432571775948309,2.333710934025304,8.6080793737538,0.5643151816026837,-1.0938333187162177,2.8821571145022133,2.070341330984163,-4.8654808095858355],[-1.7346921178088834,8.683678695294642,-2.0415003421842193,1.1748816975611118,-0.8510133280531075,2.7529746126896275,-1.0246314475609752,2.156175085723706,0.3840871146381292,1.3410083351427025]]}],"biases":[{"rows":10,"cols":1,"data":[[-3.491202752153661],[-0.577897601220577],[-0.15218550454302315],[3.332007729496364],[-2.080691436355118],[1.065239322988716],[0.0248305452726576],[0.04949568976269986],[-1.1109530721052892],[-4.719784975359539]]},{"rows":3,"cols":1,"data":[[1.1829077021565046],[-1.0219288839339404],[-0.591066089673057]]}],"isDead":false,"currentFitness":35529.95186233942,"positionNumber":21},{"nodesPerLayer":[13,10,3],"numLayers":3,"learningRate":0.1,"weights":[{"rows":10,"cols":13,"data":[[-1.5760126344501415,2.4610018329467613,7.592120400563421,3.516488098591787,-0.20947329318064162,1.4684738441137357,6.622374933157725,2.8750322740479244,2.1196605426824147,-4.8926768273306385,-0.43184675936686895,-2.0495671763909438,-0.6862492185245799],[1.775776850325821,3.0293338753383963,1.8836525636503993,-0.6535655010719986,-1.4661525128300665,4.322508019071805,-0.8247453433855401,-5.338545635452905,0.5305482405721711,-2.920542355037227,-0.3253001194475097,1.334923237723682,-0.18949266733935044],[-4.796577513161678,-1.5856191151574295,-4.0394245201533305,-2.7155115566451205,-3.0388629766077466,-0.7960294359685378,-3.2643278370000672,0.9411751646518384,0.17375271362611755,0.6680772314545412,0.10170576111683094,1.81285939763055,0.935259051778994],[-0.898741428866809,-0.0685667566214071,0.3715634348196368,-0.29411361542272313,3.2306502535726125,-0.1202862143768997,-0.6335970328638011,-0.48339159915424595,-2.673699447145515,-1.2964022022225548,-1.0827090576854788,-1.63219776465214,-2.789794986669548],[2.4217143925496343,-0.9511183600897646,-5.71705582216735,-3.753397869484128,-0.19287373901860425,-0.6377452086284452,-3.015147920398158,1.3416364483872099,2.0283261109540978,-2.0996191580208263,2.444849029917069,0.9369657559827429,1.3178473341003254],[0.23617255623339267,-0.2831556525708132,-1.0266572553700597,2.652446912066963,0.3041383704537607,0.2812201177495819,-1.266523399894052,-3.5756863713237204,-2.812311009359944,0.8407050947472561,-1.1362304781840475,2.071480105078396,0.4832226067809413],[5.617184767478457,0.30363696776649163,-2.2025350945650852,-2.88906261195228,0.9333350188952271,1.0198936512622792,1.595758574043152,-0.43837024592458884,3.8183951284783952,-3.241869273299652,-0.29518385541641734,-0.4341507830842137,3.55492870288655],[-0.9087228251259422,-2.3190718184450954,-0.2154432562329115,-1.922552867028742,3.616103794809844,2.161143906423698,-2.1639888178977555,0.1458128675527057,0.3317031278821058,-2.3745089444631504,-1.9850866209872462,-0.2725825044075476,-1.2065476717864925],[1.4898021296366017,-2.291220796272828,-2.3846323719024918,-0.5067719056649262,1.901775696654241,2.710403566958389,-4.1345270319456295,-3.0874182407336312,-1.061742854883567,1.456312852985401,0.6116438996551536,-1.5729505445618046,-3.4887793331840573],[-1.762226440061827,-1.148735846516341,1.9374099545840169,-0.3518537961068122,7.813228927116116,-0.21066322695838674,-1.5101807185855451,-0.46677101575364954,4.632332423628446,0.7828756080370057,-7.435396467605553,1.2158489532461139,-1.0476334713344992]]},{"rows":3,"cols":10,"data":[[-2.179910791684071,-3.817586937271133,-0.9815804303350446,-0.9100809146087756,-1.2886929116280588,2.721641478236907,0.8776152074984079,-1.0291570400834842,0.7031801607198023,2.41605420598086],[-5.659979210027703,3.579602952630265,0.11364730911345089,1.1235933930150432,8.043130239911685,0.44866146674501073,-1.2698501779285596,2.4346281024403917,1.8338934341129483,-3.1777813416399368],[-3.578116581692644,9.809940127049174,-2.445462994028261,0.3759271762882265,-0.33360113207696973,1.4182405268419225,-0.3718634333841946,2.455604915662604,-1.0267489396167941,-0.5963236486110447]]}],"biases":[{"rows":10,"cols":1,"data":[[-2.4334144447552113],[-1.6551106652201508],[-0.03920314316008594],[1.0837659578533698],[-2.594882933543945],[-0.01934262316863007],[-0.4886355592156644],[-0.9651759154239762],[-0.8691647675750315],[-5.018970122958727]]},{"rows":3,"cols":1,"data":[[0.8098420231239126],[-1.7971184903520574],[-1.277589591880535]]}],"isDead":false,"currentFitness":35527.48329123996,"positionNumber":22},{"nodesPerLayer":[13,10,3],"numLayers":3,"learningRate":0.1,"weights":[{"rows":10,"cols":13,"data":[[-0.34159434159104873,1.9297595042728573,7.811900954847965,3.3860235692847773,-0.5280435374275698,1.4684738441137357,6.439382083427442,2.8554721840746544,2.8133666801469386,-4.3111277097318,-0.6705855171754711,-3.6597357704332274,-0.06738644522075872],[0.8076618597105351,4.914039482340664,1.5573381773751902,-0.6012370248680542,-1.8893882560419437,4.363500253286898,-0.8595183987242356,-6.256509661120206,-0.7987952131641631,-3.3270652553967706,-0.7295570217699778,0.8489452258335308,1.2445646581393992],[-4.733381739052316,0.18813300605941602,-4.874196568704464,-2.232538558829154,-3.1077927475119793,-2.408148135283343,-2.730086927392649,1.7464301924654206,0.7872875154239746,0.4164061899124363,0.2513059546140084,1.1778497326828374,1.4912721842071415],[-1.2265952928376422,1.4723727918265628,0.5449019583732643,1.8736773883065645,2.5872774458319103,-0.2882505527945882,-1.1627273814385857,-0.6013526635844142,-4.239191124082156,-0.26278594782805687,-2.271590326084966,-3.313651785445085,-0.19384541377151143],[1.8215547833063472,-0.3446049809790286,-3.360454051615999,-4.566053612843314,-0.07114870946154223,-0.7707593558824068,-3.288522839386863,0.87570901719117,3.767969328496992,-2.52416897431828,1.4679272160391696,0.4430423523479774,1.8968051163787514],[1.7972198884819004,0.7163495807625553,-2.269826590836942,3.7106512859897416,0.5569381540249156,-0.08175621570188057,-1.336889164965887,-2.8515032277502748,-2.9084792396106005,0.6672368641099066,-0.9579428663582568,1.6176731694588544,1.054522632879615],[4.926250671085678,1.0799872363560643,-1.6338887913689093,-2.9414482620992035,3.97766117249697,1.6093473614633949,1.6229293836052812,-0.8858407986332263,3.034834762208769,-5.872487049692867,-0.5558643191599314,0.9025572886834523,3.5646352296298898],[-0.12143633981061203,-1.504997735471142,0.25403995875903007,-1.382268614562852,2.594398622376698,1.588605091064522,-3.0837985691159218,1.538631360670087,2.9860896082371413,-2.6928715661474825,-1.6081868181074728,0.20395740488474462,-3.199393190126999],[2.3247769958066593,-2.3339233345726687,-1.9208006094729155,-0.8203113165467515,1.4797100488413857,3.442244986207022,-4.240530029041008,-3.505036867783408,-1.1519598009332035,1.1542896580651125,-0.09730731627973604,-2.5330321676010095,-3.070925085306066],[-2.1790613860096526,0.8353150646744613,3.0619636622219177,1.163140996852975,7.708555616948387,-1.770160644099813,-2.1649662428510843,1.319148941703124,5.187994153356847,-0.9042595600126506,-7.77681378738978,0.7282479288719124,1.2846025496605311]]},{"rows":3,"cols":10,"data":[[0.32785529864109697,-3.573858374183993,-1.015351640278968,0.23618002416693362,-0.9107220674960492,1.853036735642433,-0.29838647225529785,-2.8832851219139144,-0.2907748757634717,2.884501274151995],[-5.710690647447534,4.603982107351785,1.2759348469780019,2.126036173243722,6.974741660589499,0.5643151816026837,-1.2694538844160395,3.7036146459665438,2.7605407581212695,-4.479453776907975],[-4.306242618922048,9.571528423474202,-1.9114795257622392,0.1679399677985365,-0.230730263767577,3.3373046024607294,-0.17999469234695753,2.1620897908340693,-2.5430037672507178,-0.29015842875034503]]}],"biases":[{"rows":10,"cols":1,"data":[[-2.338094693597194],[-1.4972690818698808],[-0.41297547299089366],[2.083636365988764],[-1.3804477247329625],[0.7036637226879107],[0.7880392175531259],[0.03363261956655987],[-0.42117240659477645],[-4.947291533182455]]},{"rows":3,"cols":1,"data":[[1.0456737194070547],[-1.1221736912172207],[-1.3795732224465937]]}],"isDead":false,"currentFitness":35524.157561588756,"positionNumber":23},{"nodesPerLayer":[13,10,3],"numLayers":3,"learningRate":0.1,"weights":[{"rows":10,"cols":13,"data":[[0.3253835771049304,1.040589018347998,7.1250480215577126,4.338481048158999,-0.013709774921430884,1.060238557374037,5.756356271798412,2.4055891864763503,3.2221339495153805,-3.913795090535914,0.6752718930432146,-2.3982074446957777,-1.1820877195495818],[1.380952967688732,3.0358140953540302,2.066157731594304,-1.6359225722072868,-1.6887821321547989,4.840859918318083,-2.280246765045411,-5.025895842325371,-2.149135278994507,-1.1815099689385384,-1.813349443322663,1.9387400672762414,0.7390942090567447],[-4.119380118821478,-0.7636754563799355,-3.735495474783364,-1.8632595428216143,-2.4460485563091723,-2.5774660242349023,-2.8659334655211226,-0.1487392457615377,0.7209021741662048,0.4034454051867358,-0.38874220006324683,1.6931380433565932,1.6814284563834507],[-1.2265952928376422,1.4723727918265628,0.5449019583732643,1.8736773883065645,2.5872774458319103,-0.2882505527945882,-0.6718235731804502,-0.6013526635844142,-4.239191124082156,-0.26278594782805687,-1.178490275773994,-3.313651785445085,-0.19384541377151143],[1.8215547833063472,-0.3446049809790286,-3.360454051615999,-3.7685418378529203,-0.20659435280404465,-0.7707593558824068,-3.347550990803071,1.315487199282706,3.2977883231692298,-2.52416897431828,1.4679272160391696,0.4430423523479774,1.9323396779836879],[1.7972198884819004,0.7163495807625553,-2.269826590836942,3.7106512859897416,0.7480765480034168,-0.08175621570188057,-1.336889164965887,-3.7645461889285134,-2.9084792396106005,0.6672368641099066,-1.8769697044209037,1.6176731694588544,1.054522632879615],[4.902026602582416,1.5242365000258569,-0.24334387430244928,-1.6721616115362403,1.3271359434458356,2.726192000716744,1.1926112455136755,0.6097768491751066,4.3100277621539655,-5.978652684614509,0.02415646638021207,0.7523512466367663,2.7035352617178714],[-0.8642777942695472,-0.859685054565896,-0.06884997599746152,-1.6572891276609774,2.9573711969488214,0.9333958278007066,-3.182533325737224,1.1447510056889925,1.8867046370595015,-2.6714080778963174,-3.092208964954504,1.7695801379572234,-1.7882809146859797],[2.9806398494315958,-1.845408707418931,-2.8762425669935983,0.5067237108651506,0.6167172532079896,2.7497911696897495,-4.5612680899382125,-3.5998199273108105,-1.9721169379052015,0.5898312590216495,0.4065828702320162,-3.2390855050085663,-3.436939025159773],[-0.7439076556727301,-0.18065863481315453,2.0024567921267247,0.23359845818146013,7.815340693684955,-0.9770781567093251,-2.794893098442493,0.03607282995252087,4.708364577992811,3.2046811715945323,-6.671368978450885,1.2048817646781018,-0.15720096534865757]]},{"rows":3,"cols":10,"data":[[-0.8475144218080694,-5.425023127641876,-1.263971852632519,0.12398222827594291,-1.8439009467274143,1.9811398180938735,0.8776152074984079,-3.7905072575393346,0.08428851821980016,1.0409947624651466],[-5.710690647447534,4.548106456194627,1.3435426038544707,2.126036173243722,6.924727064896666,0.5643151816026837,-1.2694538844160395,3.886073568930099,2.359300362761479,-3.6870538182351416],[-2.3681835572370877,8.522351158438806,-2.779490518524432,1.4374970137008507,-0.2730151912292801,3.7834498025836623,-0.14003852062798652,2.889089203615544,-0.21764053714044895,1.17895192169337]]}],"biases":[{"rows":10,"cols":1,"data":[[-2.702156378728408],[-0.6637202719464407],[-0.15218550454302315],[2.083636365988764],[-1.5168785339828705],[0.7036637226879107],[0.54321768874573],[0.19390098071629508],[-1.4247199787959957],[-4.937161482004567]]},{"rows":3,"cols":1,"data":[[0.6761105492811498],[-1.1221736912172207],[-0.6117910781811073]]}],"isDead":false,"currentFitness":35424.78370859676,"positionNumber":24},{"nodesPerLayer":[13,10,3],"numLayers":3,"learningRate":0.1,"weights":[{"rows":10,"cols":13,"data":[[-0.34159434159104873,1.040589018347998,7.811900954847965,3.8294979220716576,0.03689772256628829,1.060238557374037,5.756356271798412,2.4055891864763503,3.68920343198027,-4.560708849182983,1.561685138067364,-3.0060402314715007,-0.8720210715691756],[0.9542318921598603,3.036138173907963,1.8962109394362234,-1.6359225722072868,-1.3648432088098996,5.105223810523939,-2.727267891339851,-5.328670978140175,-1.1920210865498242,-1.193971438553224,-1.813349443322663,1.3286461810652177,1.4395683114706253],[-5.984957591150638,-1.659682267398622,-3.580197649041662,-1.7283239709524978,-2.4167591145444582,-2.5774660242349023,-2.43012912565321,-0.6956259004608929,1.0453685701763704,0.17944824373241264,-0.3644868706917674,2.841971537254724,1.3049718295552426],[-0.8914386151478996,1.9338790870351827,0.5856019461972393,2.686376420865968,2.5872774458319103,-0.5751987009975463,-1.0824818100173923,-0.6013526635844142,-3.7816854278388465,-0.15122810053699998,-1.6360011295453345,-2.8173223351988614,0.15807772939602271],[2.1921142783150995,-0.09447877524056374,-3.5744518797577425,-3.7685418378529203,0.6105161666258574,-0.9468627033234054,-3.624903148002566,1.2180273637338659,2.9429232576321107,-2.47677640587231,0.9104772405679573,0.08077703736116648,1.8968051163787514],[1.7972198884819004,-1.1093467985888195,-2.269826590836942,2.8257220887012715,1.2939921946651656,0.21022557084278448,-1.336889164965887,-3.7645461889285134,-2.9084792396106005,0.2550328555745662,-0.6759948898299657,2.6850165646549247,1.054522632879615],[6.151960113201381,0.03797435724384324,0.5915954581003232,-1.0043736035905892,1.4189358029960264,2.501356979423445,1.724390590775703,-0.5952156094583895,3.91587500731805,-5.964545823403193,-0.8031476035061147,0.7523512466367663,4.048126686049571],[-2.258047940351184,-1.4807293627244231,0.44184283029355004,-2.4896749593327803,3.10298304231586,1.5015392243369718,-3.182533325737224,1.59071658781485,1.1793198566636522,-2.6714080778963174,-1.8896537864283478,1.155089156384479,-1.972814167530034],[2.9806398494315958,-1.845408707418931,-2.8762425669935983,0.5067237108651506,1.458183855668576,1.8204529364856001,-4.507214636026054,-3.5998199273108105,-1.7793547650008832,1.027691323289452,-0.9302564590065241,-3.2390855050085663,-3.6234557357673935],[-0.7439076556727301,-0.6084959622605404,2.213569154007168,0.15771550749732827,7.449900529518027,-0.529390546619058,-3.480483935548285,0.33524604050490237,4.5516007550981215,3.2046811715945323,-6.671368978450885,1.2048817646781018,-0.009617455123586971]]},{"rows":3,"cols":10,"data":[[-0.6149879422016113,-5.743611108975286,-0.3633509736010908,0.035461526768960194,-1.5008065569392006,2.033071018678521,0.20859604686851307,-3.3992744948769333,0.8506195964358529,1.268778288382608],[-5.710690647447534,4.051467584769551,1.3435426038544707,2.78446358205984,8.384988455429411,0.7850628780537936,-1.2694538844160395,2.4043082225406214,2.359300362761479,-4.185980234485469],[-2.942008202901338,8.83433940470629,-2.445462994028261,1.3100115073042782,-0.2730151912292801,2.7529746126896275,-0.16186103799864549,3.431153381183656,0.38447634233486416,0.9040372170860367]]}],"biases":[{"rows":10,"cols":1,"data":[[-3.491202752153661],[-0.19625864408989213],[1.1564728276893488],[1.844273264693158],[-1.3804477247329625],[0.7036637226879107],[0.54321768874573],[0.04949568976269986],[0.17998046497361672],[-6.003698072581536]]},{"rows":3,"cols":1,"data":[[0.6761105492811498],[-1.1221736912172207],[-0.591066089673057]]}],"isDead":false,"currentFitness":35409.94944569574,"positionNumber":25},{"nodesPerLayer":[13,10,3],"numLayers":3,"learningRate":0.1,"weights":[{"rows":10,"cols":13,"data":[[-0.34159434159104873,1.040589018347998,8.295745188052894,4.047480894767958,-0.013709774921430884,1.060238557374037,5.756356271798412,1.7354589391705872,2.8510056716389673,-3.561282910226759,-0.6113646142688733,-2.654081073224626,-0.8720210715691756],[0.47889205417244585,3.036138173907963,2.066157731594304,-1.7372014218959864,-1.3648432088098996,4.7963311795112835,-1.7499568091781863,-5.328670978140175,-1.1920210865498242,-1.128159144794258,-1.813349443322663,0.7334192860479163,0.7390942090567447],[-4.119380118821478,-0.5437945678185881,-3.735495474783364,-2.027661857697758,-2.4460485563091723,-2.733717128180965,-2.1058802580810827,-0.25545150775993236,0.020154773429812867,0.7898089026558526,-0.4592252705652331,2.326977472948608,0.5370591355029856],[-0.02959718050841431,1.853057814754798,0.8512659356529835,1.48985642655347,1.8864339717597245,-0.27636686296715035,-0.9011378209060557,-1.1527459468842767,-3.543711436441366,-1.145755798023959,-1.103855394085728,-1.2713613250581215,0.16333744306771136],[1.9390615043494974,0.32287013036698264,-4.257700787942655,-4.1610829672332255,0.26217086584118,-0.6525941046099327,-2.2753777273016986,1.234163986868721,3.1462129911426704,-2.5108765934337822,-0.18550285842373015,0.6762487661231911,1.6940159251090612],[2.7174060494608314,0.7801855168555077,-1.311041086322407,1.7676890696939196,0.7480765480034168,-1.514084483098478,-2.8790379369947905,-5.530290620933179,-3.11326190507807,0.8643114360834048,-0.9579428663582568,1.876116221311029,0.6215019031909604],[5.339891594240915,0.4967269426432678,-0.24334387430244928,-0.17205049819766993,1.4390673559373899,2.501356979423445,1.5199660022473198,-1.1479264267851383,3.2628941461726484,-5.679835377469213,-0.8031476035061147,0.7523512466367663,2.9420936253707097],[-2.0308890318203208,-2.3117473560208737,-0.19888762433333643,-1.6857637787861315,3.10298304231586,0.9333958278007066,-3.4239665485151614,1.1447510056889925,1.8867046370595015,-2.4217882067340466,-2.6100078756569967,1.09105274351513,-1.7882809146859797],[2.9364900936190725,-1.7287351709123748,-2.791627233632596,1.0942056225040275,0.6167172532079896,2.5377587692363246,-5.001553193203119,-3.400940260623617,-1.7793547650008832,0.5898312590216495,0.403267717122191,-3.2390855050085663,-3.6234557357673935],[-0.7439076556727301,-0.1419838942195576,1.9381487436625024,0.23359845818146013,7.815340693684955,-1.3585388489500316,-3.480483935548285,-0.3404555718061997,3.9254547211164112,2.7034599985459047,-6.671368978450885,2.1021324971410813,-0.15720096534865757]]},{"rows":3,"cols":10,"data":[[-1.6635524244167357,-4.552571412035626,-1.263971852632519,1.5224911810971826,-2.211702902933812,2.033071018678521,0.3933962889057058,-3.0166069488999723,0.2518850386722002,2.3192361411731945],[-6.555177045114619,4.3721519434396985,0.8432571775948309,2.333710934025304,8.6080793737538,0.5643151816026837,-1.0938333187162177,3.028318261602878,1.6981205093641263,-4.469664737415274],[-2.3681835572370877,8.683678695294642,-2.0415003421842193,1.685300411410675,-0.8510133280531075,3.192941319597239,-0.7357590789576216,2.889089203615544,0.38447634233486416,1.0330160704466838]]}],"biases":[{"rows":10,"cols":1,"data":[[-3.491202752153661],[-0.8193824682914805],[-0.15218550454302315],[3.332007729496364],[-2.080691436355118],[1.065239322988716],[1.0126652280337116],[0.04949568976269986],[-0.8033096727986451],[-4.719784975359539]]},{"rows":3,"cols":1,"data":[[0.8432424552368663],[-1.0219288839339404],[-0.591066089673057]]}],"isDead":false,"currentFitness":35382.405930479326,"positionNumber":26},{"nodesPerLayer":[13,10,3],"numLayers":3,"learningRate":0.1,"weights":[{"rows":10,"cols":13,"data":[[-0.3889643373695636,1.5812753927596201,6.935147447917679,4.7824520641933495,-0.20173654032592808,1.4909037706651747,6.40557822985424,3.118502800318793,3.210409427699693,-3.776320666860113,-0.8598733342015362,-3.8756991961568863,-0.24799256763647493],[0.3047926430381861,2.810057626390919,1.3151238748845087,-0.6012370248680542,-2.0350499366705637,4.074936547917642,-1.8524400287434855,-6.497156780379546,-0.5177014655327249,-3.4454529028297354,-1.0405210901466515,0.8489452258335308,1.8703662572759947],[-4.733381739052316,-0.35779313753800673,-4.879874782363573,-1.953607092605668,-2.69860987795899,-2.181234609244668,-2.730086927392649,1.3948774796804604,0.01394697823307948,0.5296734059114647,0.5541247770910702,1.4174800735976014,1.388455393892212],[-1.2265952928376422,1.4723727918265628,0.5449019583732643,1.9343047942355827,2.5872774458319103,-0.1929504073638958,-1.1627273814385857,-0.6013526635844142,-4.239191124082156,-0.26278594782805687,-1.4127410641475058,-3.313651785445085,-0.6611702549532195],[1.8215547833063472,-0.3446049809790286,-3.5744518797577425,-3.7685418378529203,-0.07114870946154223,-1.6923680826337293,-3.347550990803071,1.315487199282706,3.2977883231692298,-2.52416897431828,1.4679272160391696,0.4430423523479774,1.8968051163787514],[1.8875117979081157,0.5592924176203653,-2.254423710038738,3.3483949180281587,0.7480765480034168,-0.08175621570188057,-1.336889164965887,-3.7645461889285134,-2.9084792396106005,0.828106050453574,-0.9579428663582568,2.6850165646549247,1.054522632879615],[6.00130330300879,0.22207271787999938,-1.6338887913689093,-3.3044186348374667,1.8390020333133081,1.4467399990434016,2.4045819582987837,-0.8858407986332263,3.9061394326390344,-6.314888274981514,0.1797259258202431,0.9025572886834523,2.7102980209992373],[-1.1220399712412692,-1.2068006950448829,0.25403995875903007,-0.887793818916021,2.0659487651337116,1.588605091064522,-3.066903981394599,0.9781667547747482,2.718233758817243,-1.9580729430661417,-2.159071369621379,0.23204607217276066,-3.831660678486493],[1.7098021029716008,0.4264630406484504,-2.4697136468842946,-0.8203113165467515,1.876152697333093,2.175819303018701,-4.240530029041008,-3.8108083784699684,-1.1519598009332035,0.40887913868066633,0.28938789297494566,-2.5330321676010095,-3.8412888595209895],[-2.1790613860096526,-0.8155841505972902,3.166292751842247,0.5902561249728574,7.800171957006495,-1.4418190186396063,-3.4209204962030637,0.32048527098975454,5.324783470259453,0.19767850987255037,-7.262948566548151,-1.2271121258454745,1.2846025496605311]]},{"rows":3,"cols":10,"data":[[0.29555609073860234,-3.3375218133631255,-1.5242848175141952,-1.856102890749598,-0.9107220674960492,1.853036735642433,-1.3182093209912247,-2.2925068333759775,-0.20709133401776414,2.491145884196355],[-5.710690647447534,5.082547787803137,1.283350078015846,2.126036173243722,6.974741660589499,1.0962827584191261,-1.2694538844160395,3.886073568930099,2.6364848108986623,-4.479453776907975],[-4.392626481057199,8.286582752966892,-1.9114795257622392,-0.3527246863124601,-0.9752173334593786,3.3705522976458946,-0.7641889313688156,2.562069572183891,-1.9861935311668502,0.23175751819208856]]}],"biases":[{"rows":10,"cols":1,"data":[[-2.338094693597194],[-1.2185292115978656],[-2.2343026479588213],[2.083636365988764],[-1.4333557572696909],[0.7036637226879107],[0.20609331681651877],[-0.09005948285841564],[0.7312993285772316],[-5.7085266409595405]]},{"rows":3,"cols":1,"data":[[0.9053814395015338],[-1.1221736912172207],[-1.3795732224465937]]}],"isDead":false,"currentFitness":35326.24435413748,"positionNumber":27},{"nodesPerLayer":[13,10,3],"numLayers":3,"learningRate":0.1,"weights":[{"rows":10,"cols":13,"data":[[-0.34159434159104873,4.335989529290236,8.490376631180544,3.516488098591787,-0.20947329318064162,1.4684738441137357,6.294945242091057,2.4531565504900903,2.6887439929992696,-4.8926768273306385,0.10672427478004298,-2.0495671763909438,-1.2986838243428627],[1.775776850325821,2.600235120416218,1.8836525636503993,-0.6535655010719986,-1.4661525128300665,4.005982327339606,1.1752313670093757,-5.338545635452905,0.5305482405721711,-3.144096778194566,-0.4386271722581251,1.334923237723682,-0.18949266733935044],[-4.796577513161678,-1.5856191151574295,-4.0394245201533305,-2.7155115566451205,-3.7070319297384597,-0.845605768075097,-3.2643278370000672,0.9411751646518384,0.17375271362611755,0.8724604590239893,0.10170576111683094,1.81285939763055,0.935259051778994],[-0.8914386151478996,1.4723727918265628,0.8512659356529835,1.9524506193298865,2.5872774458319103,-0.8352303970451564,-1.4638328502290294,-1.9416119486598304,-3.7816854278388465,-1.8374176926438812,-1.5188803071746486,-3.313651785445085,2.136698929356575],[2.3771768895066065,-0.3446049809790286,-3.692353962058302,