[{"nodesPerLayer":[13,10,3],"numLayers":3,"learningRate":0.1,"weights":[{"rows":10,"cols":13,"data":[[0.477806830942072,0.8719007805704918,5.775562552857917,1.1104857933699699,-0.5906011880435482,0.08979010967725198,4.0785625846211495,2.016257357654026,1.2051525899773792,-1.7386113314088527,0.7543041429663474,-0.7128851641565708,-1.1674748102822379],[-1.8386691309756955,2.8481097246904876,-0.0475327403683411,0.31359337720162483,1.1557908041033103,6.638894446744205,-1.3541944709026505,-5.4921296562935265,2.3318520557205855,-1.3227378302874104,-0.2359834932646998,0.663359482867934,1.8914846102518137],[-4.694508018137814,-1.6383187724830681,-6.258061387108245,-1.1285364223303505,-2.5449380844767027,-1.5177169613685153,-0.4923575152536541,-1.1806384563571997,-1.9031524522007643,0.8537440821598432,-2.8013857326087206,2.603480551037388,1.2142828729028539],[-0.16962290769806737,2.826799864387503,-0.7516472643353499,0.7736456002195934,0.4655977679429317,0.14348207709993022,-0.716415987085815,1.1287586712465292,-3.2497965357737106,-1.3224608502120638,-2.074007601591991,1.0244879723279972,-0.7853074990907626],[2.4586938304391985,-1.2599347029765053,-4.751831181457968,-1.2951817411653104,0.420293174515271,-0.1843676156267055,-4.745187171414365,2.300785964336254,3.1814340549118327,-2.6995940042844966,1.0845208866827103,2.3285634681039267,0.8586934947853924],[0.3232511113783078,-1.7866492247931842,-1.4541483190404314,0.25100916744914914,1.6370730952036643,-1.5168240812968214,-3.00815861082816,-1.938347862255449,-0.6414666831176711,3.4781361009046026,-0.8127600977659464,3.5734590097303753,0.41303186848203527],[5.097462012530211,-0.1084522221098776,0.7153019200244705,-1.8151679976318453,1.113423719266704,0.6841713611712171,1.6869082854205621,-2.2131829276487984,4.199430978141523,-4.11503553969037,-1.0009421672121872,0.05188014981157979,3.7480503440405655],[-2.96592325701071,0.23903016971589863,1.089616543247501,-1.8738899976563708,2.893977911759425,2.010382993314585,-3.4303653372434346,-0.07103545416044799,0.8781010534324016,-2.5141410295967312,-2.2046969465795203,-0.12671425532777145,-0.3235942047198471],[0.794650824434106,-1.4233457182042297,-1.78576216587009,-1.8994154640421204,-1.2806145768067134,2.3585659128914447,-4.459162416159155,-1.4199872394327,-1.6044403202237556,-0.10362595670064767,0.21989674478490384,-1.224392479430971,-2.9319864211664166],[-0.8888650371614712,-0.5462493683262671,1.3356319572078243,0.6136271270355006,7.051422375839796,-0.5124194431261528,-3.852102648399083,0.5681612340910493,3.1281513315520617,0.7967391518413411,-4.22902565754207,4.0779365882331,2.2864349663995207]]},{"rows":3,"cols":10,"data":[[0.5212421605008398,-4.2283517574941,0.5196084412369464,1.6410565676241968,-0.1834539230002704,1.3278892683069843,-0.15855727887345056,-1.644455978601405,-0.008823205728285766,0.6537820817591846],[-6.346709712331401,3.491302986990636,2.926727149476775,2.0090120826797575,5.277125820863596,-0.42101321593389496,-1.7467138213069622,1.836872478648067,1.734900187922345,-3.237434749383917],[-1.4680414694452917,8.061883834578172,-1.8238226175909915,4.951963614228582,1.7897209133257381,0.7424160288586164,-0.8273292606865889,-1.4770029211438742,-2.829349999516692,-0.2964146058091558]]}],"biases":[{"rows":10,"cols":1,"data":[[-1.8419978406698307],[-0.6490416114770008],[-2.1570984600726244],[1.858819530906835],[-0.12599195775362063],[1.4656723983740885],[1.3632587849250064],[1.5444081453403493],[-1.9505111787527787],[-0.35820499730146277]]},{"rows":3,"cols":1,"data":[[1.7116119307594133],[-1.475450139094546],[-1.6274065076898248]]}],"isDead":false,"currentFitness":122788.25109549287,"positionNumber":1,"isBest":true},{"nodesPerLayer":[13,10,3],"numLayers":3,"learningRate":0.1,"weights":[{"rows":10,"cols":13,"data":[[0.477806830942072,0.8719007805704918,5.775562552857917,1.1104857933699699,-0.5906011880435482,0.08979010967725198,4.0785625846211495,1.7986038516945853,1.2051525899773792,-1.5432760799765475,0.7543041429663474,-0.7128851641565708,-1.1674748102822379],[-1.8386691309756955,2.8481097246904876,-0.0475327403683411,-0.1451763530808906,1.1557908041033103,6.634810245514821,-1.3541944709026505,-5.4921296562935265,2.3318520557205855,-1.461899118474114,-0.2359834932646998,0.0586838334119687,1.8914846102518137],[-4.694508018137814,-1.6383187724830681,-6.258061387108245,0.08489125564627664,-2.5449380844767027,-1.6300896203278072,-0.4923575152536541,-1.1806384563571997,-2.753273964830352,0.826546250764842,-2.8013857326087206,2.603480551037388,1.2142828729028539],[-0.48105421048172137,2.443008626916668,0.9684954494532143,0.1141700428027197,0.6609590568710743,0.876936668615668,-1.9355097836282407,0.33070456272921805,-3.6831959671039494,-2.04638048100677,-1.872766510288853,0.3699480001161805,-0.4360117944810097],[2.353806645488076,0.16842217283876304,-3.7231004633907974,-1.2489407805493458,0.03231666213675127,-0.19204416642999778,-4.487927391738559,0.9933546442325086,1.8531795332563714,-4.416966321985793,1.1402999073496205,2.88107195454581,0.5327370096817874],[0.6913595061322957,-0.8557260111879412,-0.50877292808569,-1.1843020246514013,1.4678505361881873,-1.949534205148725,-0.7897318287504485,-4.996366332353384,-0.18175000646505346,0.4738859635603545,0.0798296199061812,2.0970018479619594,0.5878834970900323],[3.7430779716522813,-0.1084522221098776,0.7324193753451711,-1.8151679976318453,1.113423719266704,0.6841713611712171,1.6869082854205621,-2.2131829276487984,4.199430978141523,-4.11503553969037,-1.0009421672121872,0.05188014981157979,3.7480503440405655],[-2.96592325701071,0.23903016971589863,1.089616543247501,-1.8738899976563708,2.893977911759425,2.4540258548023903,-3.4303653372434346,-0.07103545416044799,0.8781010534324016,-3.0277508878395833,-2.2046969465795203,-0.12671425532777145,-0.3235942047198471],[0.794650824434106,-1.4233457182042297,-1.78576216587009,-1.8994154640421204,-1.2806145768067134,2.3585659128914447,-4.459162416159155,-2.1869581191666327,-1.6044403202237556,-0.10362595670064767,0.21989674478490384,-1.224392479430971,-2.9319864211664166],[-0.8888650371614712,-0.5462493683262671,1.3356319572078243,1.0937194412145121,6.990629539116232,-0.5124194431261528,-3.852102648399083,0.5681612340910493,2.947306713601496,0.7967391518413411,-4.526122052011072,4.0779365882331,2.2864349663995207]]},{"rows":3,"cols":10,"data":[[0.5212421605008398,-4.068227252561962,1.0032390697842954,1.6410565676241968,-0.1834539230002704,1.4739309978599606,-0.15855727887345056,-1.644455978601405,-0.4249942290812251,0.6537820817591846],[-6.22375195942122,4.434125054277737,2.816856000444682,1.7296252387256956,5.417782773009846,-0.01260544482376362,-1.5166303087570663,0.415938195729154,1.0874818844556111,-3.270611654490906],[-1.4680414694452917,8.061883834578172,-1.8238226175909915,4.951963614228582,1.4490461145660074,0.7424160288586164,-0.37906221658248596,-1.4770029211438742,-2.829349999516692,-0.2964146058091558]]}],"biases":[{"rows":10,"cols":1,"data":[[-1.8419978406698307],[-1.093230181311875],[-2.1570984600726244],[1.6393688006603304],[-0.7817242699999715],[1.9830452705081976],[1.3632587849250064],[1.5444081453403493],[-1.9505111787527787],[-0.35820499730146277]]},{"rows":3,"cols":1,"data":[[1.7116119307594133],[-1.731821587399569],[-1.6274065076898248]]}],"isDead":false,"currentFitness":118963.46884000598,"positionNumber":2,"isBest":true},{"nodesPerLayer":[13,10,3],"numLayers":3,"learningRate":0.1,"weights":[{"rows":10,"cols":13,"data":[[0.09794131410141932,0.6851258922912404,5.996856751043436,1.1104857933699699,-0.5906011880435482,0.08979010967725198,4.0785625846211495,2.016257357654026,1.1571516185561377,-1.5432760799765475,0.7543041429663474,-0.7128851641565708,-0.9008678033109201],[-1.8386691309756955,2.8481097246904876,-0.0475327403683411,-0.44604378083987184,1.1557908041033103,6.286903017453554,-1.3541944709026505,-5.4921296562935265,2.3318520557205855,-1.461899118474114,-0.2359834932646998,0.663359482867934,1.2782331407451766],[-4.694508018137814,-1.6383187724830681,-6.258061387108245,-1.1028575531631226,-2.5449380844767027,-2.716974153762307,-0.4923575152536541,-0.38465449846731203,-2.1400434819616274,0.826546250764842,-1.7418312704799699,2.603480551037388,1.884022527239812],[1.0913894659395462,3.451870344028427,-1.174954983005103,1.3536483327263995,0.21586205143952752,0.14348207709993022,-1.1032595228227482,0.4287013816429667,-3.2497965357737106,-2.1427359260109533,-0.5902341309747489,-0.1435752161580851,0.13676078091772936],[2.204241437483876,-1.9987577246616157,-4.796335798669417,-1.8608320442766957,0.420293174515271,-0.1843676156267055,-4.327633216713038,1.9493740602058873,2.843096645657069,-2.6995940042844966,1.060102914724881,2.227865442335354,1.3235103403696065],[0.4295471366359448,-1.7866492247931842,-0.9102473016697283,-0.4316515722183231,1.6370730952036643,-1.8951470103967902,-2.0664326287532235,-3.086257199778217,0.2508074365295566,3.18445849417421,0.6549967708509705,2.2719215396726318,0.41303186848203527],[5.097462012530211,-0.1084522221098776,0.7324193753451711,-1.7801323249186738,1.113423719266704,0.6841713611712171,1.6869082854205621,-2.2131829276487984,4.199430978141523,-4.11503553969037,-1.0009421672121872,0.05188014981157979,3.7480503440405655],[-2.5098447055028004,0.23903016971589863,1.0257202223930477,-1.8738899976563708,2.893977911759425,2.010382993314585,-3.4628125791559787,-0.07103545416044799,0.8781010534324016,-2.982284555088672,-2.2046969465795203,-0.1478352956955662,-0.9874292757566737],[0.794650824434106,-1.5351287175846013,-1.78576216587009,-1.8994154640421204,-1.2806145768067134,2.3585659128914447,-4.459162416159155,-2.472667275486116,-1.6044403202237556,-0.10362595670064767,0.21989674478490384,-1.5388112583848432,-2.5982818745864558],[-0.6884473495713808,-1.6362619272848882,1.3356319572078243,0.6136271270355006,5.996378441812872,-0.5124194431261528,-3.852102648399083,0.5681612340910493,2.910099101129641,0.7967391518413411,-4.526122052011072,3.702972592786637,1.4039858934119456]]},{"rows":3,"cols":10,"data":[[0.3908136120531024,-4.068227252561962,0.5196084412369464,1.6410565676241968,-1.1907383012233392,1.3278892683069843,-0.15855727887345056,-2.88060315612122,-0.4249942290812251,0.6537820817591846],[-6.896472674745004,3.169897562826116,2.251218355234437,1.5403508318311794,5.417782773009846,0.029799106834413946,-0.38229760557072057,2.1487218176332985,1.9986200723135121,-2.9667823939957976],[-1.4680414694452917,8.062556046927172,-2.214950007892755,4.826743972102879,1.4490461145660074,0.7424160288586164,-0.8273292606865889,-1.4770029211438742,-2.829349999516692,0.06991990146029528]]}],"biases":[{"rows":10,"cols":1,"data":[[-1.8419978406698307],[-1.5583303268715625],[-2.1570984600726244],[1.858819530906835],[0.04952728957358832],[1.0175874756494845],[1.3258431068561085],[0.9245582686801609],[-1.9505111787527787],[-0.688111781575708]]},{"rows":3,"cols":1,"data":[[1.7116119307594133],[-1.1941599340237716],[-1.6274065076898248]]}],"isDead":false,"currentFitness":117582.27398016256,"positionNumber":3},{"nodesPerLayer":[13,10,3],"numLayers":3,"learningRate":0.1,"weights":[{"rows":10,"cols":13,"data":[[0.5751171593710177,0.7936216912251614,5.660928825515351,0.7125970309520817,-0.5906011880435482,0.0076706138700348425,3.526645875012231,1.8721821081444197,1.7863403625612273,-1.4938104921996822,0.035375226991984254,-0.3548163271219214,-1.5494377777150299],[-2.507348072578442,3.187556627057049,-0.3114514864614707,0.018032555897321945,0.9087757300808961,5.195933805064934,-0.7583300110224883,-6.07022368832906,2.230514976612319,-2.5984361914550624,0.26766495507788485,0.663359482867934,1.3829958224165935],[-2.3738977647765687,-0.9536993403876958,-6.752170867481604,-1.0136374873102616,-4.09112116288768,-2.515788415635223,-1.126593580990141,-2.0654536847525833,-2.1400434819616274,0.9670218748249951,-0.9793436718939745,2.787661386881304,2.306738580278441],[0.11315672590159487,2.826799864387503,-0.5909955003303451,0.7736456002195934,0.4655977679429317,0.49056162033124945,-1.228999215512722,0.9101245093734682,-3.3912807549494475,-0.9879064624186754,-0.38780831605442745,-0.023572164233367526,0.7998732546209508],[2.204241437483876,-0.45777150615999074,-4.796335798669417,-1.2951817411653104,0.979775163478043,-0.1843676156267055,-4.745187171414365,2.5720568254741734,2.8709563982217094,-2.6995940042844966,1.0845208866827103,2.2433039723451986,0.8564239582755387],[0.6433201679705285,-1.7866492247931842,-1.2870337670063234,-0.4316515722183231,1.551720027348081,-1.8951470103967902,-1.6134653741288556,-3.086257199778217,-0.870850252215598,3.1313931753773323,-0.2640804526661362,2.3959769458265923,0.41303186848203527],[4.1380739889726135,1.3905874301236216,2.148354048014047,-0.30831580028822003,1.5146154989186835,1.4639867697589137,1.4651481244485693,-1.0940581539660619,4.199430978141523,-3.967763323079848,-0.2378967735549007,0.12828927675818494,3.376458279545195],[-2.4663942579850175,0.49402202605428136,2.8197717308901433,-1.7354300711982371,2.8340599648257667,1.324782650009154,-3.802964268716557,0.9606971089825734,1.7834664404298166,-3.0277508878395833,-1.9015019571366019,0.3538898294038246,-2.0055592970561706],[0.54321828312348,-1.8276149604281544,-3.268545839149074,-1.7642040500827592,-0.19337133707898016,3.019135293985258,-4.991062457667712,-2.678051571094058,-1.3032254732551538,0.19973912927602855,-0.4571795314439429,-2.2368502353875415,-0.9170936313670138],[-0.5256674278259688,0.10951317897501339,1.1883078264372735,-0.6007506512456346,6.902764662948096,-0.0070466344143814835,-2.3809665234650415,1.8962686144100167,2.8573077664689044,-0.041098207855811086,-3.499757508615868,2.1773821789530463,1.6052000665018133]]},{"rows":3,"cols":10,"data":[[-0.9952954008867108,-4.433103322300664,0.6251532037425516,2.396440534273544,-1.8334413207155138,0.6514947464463472,0.12194375675889305,-1.4854996336988682,-0.30439847217861526,0.34625333567488814],[-6.7117139359389,3.2641047249545334,2.251218355234437,1.5403508318311794,5.417782773009846,-0.6002241910355841,-0.38229760557072057,1.9563270230966472,1.9986200723135121,-3.560316709379902],[-2.405916870416766,5.560399485411331,-2.1404793725271887,3.932936287728973,0.9190765677943017,1.9790363754709053,0.3172527213862648,-1.3158797952299437,-3.148379279225988,0.19796535842854784]]}],"biases":[{"rows":10,"cols":1,"data":[[-2.50697514040803],[-0.9764857378976008],[-1.5678749824525413],[1.3746208989539852],[0.04952728957358832],[1.0175874756494845],[1.2892385136764384],[1.6194794215266792],[-1.1143705033549263],[-2.1527108969245936]]},{"rows":3,"cols":1,"data":[[2.730945711053562],[-1.475450139094546],[-0.7282432585875847]]}],"isDead":false,"currentFitness":116725.65585234574,"positionNumber":4,"isBest":true},{"nodesPerLayer":[13,10,3],"numLayers":3,"learningRate":0.1,"weights":[{"rows":10,"cols":13,"data":[[0.11398796099770303,0.7936216912251614,5.775562552857917,1.1104857933699699,-0.5906011880435482,0.08979010967725198,4.0785625846211495,2.016257357654026,1.3281193068044335,-1.5432760799765475,0.7543041429663474,-0.7128851641565708,-0.9275738208018152],[-1.8386691309756955,2.8481097246904876,-0.0475327403683411,-0.44604378083987184,1.1557908041033103,6.634810245514821,-2.037963651849097,-5.4921296562935265,2.3318520557205855,-1.4461809215561159,-0.2359834932646998,0.663359482867934,1.2782331407451766],[-4.365258796341703,-2.763378820073589,-7.177630394868284,-1.1285364223303505,-2.5449380844767027,-2.716974153762307,-0.4923575152536541,-1.1806384563571997,-2.1400434819616274,0.4873524842171723,-1.7418312704799699,2.603480551037388,1.6269146966903756],[-0.16962290769806737,2.826799864387503,-1.6017839240929415,0.6521880023658424,0.4655977679429317,0.14348207709993022,-1.709518195433459,1.1287586712465292,-3.2497965357737106,-1.3224608502120638,-1.2448910282500631,0.8391281778665234,-0.7853074990907626],[1.7685735165722052,-1.2599347029765053,-4.751831181457968,-0.7029601257993249,-0.22797595493535344,-0.1843676156267055,-4.745187171414365,2.300785964336254,2.189305416337286,-2.7979408624549014,0.8245744054810413,1.6520406764732036,0.8586934947853924],[0.3232511113783078,-2.098954597850878,-0.9716838124025663,0.25100916744914914,1.6370730952036643,-1.8951470103967902,-3.103403037177845,-3.086257199778217,-0.4953853825995161,3.228541524674239,-0.8266321159518148,3.0712367723878646,0.41303186848203527],[5.097462012530211,-0.1084522221098776,0.7324193753451711,-2.3018416548007807,1.113423719266704,0.6841713611712171,1.872845703228952,-2.2131829276487984,4.199430978141523,-3.872722598666426,-1.0009421672121872,0.05188014981157979,3.6621090282940325],[-2.96592325701071,-0.7650665582756141,1.089616543247501,-2.415709147799154,2.541462280023854,2.010382993314585,-3.417352450684138,-0.07103545416044799,0.2316297249960615,-3.0277508878395833,-2.6459998546721493,-0.1478352956955662,-0.9874292757566737],[0.794650824434106,-1.4249622935017399,-1.78576216587009,-1.8994154640421204,-1.2806145768067134,2.8038666076839207,-3.8418333381161407,-2.744968459435954,-1.6044403202237556,-0.10362595670064767,0.6154052138202519,-1.5388112583848432,-2.9319864211664166],[0.2716096163983517,-0.0077947963439556345,1.3356319572078243,0.6136271270355006,6.9254987702547774,-0.6266068065116511,-3.852102648399083,0.5681612340910493,3.0893455589463374,0.7967391518413411,-4.526122052011072,3.39474397710799,1.4039858934119456]]},{"rows":3,"cols":10,"data":[[0.5212421605008398,-4.4007483889709285,0.5196084412369464,1.6516359487010093,-0.10836859546344518,1.3220338811436787,-0.15855727887345056,-1.644455978601405,-0.4249942290812251,0.6537820817591846],[-6.00834186774805,3.3681628382718216,2.251218355234437,1.5403508318311794,5.417782773009846,-0.42101321593389496,-1.1852709467284814,1.836872478648067,1.734900187922345,-2.890388257543553],[-1.4680414694452917,8.062556046927172,-2.214950007892755,4.951963614228582,1.2528157683247478,1.220616110949763,-0.8273292606865889,-1.4770029211438742,-2.829349999516692,0.06991990146029528]]}],"biases":[{"rows":10,"cols":1,"data":[[-1.8419978406698307],[-1.093230181311875],[-2.1570984600726244],[1.858819530906835],[0.12169767504817647],[0.7853171448614229],[0.6762150069706078],[1.5444081453403493],[-1.9505111787527787],[-0.688111781575708]]},{"rows":3,"cols":1,"data":[[1.7116119307594133],[-1.475450139094546],[-1.6274065076898248]]}],"isDead":false,"currentFitness":116645.88070691017,"positionNumber":5,"isBest":true},{"nodesPerLayer":[13,10,3],"numLayers":3,"learningRate":0.1,"weights":[{"rows":10,"cols":13,"data":[[0.5751171593710177,1.2791534161478642,5.660928825515351,0.7125970309520817,-0.5906011880435482,0.0076706138700348425,3.526645875012231,1.8721821081444197,1.7863403625612273,-1.1531953308996021,0.035375226991984254,-0.3548163271219214,-1.5494377777150299],[-2.3463497324877447,3.187556627057049,-0.3114514864614707,0.018032555897321945,0.9087757300808961,5.195933805064934,-0.7583300110224883,-6.07022368832906,2.230514976612319,-2.5984361914550624,0.26766495507788485,0.663359482867934,1.3829958224165935],[-2.3738977647765687,-0.9536993403876958,-6.752170867481604,0.1495103274925298,-4.09112116288768,-2.515788415635223,-1.126593580990141,-2.122625362354666,-2.1400434819616274,0.9670218748249951,-0.9793436718939745,2.787661386881304,2.306738580278441],[0.8910291676577053,2.826799864387503,-0.5058821419672681,0.7736456002195934,0.4655977679429317,1.0985825318418136,-1.1032595228227482,0.9101245093734682,-3.0688123152167663,-1.7309825757336679,-0.5902341309747489,0.8946434324324791,-0.34452044006848564],[2.204241437483876,-0.45777150615999074,-4.796335798669417,-1.2951817411653104,0.6446874993101765,-0.1843676156267055,-4.745187171414365,1.0579559756605428,2.8709563982217094,-2.6995940042844966,0.531324989224398,2.2433039723451986,1.3104130695307454],[0.3232511113783078,-1.7866492247931842,-0.9102473016697283,-0.4316515722183231,1.3106418443221792,-2.3642419086818975,-1.6134653741288556,-2.8396445790041027,-0.7325539323681528,3.18445849417421,-0.2640804526661362,2.2719215396726318,0.41303186848203527],[4.1380739889726135,1.3905874301236216,2.148354048014047,-0.30831580028822003,1.5146154989186835,0.860721960937715,1.4651481244485693,-1.0940581539660619,4.199430978141523,-3.967763323079848,-0.23190876782809883,0.12828927675818494,3.376458279545195],[-2.7679609400196097,0.49402202605428136,2.8197717308901433,-1.7354300711982371,2.8340599648257667,1.324782650009154,-3.802964268716557,0.9606971089825734,1.996287031135162,-3.0277508878395833,-1.9015019571366019,0.3538898294038246,-2.0055592970561706],[0.54321828312348,-1.8276149604281544,-3.268545839149074,-1.7642040500827592,-0.26658761900131506,3.019135293985258,-4.991062457667712,-2.294315295271238,-1.3032254732551538,0.19973912927602855,-0.4571795314439429,-2.194940395520268,-0.9170936313670138],[-0.5256674278259688,0.06854404306752651,0.9563931249405249,-0.6007506512456346,6.902764662948096,-0.0070466344143814835,-2.3809665234650415,1.8962686144100167,2.8573077664689044,1.0931171546063285,-3.499757508615868,2.1773821789530463,1.6052000665018133]]},{"rows":3,"cols":10,"data":[[-1.091819582481728,-4.433103322300664,0.6251532037425516,2.396440534273544,-1.8334413207155138,0.6514947464463472,0.12194375675889305,-1.2695745713157554,0.4109802100155014,0.34625333567488814],[-6.245320844093194,2.658695939529242,2.1866719035412356,1.5403508318311794,5.347443497193189,-0.8500593854165124,-0.38229760557072057,2.001549089921669,1.9986200723135121,-2.890388257543553],[-2.405916870416766,5.560399485411331,-2.1404793725271887,3.932936287728973,0.9190765677943017,1.8375765736474816,0.3172527213862648,-1.3158797952299437,-2.0271743150905612,0.19796535842854784]]}],"biases":[{"rows":10,"cols":1,"data":[[-2.50697514040803],[-0.9764857378976008],[-1.5678749824525413],[1.858819530906835],[-0.4282483459213272],[1.0175874756494845],[1.2892385136764384],[1.6194794215266792],[-1.1143705033549263],[-2.1527108969245936]]},{"rows":3,"cols":1,"data":[[1.9765313824273252],[-1.475450139094546],[-0.7282432585875847]]}],"isDead":false,"currentFitness":115331.18352204646,"positionNumber":6},{"nodesPerLayer":[13,10,3],"numLayers":3,"learningRate":0.1,"weights":[{"rows":10,"cols":13,"data":[[1.0461443725871242,0.7936216912251614,5.775562552857917,0.9711093595343498,-0.5906011880435482,0.08979010967725198,3.809399391484956,1.5005322219958779,1.3281193068044335,-1.5432760799765475,0.7543041429663474,-0.7128851641565708,-0.9275738208018152],[-1.8386691309756955,2.8481097246904876,-0.0475327403683411,-0.44604378083987184,1.1557908041033103,6.634810245514821,-1.3541944709026505,-5.4921296562935265,2.3318520557205855,-1.2731756646051662,0.3573181612370432,1.0897228138451909,1.2782331407451766],[-4.694508018137814,-1.6383187724830681,-7.4870235609545635,-1.1285364223303505,-2.5449380844767027,-2.716974153762307,-0.4923575152536541,-1.1806384563571997,-2.1400434819616274,0.4873524842171723,-1.7418312704799699,2.591761438654616,1.6269146966903756],[-0.16962290769806737,2.826799864387503,-1.0678832536577536,0.6521880023658424,0.4655977679429317,0.14348207709993022,-1.1186011520598624,1.1287586712465292,-3.2497965357737106,-0.8440966181795284,-1.2448910282500631,0.8391281778665234,-0.7853074990907626],[1.8065925973992139,-1.2599347029765053,-4.751831181457968,-0.7029601257993249,-0.22797595493535344,-0.1843676156267055,-4.745187171414365,2.300785964336254,2.189305416337286,-2.7979408624549014,0.8245744054810413,1.6520406764732036,-0.31623836022133767],[0.7685059540346617,-2.098954597850878,-0.9716838124025663,0.25100916744914914,1.6370730952036643,-1.8951470103967902,-2.896995717050688,-3.086257199778217,-0.4953853825995161,3.228541524674239,-0.8266321159518148,3.0712367723878646,0.41303186848203527],[5.097462012530211,-0.1084522221098776,0.7324193753451711,-3.2014522499604796,0.8185217935234625,0.6841713611712171,1.6869082854205621,-2.2131829276487984,4.199430978141523,-3.872722598666426,-1.0009421672121872,0.05188014981157979,3.3508738476790594],[-3.378182185213646,0.37993361313560653,1.089616543247501,-1.8738899976563708,2.893977911759425,0.6614252098871876,-3.4303653372434346,-0.07103545416044799,0.2316297249960615,-3.0277508878395833,-2.2046969465795203,-0.1478352956955662,-0.9874292757566737],[0.794650824434106,-1.4249622935017399,-1.78576216587009,-1.8994154640421204,-1.2806145768067134,2.3585659128914447,-4.459162416159155,-2.472667275486116,-2.085417933623522,-0.12402240039395848,0.21989674478490384,-1.5388112583848432,-2.9319864211664166],[-0.8888650371614712,-0.0077947963439556345,1.3356319572078243,0.6136271270355006,6.473569178599997,-0.5124194431261528,-3.852102648399083,0.5681612340910493,3.07129495073684,0.7967391518413411,-4.526122052011072,3.39474397710799,1.4039858934119456]]},{"rows":3,"cols":10,"data":[[0.8900795861662121,-4.068227252561962,0.5196084412369464,1.6410565676241968,-0.10535354341292714,1.3278892683069843,-0.15855727887345056,-1.7360591121307387,-0.4249942290812251,0.14540032419831805],[-7.3766158950401755,3.1957118792139054,2.251218355234437,1.5403508318311794,5.417782773009846,-0.42101321593389496,-1.1852709467284814,1.836872478648067,1.734900187922345,-2.4616761363455026],[-1.4680414694452917,8.062556046927172,-2.214950007892755,5.783847387309601,1.4490461145660074,1.220616110949763,-0.8273292606865889,-1.4770029211438742,-2.829349999516692,0.06991990146029528]]}],"biases":[{"rows":10,"cols":1,"data":[[-1.8419978406698307],[-1.093230181311875],[-2.7829091801585273],[1.858819530906835],[0.12169767504817647],[0.7853171448614229],[0.6762150069706078],[1.5444081453403493],[-1.9505111787527787],[-1.2399431479401621]]},{"rows":3,"cols":1,"data":[[1.2403318763998454],[-1.475450139094546],[-1.6274065076898248]]}],"isDead":false,"currentFitness":115031.49096980761,"positionNumber":7},{"nodesPerLayer":[13,10,3],"numLayers":3,"learningRate":0.1,"weights":[{"rows":10,"cols":13,"data":[[1.365402476355383,0.7936216912251614,5.660928825515351,1.1104857933699699,-0.5906011880435482,0.0076706138700348425,3.526645875012231,3.241417910889161,2.0637480849468757,-0.9887397769127942,0.7543041429663474,-0.3548163271219214,-1.5494377777150299],[-2.3463497324877447,2.893921552625761,-0.3114514864614707,0.5021158059820177,0.9087757300808961,5.8301810320742025,-0.9084357004111148,-5.928470295683002,1.869445233832931,-2.167327611050846,0.26766495507788485,0.663359482867934,1.3829958224165935],[-3.285302485045107,-1.1530760599883778,-6.447072826643492,-0.2827872435589406,-3.8819690403443183,-2.515788415635223,-1.126593580990141,-1.5320656198047002,-2.1400434819616274,0.9670218748249951,-0.09253209033656704,3.5240404143224833,2.3629086540349595],[-1.325765212251384,2.826799864387503,-0.7516472643353499,0.7736456002195934,0.3001863017828932,0.14348207709993022,-0.6515092277156296,1.1287586712465292,-3.2497965357737106,-1.3224608502120638,-1.3626008182063276,0.3550642270017438,-0.90598526378178],[2.8344848654741672,-1.2599347029765053,-4.751831181457968,-1.2951817411653104,0.420293174515271,-0.2851476089716751,-5.049975864122655,2.300785964336254,3.1814340549118327,-2.9032441322181826,1.0845208866827103,2.3285634681039267,0.8586934947853924],[0.3232511113783078,-2.158895745249987,-1.4541483190404314,0.48724558614130986,1.6370730952036643,-1.8951470103967902,-3.00815861082816,-1.938347862255449,-0.4953853825995161,3.4781361009046026,-0.8266321159518148,2.9279705370257028,0.41303186848203527],[4.1380739889726135,1.3905874301236216,1.3973304451410358,-0.30831580028822003,1.5146154989186835,0.7851922875210444,1.1192918144940276,-1.0940581539660619,4.506907556278705,-3.788298750151646,-0.2378967735549007,-0.20395955790954703,3.368621366473225],[-2.0266888919660495,0.23903016971589863,2.095504265452284,-1.7354300711982371,2.8340599648257667,1.324782650009154,-4.015905858378458,0.9606971089825734,1.7834664404298166,-3.0277508878395833,-2.1700065530901913,-0.2111199217206265,-1.4675224697367835],[0.3346790961826416,-1.5351287175846013,-2.6490744548193206,-1.7642040500827592,-0.19337133707898016,3.019135293985258,-4.991062457667712,-2.294315295271238,-1.3032254732551538,0.4330632245854066,-0.4571795314439429,-2.194940395520268,-0.9170936313670138],[-0.5256674278259688,0.06854404306752651,1.2278032977951483,-0.4140710951528136,7.3136010460007865,0.21740556238939757,-2.3809665234650415,1.1219372504630336,2.8720280180335753,-0.041098207855811086,-3.350048121659378,2.678430523959223,1.6052000665018133]]},{"rows":3,"cols":10,"data":[[-1.07905168335108,-5.270610255770794,0.8327882009529649,2.1907233468762883,-1.8334413207155138,0.6514947464463472,-0.01929406420028565,-1.4854996336988682,-0.21909751328293164,0.34625333567488814],[-6.483355308115772,3.526060886725974,1.7950797292842031,1.317931672990463,5.417782773009846,-0.42101321593389496,-1.1852709467284814,1.836872478648067,2.0535697443261447,-2.890388257543553],[-2.405916870416766,6.159454873931772,-2.197087785067771,4.019297744755033,1.751412454224666,1.8375765736474816,0.5212345957933253,-1.3171740513695438,-3.148379279225988,0.19796535842854784]]}],"biases":[{"rows":10,"cols":1,"data":[[-2.50697514040803],[-1.3730973758401475],[-1.5678749824525413],[2.314827836708214],[-0.12599195775362063],[0.8963456696606802],[1.2892385136764384],[1.6194794215266792],[-0.32962363948611134],[-0.27334772297536136]]},{"rows":3,"cols":1,"data":[[2.482696712437492],[-1.475450139094546],[-0.7282432585875847]]}],"isDead":false,"currentFitness":114778.78848111781,"positionNumber":8},{"nodesPerLayer":[13,10,3],"numLayers":3,"learningRate":0.1,"weights":[{"rows":10,"cols":13,"data":[[1.0948179945244407,0.09177672053612784,5.387148959162828,0.5275713376944992,0.04663406049519525,0.08979010967725198,4.4157151081558705,2.492906396574485,1.6005890117355914,-1.5432760799765475,1.1319144645473351,-0.2854111051860581,0.41284701731324125],[-3.0472969227722393,3.681798233474939,0.3796534877158005,-0.44604378083987184,0.8767376093816042,5.500709015912808,-1.526791150127872,-5.390792601451449,1.9115211899517908,-1.5511618793245616,0.354280181949978,0.663359482867934,2.0381432723466286],[-4.694508018137814,-1.5304449487650682,-6.258061387108245,-0.8695974477382269,-3.764431295173468,-1.757681659194024,-0.8873430605684716,-1.1806384563571997,-2.1400434819616274,0.7842574540514349,-0.7986118554152131,1.8404302605754486,1.6269146966903756],[-0.16962290769806737,2.826799864387503,-0.17133147530449622,-0.13697628032853415,0.4655977679429317,0.14348207709993022,-0.6515092277156296,1.1287586712465292,-3.66776175737387,-0.7789353103201688,-1.2448910282500631,0.6479092737984882,-1.2620631380523388],[2.601171496735975,-1.9084641418315025,-5.481018169152009,-1.2951817411653104,0.6722570810610049,-0.1843676156267055,-4.745187171414365,2.300785964336254,3.1814340549118327,-2.6995940042844966,1.270929397766186,2.127894732596719,1.3999046220504585],[0.47156417749671753,-1.7866492247931842,-1.7382369057282019,0.25100916744914914,1.6370730952036643,-1.8951470103967902,-3.00815861082816,-3.086257199778217,-0.4953853825995161,3.4781361009046026,0.057571355121874945,2.9279705370257028,0.41303186848203527],[4.480199145606778,-1.0436693969226296,0.7324193753451711,-0.9943585639109349,2.0667151287877608,0.9628128963753322,1.6983537270326974,-1.9866606270701057,3.726353663527407,-4.412422125148388,-1.0009421672121872,0.032474532101265885,3.315466256177418],[-2.96592325701071,0.23903016971589863,2.1367451410371965,-1.8738899976563708,2.77660951252842,1.7885779073561108,-4.827527765124446,0.43863392073596014,0.7760411225001902,-3.2688119081293725,-1.340222150119451,-0.1478352956955662,-1.3401097750612168],[1.3491707342079682,-1.5351287175846013,-1.7909305052299982,-1.8155609581016454,-1.4952204575927546,2.3585659128914447,-3.9594800266382015,-2.441698208503923,-1.8713721821467706,-0.10362595670064767,0.043558348741694626,-1.5388112583848432,-3.653041365191812],[-1.4082043152110044,-0.3855165014700889,2.110528717321064,0.18547779587925506,6.9254987702547774,-0.40298191908246694,-2.257721151579324,0.3935925749176146,3.612796506049934,-0.927176982760822,-4.428727215759375,2.4773023275040504,1.1062611873281691]]},{"rows":3,"cols":10,"data":[[-2.048730059865995,-4.504139388343704,1.4375956389269722,1.494205071569181,-1.6170372020224182,1.4608874114532047,-0.04781838089490853,-2.2555393507969863,-0.20529115373071607,0.6537820817591846],[-6.346709712331401,3.3681628382718216,2.2895067302203045,2.603900944068102,5.417782773009846,-0.9904574210203753,-2.0096333223520735,1.836872478648067,1.734900187922345,-2.890388257543553],[-1.1684744802710008,7.066155290160946,-2.214950007892755,4.04320045426951,0.6048409685737699,2.1964264192097596,-0.455816254173225,-0.8663514363337171,-3.324119128344538,-0.13752216144554985]]}],"biases":[{"rows":10,"cols":1,"data":[[-1.5827781392669356],[-1.112165101692975],[-1.191792235963463],[1.6341585418785873],[-0.12599195775362063],[1.358153910501244],[1.2881525051177467],[1.847453265926141],[-0.6065886985944451],[-1.4485859650182162]]},{"rows":3,"cols":1,"data":[[1.7116119307594133],[-1.475450139094546],[-1.0337266690743516]]}],"isDead":false,"currentFitness":114546.12574555722,"positionNumber":9},{"nodesPerLayer":[13,10,3],"numLayers":3,"learningRate":0.1,"weights":[{"rows":10,"cols":13,"data":[[0.11398796099770303,0.904435046419943,5.775562552857917,1.1104857933699699,-0.5906011880435482,0.08979010967725198,4.0785625846211495,2.016257357654026,1.3281193068044335,-1.5432760799765475,0.7543041429663474,-0.7128851641565708,-0.9275738208018152],[-1.8386691309756955,2.8481097246904876,-0.29598918738536223,-0.44604378083987184,1.1777004597343268,6.634810245514821,-2.037963651849097,-5.237289906965056,2.3318520557205855,-1.5677690748367212,-0.2359834932646998,0.663359482867934,1.2782331407451766],[-4.694508018137814,-2.2363263816361414,-7.02433231864675,-1.1285364223303505,-2.5449380844767027,-2.716974153762307,-0.4923575152536541,-1.1806384563571997,-1.4958343165426058,0.4873524842171723,-1.7418312704799699,2.603480551037388,1.6269146966903756],[0.8910291676577053,2.826799864387503,-0.5058821419672681,0.7736456002195934,0.4655977679429317,0.5757369515478961,-1.1032595228227482,0.9101245093734682,-3.0688123152167663,-1.7309825757336679,-0.5902341309747489,0.1552687300754747,0.46700676455073603],[2.204241437483876,-0.45777150615999074,-4.796335798669417,-1.2951817411653104,0.6446874993101765,-0.1843676156267055,-5.198452596632404,1.0579559756605428,2.8709563982217094,-2.6995940042844966,0.531324989224398,2.7951882056117086,1.3104130695307454],[0.3232511113783078,-1.7866492247931842,-0.9102473016697283,-0.3826377226168937,1.3106418443221792,-2.409887083523348,-1.6134653741288556,-3.086257199778217,-1.053496765307212,3.18445849417421,-0.2640804526661362,2.2719215396726318,0.41303186848203527],[5.09214831490077,-0.1084522221098776,0.7324193753451711,-2.3018416548007807,0.2151428807969713,0.6841713611712171,1.6869082854205621,-2.2131829276487984,4.199430978141523,-3.872722598666426,-1.0009421672121872,0.05188014981157979,3.6621090282940325],[-2.96592325701071,0.23903016971589863,1.089616543247501,-1.8738899976563708,2.583792232279419,2.010382993314585,-3.417352450684138,-0.07103545416044799,0.2316297249960615,-3.0277508878395833,-2.6459998546721493,-0.1478352956955662,-0.9874292757566737],[0.794650824434106,-1.4249622935017399,-1.78576216587009,-1.8994154640421204,-1.2806145768067134,1.3831014166345525,-5.217162617151009,-2.472667275486116,-1.6044403202237556,0.5698380283272712,0.21989674478490384,-1.5388112583848432,-2.9319864211664166],[0.2716096163983517,-0.0077947963439556345,1.3356319572078243,0.6136271270355006,6.9254987702547774,-0.6266068065116511,-3.756518159821559,0.5681612340910493,3.0893455589463374,0.7967391518413411,-4.526122052011072,3.39474397710799,1.4039858934119456]]},{"rows":3,"cols":10,"data":[[0.5212421605008398,-4.4007483889709285,0.5196084412369464,1.6516359487010093,-0.10836859546344518,1.3278892683069843,-0.15855727887345056,-1.644455978601405,0.19130186384575376,0.6537820817591846],[-6.245320844093194,2.658695939529242,2.1866719035412356,1.5403508318311794,5.417782773009846,-0.8500593854165124,-0.38229760557072057,2.001549089921669,1.9986200723135121,-3.4662302572568255],[-1.4680414694452917,8.062556046927172,-2.0463206194008112,4.951963614228582,1.2528157683247478,1.220616110949763,-0.8273292606865889,-1.4770029211438742,-2.14499517645915,0.06991990146029528]]}],"biases":[{"rows":10,"cols":1,"data":[[-1.8419978406698307],[-0.7351962232369033],[-2.1570984600726244],[1.858819530906835],[-0.4282483459213272],[1.0175874756494845],[0.6762150069706078],[1.5444081453403493],[-1.9505111787527787],[-0.688111781575708]]},{"rows":3,"cols":1,"data":[[1.7116119307594133],[-1.475450139094546],[-1.6274065076898248]]}],"isDead":false,"currentFitness":114470.20879297548,"positionNumber":10},{"nodesPerLayer":[13,10,3],"numLayers":3,"learningRate":0.1,"weights":[{"rows":10,"cols":13,"data":[[0.477806830942072,0.09177672053612784,5.387148959162828,1.366096247588533,0.04663406049519525,0.08979010967725198,4.843150495636195,1.6676025771216278,1.6005890117355914,-1.1085101480155324,0.7495464235680096,-0.2854111051860581,0.13962350695782],[-1.9484158925885458,3.681798233474939,0.3796534877158005,0.4737547396716445,0.8767376093816042,5.730007136969496,-1.549866265501761,-5.4921296562935265,1.427551070977984,-1.116040542720187,-0.2359834932646998,1.002615260932045,2.0381432723466286],[-4.863471579032408,-1.4715812737297955,-6.290209829412456,-0.8695974477382269,-4.4711607012199615,-2.515788415635223,-0.21266863788155826,-1.1806384563571997,-2.1400434819616274,0.7842574540514349,-1.252794583865023,2.4209404270046195,1.6269146966903756],[-0.3665802926557993,3.6046509975706247,-0.9181041149616522,0.23728334678262986,0.4655977679429317,0.08400238448806452,-0.6475607856305032,-0.1563545572836329,-3.2497965357737106,-1.1783342314598968,-1.2448910282500631,-0.16237339486258645,-0.6416592418090008],[2.204241437483876,-0.6624634139232541,-5.507797118635082,-1.6747391810278693,0.6127339379247836,-0.1843676156267055,-4.0022486540090005,1.7579349227332426,3.0667270015778194,-2.6995940042844966,2.170123674452805,1.4463210466362184,1.037412716789273],[0.3232511113783078,-1.7866492247931842,-0.8918725118558747,-0.3180392248077899,1.6370730952036643,-0.8610336443809227,-2.0116181892859823,-2.7286302819894006,-0.7325539323681528,3.7008568355804123,-0.8266321159518148,2.2719215396726318,0.3387929880768168],[4.480199145606778,-1.196421075068241,0.7324193753451711,-1.6705626087660677,1.841659200442103,1.3917957206871365,1.6869082854205621,-1.951196405444741,3.726353663527407,-4.118539340123735,-1.0009421672121872,0.11903356377521934,4.034050691874262],[-3.318891690169774,-0.31051685966333653,1.6507071160702242,-1.8738899976563708,3.5906292962068367,2.0386742240424676,-4.003284355702459,0.8800612947490524,0.7760411225001902,-3.247747043598686,-1.4094515104156353,-0.1478352956955662,-1.031144725830073],[1.3491707342079682,-1.1934004290919566,-1.7909305052299982,-1.8155609581016454,-1.1674336728156107,2.5788926482059376,-4.459162416159155,-2.3549721054277617,-1.8713721821467706,-0.10362595670064767,0.14494125398066843,-2.316267354228767,-3.435506268232059],[-0.8689016190522574,-1.1298002862952081,1.408543718161357,-0.6307337631732058,6.9254987702547774,-0.31665504842990855,-2.257721151579324,0.3935925749176146,3.358425107034551,0.17921670573714626,-4.428727215759375,2.8539059371167776,0.8599589675963695]]},{"rows":3,"cols":10,"data":[[-1.3405511192810056,-4.1756016078925375,1.6224029835180873,2.058557403530681,-1.6170372020224182,1.3278892683069843,0.5344968327620795,-1.929419822505246,-0.20529115373071607,1.1961042424818977],[-6.00834186774805,3.8720476727470365,1.7647834227167574,1.5403508318311794,5.5012173120736625,-0.42101321593389496,-1.6174258953470149,1.68494502871106,1.1379410847474776,-3.0109971049129047],[-1.1684744802710008,7.066155290160946,-2.214950007892755,3.209459640986841,0.6048409685737699,2.1964264192097596,-0.455816254173225,-0.8663514363337171,-3.231325528492769,-0.09116727866763757]]}],"biases":[{"rows":10,"cols":1,"data":[[-1.6300243335672648],[-0.9355018468794649],[-1.191792235963463],[2.0592120631055137],[-0.4532890833696154],[0.7853171448614229],[1.2881525051177467],[1.4468844422213203],[-0.7351803080019226],[-1.4485859650182162]]},{"rows":3,"cols":1,"data":[[1.7116119307594133],[-1.3915249250146862],[-1.3404044501558832]]}],"isDead":false,"currentFitness":114216.18946279061,"positionNumber":11},{"nodesPerLayer":[13,10,3],"numLayers":3,"learningRate":0.1,"weights":[{"rows":10,"cols":13,"data":[[0.477806830942072,0.7936216912251614,5.775562552857917,1.1104857933699699,-0.5906011880435482,0.08979010967725198,4.0785625846211495,1.5005322219958779,1.3281193068044335,-1.5432760799765475,0.7543041429663474,-0.7128851641565708,-0.04470758587914392],[-1.8386691309756955,2.8481097246904876,-0.0475327403683411,-0.44604378083987184,1.1557908041033103,6.634810245514821,-1.3541944709026505,-5.4921296562935265,2.3318520557205855,-1.4461809215561159,-0.2359834932646998,0.663359482867934,1.2782331407451766],[-4.694508018137814,-1.6383187724830681,-7.4870235609545635,-1.1285364223303505,-2.5449380844767027,-2.716974153762307,-0.4923575152536541,-1.1806384563571997,-2.1400434819616274,0.4873524842171723,-1.7418312704799699,2.591761438654616,2.0821421830415385],[-0.16962290769806737,3.219529033684298,-1.0678832536577536,0.6521880023658424,0.4655977679429317,0.14348207709993022,-1.709518195433459,1.1287586712465292,-3.2497965357737106,-1.3224608502120638,-1.2448910282500631,0.8391281778665234,-0.7853074990907626],[1.8065925973992139,-1.2599347029765053,-4.751831181457968,-0.7029601257993249,-0.22797595493535344,-0.1843676156267055,-4.745187171414365,2.300785964336254,2.189305416337286,-2.7979408624549014,0.8245744054810413,1.6520406764732036,0.8586934947853924],[0.9690532098824964,-2.098954597850878,-0.9716838124025663,0.25100916744914914,1.6370730952036643,-1.8951470103967902,-2.896995717050688,-3.086257199778217,-0.4953853825995161,3.228541524674239,-0.8266321159518148,3.0712367723878646,0.41303186848203527],[5.200540820633018,-0.1084522221098776,0.7324193753451711,-3.2014522499604796,1.113423719266704,0.6841713611712171,1.6869082854205621,-2.2131829276487984,4.199430978141523,-3.872722598666426,-1.505140562454106,0.05188014981157979,3.7480503440405655],[-3.3589647256203756,0.37993361313560653,1.2217100758620554,-1.8738899976563708,2.893977911759425,0.6614252098871876,-3.4303653372434346,-0.07103545416044799,0.2316297249960615,-3.0277508878395833,-2.2046969465795203,0.0998292730482647,-0.9874292757566737],[0.794650824434106,-1.4249622935017399,-1.78576216587009,-1.8994154640421204,-1.5719197690153637,2.3585659128914447,-4.459162416159155,-2.3662204678710914,-1.6044403202237556,-0.12402240039395848,0.21989674478490384,-1.5388112583848432,-2.9319864211664166],[-0.8888650371614712,-0.0077947963439556345,1.3356319572078243,0.6854243919934134,6.9254987702547774,-0.5124194431261528,-3.852102648399083,0.5681612340910493,3.07129495073684,0.7967391518413411,-4.010190268905827,3.39474397710799,1.4039858934119456]]},{"rows":3,"cols":10,"data":[[0.8900795861662121,-4.068227252561962,0.5196084412369464,1.6410565676241968,-0.10535354341292714,1.3278892683069843,-0.15855727887345056,-1.7360591121307387,-0.4249942290812251,0.14540032419831805],[-6.00834186774805,3.3681628382718216,2.251218355234437,1.5403508318311794,5.417782773009846,-0.42101321593389496,-1.1852709467284814,1.836872478648067,1.734900187922345,-2.890388257543553],[-1.4680414694452917,8.062556046927172,-2.214950007892755,5.783847387309601,1.4490461145660074,1.220616110949763,-0.8273292606865889,-0.16068493518083593,-2.829349999516692,0.06991990146029528]]}],"biases":[{"rows":10,"cols":1,"data":[[-1.8419978406698307],[-1.093230181311875],[-2.7829091801585273],[1.858819530906835],[0.12169767504817647],[0.7853171448614229],[0.6762150069706078],[1.5444081453403493],[-1.9505111787527787],[-1.2399431479401621]]},{"rows":3,"cols":1,"data":[[1.2403318763998454],[-1.475450139094546],[-1.6274065076898248]]}],"isDead":false,"currentFitness":113837.57569751641,"positionNumber":12,"isBest":true},{"nodesPerLayer":[13,10,3],"numLayers":3,"learningRate":0.1,"weights":[{"rows":10,"cols":13,"data":[[0.5751171593710177,1.7094433575233547,5.660928825515351,1.1104857933699699,-0.5906011880435482,0.0076706138700348425,2.7075344242561483,1.8721821081444197,1.9627939882895378,-2.3695715212264705,0.48271109328443407,-0.08806285334522312,-1.5103943507825202],[-1.4435049508849547,3.187556627057049,-0.3114514864614707,0.32294948977280175,1.3680430262785523,5.8301810320742025,-0.7583300110224883,-6.15483597002865,2.567528499069743,-2.167327611050846,0.7975074445884549,0.540543901486182,1.3829958224165935],[-1.7042395811502873,-1.5304449487650682,-5.217059017669774,-0.24416585757246434,-3.5227381282400136,-2.515788415635223,-1.126593580990141,-1.1747022544957086,-1.648239866706206,0.20306586760381096,-0.24994370718108033,3.1897882538573046,1.828203424764697],[0.8910291676577053,2.460330031254354,-0.5058821419672681,1.142296638160843,0.4655977679429317,0.14348207709993022,-1.1032595228227482,1.060485171436764,-3.2497965357737106,-1.7309825757336679,-0.7661307059719926,0.1552687300754747,-0.34452044006848564],[2.204241437483876,-0.45777150615999074,-4.796335798669417,-1.2951817411653104,0.420293174515271,-0.1843676156267055,-4.464280936748316,1.4345485116827172,2.8709563982217094,-2.6995940042844966,-0.11918268525346465,2.2433039723451986,0.8695941025796448],[0.3232511113783078,-1.821401005785146,-0.7707828833665368,-0.4316515722183231,1.6370730952036643,-1.8951470103967902,-1.0861021506554893,-3.086257199778217,-0.7325539323681528,3.18445849417421,0.4217690069199723,2.2719215396726318,0.21714034048482816],[3.616132348950558,0.8956703353803006,2.8038372078097744,-0.30831580028822003,1.841659200442103,0.860721960937715,1.1192918144940276,-0.9610235776597683,4.61976631101275,-3.7570964969856004,0.7050806806316237,-0.04164205482358635,3.376458279545195],[-2.043398709485408,0.23903016971589863,2.095504265452284,-1.7354300711982371,2.8340599648257667,2.124920965073105,-4.958436031155214,1.003250184468794,2.3135574044582183,-3.0277508878395833,-0.79921978950099,-0.7196036494503082,-1.4675224697367835],[0.9661365847730876,-1.5351287175846013,-3.0182226623658677,-1.7642040500827592,-0.39418475928271746,2.5072330799550997,-4.765165362520358,-2.903636902935796,-1.3037102464199755,0.4330632245854066,-0.143323255979716,-1.3204935039096544,-0.8795858360630742],[0.13324741004421803,0.1793971809832088,1.1883078264372735,-0.6007506512456346,7.194778893620344,-0.3579914106567534,-2.94638393368576,1.1219372504630336,2.9129904957719663,0.32095372445339937,-3.8765717761521308,1.8032268090805017,1.6052000665018133]]},{"rows":3,"cols":10,"data":[[-0.47051353951547165,-4.433103322300664,0.8083804170446602,2.1895160421478224,-1.412536058878861,0.6514947464463472,0.17855663716070697,-1.4644634303706088,0.24786753992024457,0.9133347755349999],[-6.309495798129175,2.658695939529242,1.7534531673596239,1.5403508318311794,5.417782773009846,0.29814268977572833,-0.5191735373131385,1.7376279817403708,2.000737369170221,-2.890388257543553],[-2.097175991944591,5.560399485411331,-2.1404793725271887,4.357784239204307,2.001618401923077,2.567573441002719,0.47399325701966405,-1.3171740513695438,-2.510919202474023,-0.4476458168034902]]}],"biases":[{"rows":10,"cols":1,"data":[[-0.9230976047027881],[-0.7576158729751726],[-1.5678749824525413],[1.858819530906835],[0.04952728957358832],[0.9733954318385635],[1.2892385136764384],[2.309316010600859],[-0.32962363948611134],[-1.449394625099262]]},{"rows":3,"cols":1,"data":[[2.9551580827871864],[-1.1625630292669378],[-0.8007183039445547]]}],"isDead":false,"currentFitness":113248.24742104264,"positionNumber":13},{"nodesPerLayer":[13,10,3],"numLayers":3,"learningRate":0.1,"weights":[{"rows":10,"cols":13,"data":[[0.477806830942072,0.8719007805704918,5.775562552857917,1.1104857933699699,-0.5906011880435482,0.08979010967725198,4.0785625846211495,2.016257357654026,1.4791317167834006,-1.145714013786134,0.7543041429663474,-0.7128851641565708,-0.9275738208018152],[-1.8386691309756955,2.8481097246904876,-0.0475327403683411,-0.44604378083987184,1.1557908041033103,6.634810245514821,-1.3541944709026505,-5.4921296562935265,2.3318520557205855,-2.1130025044394016,-0.2359834932646998,0.663359482867934,1.854005763108598],[-4.694508018137814,-1.1874971928737226,-6.258061387108245,-1.1285364223303505,-2.5449380844767027,-2.716974153762307,-0.4923575152536541,-0.5628267021841121,-2.1400434819616274,0.826546250764842,-1.7418312704799699,3.307922760547017,1.6269146966903756],[1.1375136778658292,3.451870344028427,-1.174954983005103,1.1913580939144197,0.21586205143952752,0.14348207709993022,-1.1032595228227482,0.4287013816429667,-3.2497965357737106,-1.7309825757336679,-0.5902341309747489,0.7601327382898352,0.13676078091772936],[2.204241437483876,-1.9987577246616157,-4.796335798669417,-1.7091902791857214,1.334971161129636,-0.9680369259549513,-4.180891058600281,0.7913517240692396,2.8709563982217094,-2.6995940042844966,1.060102914724881,2.227865442335354,1.3104130695307454],[0.3232511113783078,-1.7866492247931842,-0.9102473016697283,-0.4316515722183231,1.6370730952036643,-1.8951470103967902,-2.0664326287532235,-3.086257199778217,0.2508074365295566,3.18445849417421,0.6549967708509705,2.2719215396726318,0.41303186848203527],[5.097462012530211,-0.1084522221098776,0.7324193753451711,-1.8151679976318453,1.113423719266704,0.8343601634588511,1.6869082854205621,-2.2131829276487984,4.199430978141523,-4.11503553969037,-1.0009421672121872,0.05188014981157979,3.7480503440405655],[-2.96592325701071,0.23903016971589863,1.089616543247501,-1.8738899976563708,2.0609067758170245,2.010382993314585,-3.4303653372434346,-0.07103545416044799,0.735766282739275,-3.0277508878395833,-2.2046969465795203,-0.5144630138615236,-0.3235942047198471],[0.794650824434106,-1.7086606179039132,-1.78576216587009,-1.8994154640421204,-1.2806145768067134,2.3585659128914447,-4.144783357949801,-2.27887136017933,-1.6044403202237556,-0.10362595670064767,0.3035326618917532,-1.2820610925169262,-2.9319864211664166],[-0.8888650371614712,-0.5462493683262671,1.3356319572078243,0.6136271270355006,7.051422375839796,-0.5124194431261528,-4.203171033434939,0.9155352657321949,3.07129495073684,0.7967391518413411,-4.526122052011072,4.0779365882331,2.2864349663995207]]},{"rows":3,"cols":10,"data":[[0.5212421605008398,-4.068227252561962,0.5196084412369464,1.6410565676241968,-0.1834539230002704,0.11858945274923594,-0.15855727887345056,-0.8850476745075211,-0.4249942290812251,0.6537820817591846],[-6.896472674745004,2.658695939529242,2.251218355234437,1.5403508318311794,5.417782773009846,0.029799106834413946,-0.4129679918037997,2.1487218176332985,1.9986200723135121,-2.890388257543553],[-1.4680414694452917,8.316453188369476,-1.8238226175909915,5.019073814091043,1.4490461145660074,1.2414788266587047,-0.8273292606865889,-1.4770029211438742,-2.829349999516692,-0.2964146058091558]]}],"biases":[{"rows":10,"cols":1,"data":[[-1.8419978406698307],[-1.093230181311875],[-2.1570984600726244],[1.858819530906835],[0.04952728957358832],[1.0175874756494845],[1.3632587849250064],[1.5444081453403493],[-1.7257393083326353],[-0.35820499730146277]]},{"rows":3,"cols":1,"data":[[1.6392461111399257],[-1.1941599340237716],[-1.9313071647981679]]}],"isDead":false,"currentFitness":112957.35742706888,"positionNumber":14},{"nodesPerLayer":[13,10,3],"numLayers":3,"learningRate":0.1,"weights":[{"rows":10,"cols":13,"data":[[0.5149162621944284,0.35436566523200025,5.775562552857917,1.1104857933699699,-0.5906011880435482,0.08979010967725198,4.0785625846211495,2.016257357654026,1.1571516185561377,-1.5432760799765475,0.7543041429663474,-0.7128851641565708,-0.9752402920611846],[-1.171231376564997,2.8481097246904876,-0.0475327403683411,-0.5485017918338793,1.1557908041033103,6.502326053083569,-1.3541944709026505,-5.4921296562935265,2.3318520557205855,-1.597569796381453,-0.2359834932646998,0.663359482867934,1.2782331407451766],[-4.508334820376677,-1.6383187724830681,-5.690131799360007,-1.1285364223303505,-2.5449380844767027,-2.3007558655013955,-0.9183739875248706,-1.1806384563571997,-2.7098140647055375,0.826546250764842,-1.7418312704799699,2.603480551037388,1.6269146966903756],[-0.16962290769806737,2.826799864387503,-0.7516472643353499,0.7736456002195934,0.4655977679429317,0.7653295338372506,-0.6515092277156296,1.1287586712465292,-3.2497965357737106,-1.3224608502120638,-1.2448910282500631,0.4195269807169925,-0.7853074990907626],[2.4586938304391985,-1.2599347029765053,-4.9765514324428795,-1.2951817411653104,0.413307312757719,-0.1843676156267055,-4.745187171414365,2.300785964336254,3.1814340549118327,-2.6995940042844966,1.0845208866827103,2.3285634681039267,0.8586934947853924],[0.3232511113783078,-1.7866492247931842,-1.4541483190404314,-0.019427649962226845,1.1516390499088536,-1.8951470103967902,-3.00815861082816,-1.938347862255449,-0.4953853825995161,3.4781361009046026,-0.8789579951160996,2.5181091285187596,-0.08186250441723575],[5.097462012530211,-0.1084522221098776,0.7324193753451711,-1.8151679976318453,1.113423719266704,0.6841713611712171,1.6869082854205621,-2.2131829276487984,4.202125864912051,-4.11503553969037,-1.0009421672121872,0.05188014981157979,3.7480503440405655],[-2.96592325701071,0.23903016971589863,1.089616543247501,-1.8738899976563708,2.5562984729024456,2.010382993314585,-3.4303653372434346,-0.07103545416044799,0.8781010534324016,-3.0277508878395833,-2.2046969465795203,0.16246570500023855,-0.9874292757566737],[0.794650824434106,-1.5351287175846013,-1.78576216587009,-1.8994154640421204,-1.2806145768067134,2.65769777611247,-4.459162416159155,-2.472667275486116,-1.7145523568305572,-0.10362595670064767,1.912825080913733,-1.5388112583848432,-2.9319864211664166],[-0.8888650371614712,-0.5462493683262671,1.3356319572078243,0.6136271270355006,6.9254987702547774,-0.5124194431261528,-3.852102648399083,-0.3815471537612516,3.07129495073684,0.9770934480111566,-4.526122052011072,3.39474397710799,1.4039858934119456]]},{"rows":3,"cols":10,"data":[[0.5212421605008398,-3.8949408229499425,0.5196084412369464,1.6410565676241968,0.7326670826622576,1.3278892683069843,-0.15855727887345056,-1.644455978601405,-0.5510854666717444,0.6537820817591846],[-6.346709712331401,3.184755527930215,2.2895067302203045,1.317931672990463,5.417782773009846,-0.42101321593389496,-1.1852709467284814,1.836872478648067,1.4032754501938656,-2.890388257543553],[-1.4680414694452917,8.170169530976757,-2.214950007892755,4.951963614228582,0.882090926539892,0.7424160288586164,-0.8273292606865889,-1.4770029211438742,-2.829349999516692,0.06991990146029528]]}],"biases":[{"rows":10,"cols":1,"data":[[-1.8419978406698307],[-1.093230181311875],[-2.1570984600726244],[1.858819530906835],[-0.12599195775362063],[0.7853171448614229],[1.3632587849250064],[1.5444081453403493],[-1.9505111787527787],[-0.688111781575708]]},{"rows":3,"cols":1,"data":[[1.7116119307594133],[-1.475450139094546],[-1.6274065076898248]]}],"isDead":false,"currentFitness":112434.8179028922,"positionNumber":15,"isBest":true},{"nodesPerLayer":[13,10,3],"numLayers":3,"learningRate":0.1,"weights":[{"rows":10,"cols":13,"data":[[0.11398796099770303,0.7936216912251614,5.775562552857917,1.1104857933699699,-0.5906011880435482,0.08979010967725198,4.0785625846211495,2.016257357654026,1.3281193068044335,-1.5432760799765475,0.7543041429663474,-0.7128851641565708,-0.9275738208018152],[-1.8386691309756955,2.8481097246904876,-0.0475327403683411,-0.44604378083987184,1.1557908041033103,6.634810245514821,-2.037963651849097,-5.4921296562935265,2.3318520557205855,-1.4461809215561159,-0.2359834932646998,0.663359482867934,1.2782331407451766],[-4.694508018137814,-2.5105104387065635,-7.177630394868284,-1.1285364223303505,-2.5449380844767027,-2.716974153762307,-0.4923575152536541,-1.1806384563571997,-2.1400434819616274,0.4873524842171723,-1.7418312704799699,2.603480551037388,1.6269146966903756],[-0.4283800076717233,2.826799864387503,-0.7516472643353499,0.7736456002195934,0.4655977679429317,0.14348207709993022,-0.4349675791433779,1.1287586712465292,-3.432845459255013,-0.5018553471788689,-1.3626008182063276,-0.030331051609829462,-0.90598526378178],[2.4586938304391985,-1.2599347029765053,-4.751831181457968,-1.2951817411653104,0.420293174515271,-0.2851476089716751,-5.049975864122655,2.300785964336254,3.1814340549118327,-2.6995940042844966,1.9150570718426299,2.3285634681039267,0.8586934947853924],[0.3232511113783078,-1.0955012920633356,-1.4541483190404314,-0.2923642382056755,1.6370730952036643,-1.8951470103967902,-3.00815861082816,-1.938347862255449,-0.4953853825995161,3.4781361009046026,-0.5409599925068452,2.9279705370257028,0.41303186848203527],[5.097462012530211,-0.1084522221098776,0.7324193753451711,-2.3018416548007807,1.113423719266704,0.6841713611712171,1.6869082854205621,-2.2131829276487984,4.199430978141523,-3.872722598666426,-1.0009421672121872,0.793605420383886,3.6621090282940325],[-2.96592325701071,0.23903016971589863,1.089616543247501,-1.8738899976563708,2.583792232279419,2.010382993314585,-3.417352450684138,-0.07103545416044799,0.2316297249960615,-3.0277508878395833,-2.6459998546721493,-0.1478352956955662,-0.9874292757566737],[0.794650824434106,-1.4249622935017399,-1.78576216587009,-1.8994154640421204,-1.359313770580076,2.8038666076839207,-4.441555139467672,-2.472667275486116,-1.6044403202237556,-0.10362595670064767,0.21989674478490384,-1.537726122123373,-2.9319864211664166],[0.2716096163983517,-0.0077947963439556345,1.3356319572078243,0.6136271270355006,6.9254987702547774,-0.6266068065116511,-3.852102648399083,0.5681612340910493,3.0893455589463374,0.7967391518413411,-4.526122052011072,3.39474397710799,1.4039858934119456]]},{"rows":3,"cols":10,"data":[[0.5212421605008398,-4.4007483889709285,0.5196084412369464,1.6516359487010093,-0.10836859546344518,1.3278892683069843,0.5732582487882836,-1.6412587869527044,-0.15755843549236037,0.3902806054952997],[-6.346709712331401,3.526060886725974,2.400088979494199,1.317931672990463,5.417782773009846,-0.07112666729047301,-1.1852709467284814,1.836872478648067,1.734900187922345,-2.890388257543553],[-1.4680414694452917,8.062556046927172,-2.214950007892755,4.951963614228582,1.2528157683247478,1.220616110949763,-0.8273292606865889,-1.4770029211438742,-2.829349999516692,0.06991990146029528]]}],"biases":[{"rows":10,"cols":1,"data":[[-1.8419978406698307],[-1.093230181311875],[-2.1570984600726244],[2.1956458710060467],[-0.8680762263583441],[0.7853171448614229],[0.6762150069706078],[1.5444081453403493],[-1.9505111787527787],[-1.2285815310308277]]},{"rows":3,"cols":1,"data":[[1.7116119307594133],[-1.475450139094546],[-1.6274065076898248]]}],"isDead":false,"currentFitness":112236.54138295187,"positionNumber":16},{"nodesPerLayer":[13,10,3],"numLayers":3,"learningRate":0.1,"weights":[{"rows":10,"cols":13,"data":[[0.477806830942072,0.09177672053612784,5.387148959162828,0.5275713376944992,0.04663406049519525,0.08979010967725198,4.4157151081558705,2.492906396574485,1.6005890117355914,-1.9514373749715772,1.1319144645473351,-1.5227679752346102,0.41284701731324125],[-3.0472969227722393,3.681798233474939,0.3796534877158005,-0.44604378083987184,0.8767376093816042,5.500709015912808,-1.526791150127872,-5.390792601451449,1.9115211899517908,-1.461899118474114,0.354280181949978,0.439281119920342,2.0381432723466286],[-4.50862942702271,-2.1601177330680352,-6.258061387108245,-0.8695974477382269,-3.764431295173468,-1.757681659194024,-0.8873430605684716,-1.2531929625695493,-2.1400434819616274,0.7842574540514349,-0.7986118554152131,1.8404302605754486,1.6269146966903756],[0.5603533391679558,2.826799864387503,-0.7516472643353499,0.7736456002195934,0.4655977679429317,0.14348207709993022,-0.9197337540966168,1.1287586712465292,-3.2497965357737106,-1.3224608502120638,-2.074007601591991,0.4195269807169925,-0.7853074990907626],[2.443035168640898,-1.6336820714196134,-4.751831181457968,-1.2951817411653104,0.420293174515271,-0.1843676156267055,-4.745187171414365,2.300785964336254,3.1814340549118327,-2.6995940042844966,1.0845208866827103,2.3285634681039267,0.8586934947853924],[0.3232511113783078,-1.7866492247931842,-1.4541483190404314,0.25100916744914914,1.6370730952036643,-1.5168240812968214,-3.00815861082816,-1.938347862255449,-0.6414666831176711,3.4781361009046026,-0.8266321159518148,3.5734590097303753,0.41303186848203527],[4.480199145606778,-0.1084522221098776,0.7324193753451711,-0.44543787724824824,1.5530771241171342,0.9628128963753322,1.6983537270326974,-1.9866606270701057,3.726353663527407,-4.412422125148388,-1.0009421672121872,0.39655393653920223,3.315466256177418],[-2.96592325701071,0.23903016971589863,2.1603447136555425,-1.8738899976563708,2.77660951252842,1.7885779073561108,-4.003284355702459,0.8800612947490524,0.7760411225001902,-3.2688119081293725,-1.340222150119451,-0.1478352956955662,-1.3401097750612168],[1.3491707342079682,-1.5351287175846013,-1.7909305052299982,-1.8155609581016454,-1.4952204575927546,2.3585659128914447,-4.003046687335043,-2.441698208503923,-1.8713721821467706,-0.10362595670064767,0.043558348741694626,-1.5388112583848432,-3.653041365191812],[-0.9423453045943253,-0.3855165014700889,2.110528717321064,0.18547779587925506,6.9254987702547774,-0.40298191908246694,-2.257721151579324,0.3935925749176146,3.612796506049934,-0.927176982760822,-4.428727215759375,3.330041937728856,1.1062611873281691]]},{"rows":3,"cols":10,"data":[[-2.048730059865995,-4.1756016078925375,1.4375956389269722,1.494205071569181,-1.6170372020224182,1.7603133488051235,-0.04781838089490853,-2.2555393507969863,-0.20529115373071607,0.6537820817591846],[-6.346709712331401,3.526060886725974,2.926727149476775,1.317931672990463,5.277125820863596,-0.42101321593389496,-1.1852709467284814,1.836872478648067,1.734900187922345,-4.073972408311512],[-1.1684744802710008,7.066155290160946,-2.214950007892755,4.04320045426951,0.6048409685737699,2.1964264192097596,-0.455816254173225,-0.8663514363337171,-3.324119128344538,-0.13752216144554985]]}],"biases":[{"rows":10,"cols":1,"data":[[-1.8419978406698307],[-1.112165101692975],[-0.658880456056303],[1.858819530906835],[-0.12599195775362063],[1.4656723983740885],[1.2881525051177467],[1.847453265926141],[-0.6065886985944451],[-1.4485859650182162]]},{"rows":3,"cols":1,"data":[[1.7116119307594133],[-1.475450139094546],[-1.0337266690743516]]}],"isDead":false,"currentFitness":111428.36148160005,"positionNumber":17,"isBest":true},{"nodesPerLayer":[13,10,3],"numLayers":3,"learningRate":0.1,"weights":[{"rows":10,"cols":13,"data":[[0.477806830942072,-0.1811661362675624,5.387148959162828,1.0553075604053157,0.04663406049519525,0.08979010967725198,4.4157151081558705,2.016257357654026,1.6005890117355914,-1.5432760799765475,0.7543041429663474,-0.052752235055273544,0.3975080181587944],[-2.967064494467558,3.681798233474939,0.3796534877158005,-0.44604378083987184,0.8767376093816042,5.730007136969496,-1.526791150127872,-5.390792601451449,1.9115211899517908,-1.461899118474114,0.354280181949978,0.663359482867934,2.0381432723466286],[-4.694508018137814,-1.5304449487650682,-6.380107844173563,-0.8695974477382269,-3.8726050499476945,-2.3774003138838475,-0.21266863788155826,-1.1806384563571997,-2.075795441556583,0.7842574540514349,-0.7986118554152131,1.8404302605754486,1.6269146966903756],[-1.3004780675107899,2.443008626916668,1.4699237678462582,0.1141700428027197,0.3763870815795732,0.876936668615668,-1.9355097836282407,0.0019388275089645135,-3.8544510835616177,-2.04638048100677,-1.872766510288853,0.3699480001161805,-0.15905866575642805],[1.469505076006694,0.16842217283876304,-3.6653025028554143,-1.5074034098239615,0.3714387343468625,-0.2161645938777083,-4.593498489406748,0.9933546442325086,2.744882276168367,-3.71241453993168,1.1402999073496205,2.88107195454581,0.020521194083866212],[0.32495514263033026,-0.8557260111879412,-0.45185997774667896,-1.5140271300430483,1.6654736813750561,-1.949534205148725,-2.030731880258681,-5.515020923668443,-0.18175000646505346,1.3790940401238592,0.6095996733232936,2.037348004948275,0.4248538396425955],[4.480199145606778,-0.1084522221098776,1.1754648465558462,-0.9943585639109349,1.841659200442103,0.9628128963753322,1.6983537270326974,-1.9866606270701057,3.726353663527407,-4.412422125148388,-1.0009421672121872,-0.18982541868038108,3.315466256177418],[-2.96592325701071,0.23903016971589863,2.1603447136555425,-1.8738899976563708,2.77660951252842,1.7885779073561108,-4.003284355702459,0.8800612947490524,0.7760411225001902,-2.829813454547111,-2.2424684409021074,-0.1219184324787233,-1.3401097750612168],[1.3491707342079682,-1.5351287175846013,-1.7909305052299982,-1.8155609581016454,-1.4952204575927546,2.3585659128914447,-3.38835897985388,-2.407667467286261,-1.8713721821467706,-0.10362595670064767,0.043558348741694626,-1.5388112583848432,-4.259652587870401],[-1.4082043152110044,-0.7346992614510419,2.110528717321064,0.18547779587925506,7.733346827562295,-0.40298191908246694,-2.257721151579324,0.3935925749176146,3.612796506049934,-1.2450675408899907,-4.428727215759375,2.8539059371167776,1.1062611873281691]]},{"rows":3,"cols":10,"data":[[-2.048730059865995,-4.823185576797688,1.4375956389269722,1.494205071569181,-1.6352186235111117,1.3278892683069843,-0.04781838089490853,-1.929419822505246,-0.20529115373071607,0.8412469405220043],[-6.242076013726444,3.708035124424683,2.1319394437763433,1.7296252387256956,6.210281929093738,-0.01260544482376362,-1.3722904700662115,1.1884402816552044,0.17189999831563063,-3.270611654490906],[-1.1684744802710008,6.824190658608946,-2.214950007892755,4.04320045426951,0.6048409685737699,2.1964264192097596,-0.455816254173225,-0.8663514363337171,-3.324119128344538,-0.13752216144554985]]}],"biases":[{"rows":10,"cols":1,"data":[[-1.8419978406698307],[-1.3186345362567666],[-1.191792235963463],[1.6393688006603304],[-0.7817242699999715],[2.300346720058725],[1.2881525051177467],[2.706098832305198],[-0.9281150437102871],[-1.4485859650182162]]},{"rows":3,"cols":1,"data":[[1.7116119307594133],[-1.491771363374144],[-1.0337266690743516]]}],"isDead":false,"currentFitness":110768.61878888297,"positionNumber":18},{"nodesPerLayer":[13,10,3],"numLayers":3,"learningRate":0.1,"weights":[{"rows":10,"cols":13,"data":[[1.365402476355383,0.7936216912251614,5.660928825515351,1.1104857933699699,-0.5906011880435482,0.0076706138700348425,3.526645875012231,3.241417910889161,2.0637480849468757,-0.9887397769127942,0.7543041429663474,-0.25364724793450305,-1.5494377777150299],[-2.3463497324877447,3.187556627057049,-0.3114514864614707,0.5021158059820177,0.9087757300808961,5.8301810320742025,-0.9084357004111148,-5.928470295683002,1.869445233832931,-1.394636695722698,0.26766495507788485,0.9973591101215156,1.3829958224165935],[-3.285302485045107,-0.5329925480364351,-6.447072826643492,-0.2827872435589406,-3.8819690403443183,-2.515788415635223,-1.126593580990141,-1.5320656198047002,-2.1400434819616274,0.9670218748249951,-0.09253209033656704,3.5240404143224833,2.3629086540349595],[0.8910291676577053,2.826799864387503,-0.5058821419672681,0.7736456002195934,1.0960639940025858,0.49056162033124945,-0.6041197818064434,0.9101245093734682,-3.3912807549494475,-1.7309825757336679,-0.5812802599200614,-0.023572164233367526,0.7998732546209508],[2.204241437483876,-0.30350685999953697,-4.796335798669417,-1.2951817411653104,0.6875223775837148,-0.1843676156267055,-4.745187171414365,1.4345485116827172,2.8709563982217094,-2.495434608467673,1.0845208866827103,2.2433039723451986,1.3104130695307454],[0.6433201679705285,-1.7866492247931842,-0.6721848524260836,-0.4316515722183231,1.6370730952036643,-1.8951470103967902,-1.6134653741288556,-3.086257199778217,-0.7325539323681528,3.322251968320811,-0.2640804526661362,2.3959769458265923,0.41303186848203527],[4.1380739889726135,1.3905874301236216,1.3973304451410358,-0.30831580028822003,1.5146154989186835,0.657196611650391,1.1192918144940276,-1.0940581539660619,4.506907556278705,-3.788298750151646,-0.2378967735549007,-0.20395955790954703,3.368621366473225],[-2.0266888919660495,0.23903016971589863,2.095504265452284,-1.7354300711982371,2.8340599648257667,1.324782650009154,-4.015905858378458,0.9606971089825734,2.026143117563281,-3.0277508878395833,-1.9015019571366019,-0.2111199217206265,-1.4675224697367835],[-0.1858406782274722,-1.5351287175846013,-3.0182226623658677,-1.7642040500827592,-0.19337133707898016,3.019135293985258,-4.991062457667712,-2.294315295271238,-1.3032254732551538,0.4330632245854066,-0.6256287903415696,-2.194940395520268,-0.9170936313670138],[-0.5256674278259688,0.06854404306752651,1.2278032977951483,-0.4140710951528136,7.3136010460007865,0.21740556238939757,-1.629138346522951,1.1219372504630336,2.9129904957719663,-0.041098207855811086,-3.350048121659378,2.678430523959223,1.6052000665018133]]},{"rows":3,"cols":10,"data":[[-1.1408619762993302,-5.157597556482567,0.8327882009529649,2.1907233468762883,-1.8334413207155138,0.6514947464463472,-0.01929406420028565,-1.4854996336988682,-0.21909751328293164,0.34625333567488814],[-6.309495798129175,3.2641047249545334,2.251218355234437,1.5403508318311794,5.743591125641048,-0.6002241910355841,-0.38229760557072057,1.9563270230966472,2.339005824155997,-3.560316709379902],[-2.405916870416766,4.834334516455847,-2.197087785067771,4.019297744755033,1.751412454224666,1.8375765736474816,0.5212345957933253,-1.3171740513695438,-3.148379279225988,0.19796535842854784]]}],"biases":[{"rows":10,"cols":1,"data":[[-2.50697514040803],[-1.3730973758401475],[-1.5678749824525413],[1.3746208989539852],[0.7194342108483005],[1.0175874756494845],[1.2892385136764384],[1.6194794215266792],[-0.32962363948611134],[-0.27334772297536136]]},{"rows":3,"cols":1,"data":[[2.482696712437492],[-1.475450139094546],[-0.7282432585875847]]}],"isDead":false,"currentFitness":110044.19660786509,"positionNumber":19,"isBest":true},{"nodesPerLayer":[13,10,3],"numLayers":3,"learningRate":0.1,"weights":[{"rows":10,"cols":13,"data":[[0.477806830942072,0.09177672053612784,5.387148959162828,1.366096247588533,0.04663406049519525,0.08979010967725198,4.843150495636195,1.6676025771216278,1.6005890117355914,-1.5170061761593694,0.7543041429663474,-0.2854111051860581,0.13962350695782],[-1.9484158925885458,3.681798233474939,0.3796534877158005,0.4737547396716445,0.8767376093816042,5.730007136969496,-1.549866265501761,-5.4921296562935265,1.427551070977984,-1.116040542720187,-0.2359834932646998,1.002615260932045,2.0381432723466286],[-5.321404201171085,-1.4715812737297955,-6.258061387108245,-1.3983757665995862,-3.8726050499476945,-2.515788415635223,-0.21266863788155826,-1.1806384563571997,-2.1400434819616274,0.7842574540514349,-1.252794583865023,2.4209404270046195,1.6269146966903756],[0.8910291676577053,2.941226822406147,-0.7852720231357164,0.7736456002195934,0.4655977679429317,0.49056162033124945,-1.228999215512722,0.9101245093734682,-3.2497965357737106,-1.7805399555322288,-0.5812802599200614,-0.023572164233367526,0.7998732546209508],[2.204241437483876,-0.45777150615999074,-4.796335798669417,-1.2951817411653104,0.420293174515271,-0.1843676156267055,-4.612258140453436,1.4345485116827172,2.8709563982217094,-2.7266595221830285,1.0845208866827103,1.2231013875510617,1.3104130695307454],[0.6433201679705285,-2.803453639411,-0.9102473016697283,-0.4316515722183231,2.857696289333513,-1.6380640727163671,-1.0866432552696117,-3.086257199778217,-0.7325539323681528,3.18445849417421,-0.2640804526661362,1.8508309228340711,1.7612633294412552],[4.480199145606778,-0.1084522221098776,0.7324193753451711,-1.5932084645561844,1.841659200442103,1.3917957206871365,1.6869082854205621,-1.9866606270701057,3.726353663527407,-4.118539340123735,-1.0009421672121872,0.11903356377521934,4.034050691874262],[-3.318891690169774,0.31104776750347896,1.6507071160702242,-1.8738899976563708,3.5906292962068367,1.6776722461814026,-4.4817550158899015,0.8800612947490524,0.7760411225001902,-3.247747043598686,-1.4094515104156353,0.441967029235389,-1.031144725830073],[1.3491707342079682,-1.5351287175846013,-1.6501419466046987,-1.8155609581016454,-1.4952204575927546,2.3585659128914447,-4.459162416159155,-2.3549721054277617,-2.775621596916275,-0.10362595670064767,0.14494125398066843,-2.316267354228767,-3.435506268232059],[-0.8689016190522574,-1.1298002862952081,1.408543718161357,-0.6307337631732058,6.9254987702547774,-0.31665504842990855,-2.257721151579324,0.3935925749176146,3.358425107034551,0.17921670573714626,-4.428727215759375,2.8539059371167776,0.8599589675963695]]},{"rows":3,"cols":10,"data":[[-1.3405511192810056,-4.1756016078925375,2.3446208841094,1.6243935406589702,-1.6170372020224182,1.3278892683069843,0.5344968327620795,-1.929419822505246,-0.20529115373071607,1.1961042424818977],[-5.816663555646689,3.2641047249545334,2.251218355234437,1.5403508318311794,5.204808727644958,-0.15622730930820872,-0.002164636043331447,1.3507914614464602,1.9986200723135121,-3.560316709379902],[-1.1684744802710008,7.066155290160946,-2.4143939704398556,3.209459640986841,0.6048409685737699,2.1964264192097596,-0.455816254173225,-0.8663514363337171,-3.231325528492769,-0.09116727866763757]]}],"biases":[{"rows":10,"cols":1,"data":[[-1.6300243335672648],[-0.9355018468794649],[-1.191792235963463],[0.8663551500500116],[0.04952728957358832],[1.0175874756494845],[1.2881525051177467],[1.4468844422213203],[-0.7351803080019226],[-1.4485859650182162]]},{"rows":3,"cols":1,"data":[[1.7116119307594133],[-1.475450139094546],[-1.3404044501558832]]}],"isDead":false,"currentFitness":109123.35850283939,"positionNumber":20},{"nodesPerLayer":[13,10,3],"numLayers":3,"learningRate":0.1,"weights":[{"rows":10,"cols":13,"data":[[0.477806830942072,0.09177672053612784,5.387148959162828,1.366096247588533,0.04663406049519525,0.08979010967725198,4.843150495636195,1.6676025771216278,1.6005890117355914,-1.5432760799765475,0.7543041429663474,-0.2854111051860581,0.13962350695782],[-1.9484158925885458,3.681798233474939,0.3796534877158005,0.4737547396716445,0.8767376093816042,5.646477890043874,-1.549866265501761,-5.4921296562935265,0.9243811636845004,-1.116040542720187,-0.2359834932646998,1.002615260932045,2.0381432723466286],[-4.863471579032408,-1.4715812737297955,-6.258061387108245,-0.8695974477382269,-4.599126686921563,-2.515788415635223,-0.21266863788155826,-1.1806384563571997,-2.1400434819616274,0.7842574540514349,-1.252794583865023,2.4209404270046195,1.6269146966903756],[-0.3665802926557993,3.8831464399467155,-0.5058821419672681,0.03910919268166102,0.4655977679429317,0.14348207709993022,-0.9989214091722409,-0.4536936264807632,-3.2497965357737106,-1.260299450439175,-1.2448910282500631,-0.16237339486258645,-0.6416592418090008],[2.204241437483876,-1.5464625119521012,-5.507797118635082,-0.5945414658543007,0.6127339379247836,-0.1843676156267055,-4.0022486540090005,1.7579349227332426,2.9690992730353116,-2.6995940042844966,2.170123674452805,1.4463210466362184,1.112954085181852],[0.3232511113783078,-1.6225666701334762,-0.8918725118558747,0.10378357820963713,1.6370730952036643,-0.8610336443809227,-2.0116181892859823,-2.139528707119268,-0.7325539323681528,3.18445849417421,-0.8266321159518148,2.2719215396726318,0.8773074139314092],[4.480199145606778,-1.629068061641148,0.9986648140935879,-1.5932084645561844,1.841659200442103,1.3917957206871365,1.6869082854205621,-1.9866606270701057,3.726353663527407,-4.118539340123735,-1.0009421672121872,0.11903356377521934,4.034050691874262],[-3.318891690169774,-0.31051685966333653,1.6507071160702242,-1.8738899976563708,3.5906292962068367,1.6776722461814026,-3.854836269351256,0.8800612947490524,0.7760411225001902,-3.247747043598686,-1.4094515104156353,-0.1478352956955662,-1.031144725830073],[1.3491707342079682,-1.5351287175846013,-1.7909305052299982,-1.8155609581016454,-1.4952204575927546,2.3585659128914447,-4.459162416159155,-2.3549721054277617,-1.8713721821467706,-0.10362595670064767,0.14494125398066843,-2.180769495377487,-3.435506268232059],[-0.8689016190522574,-1.1298002862952081,1.408543718161357,-0.6307337631732058,7.190452451600204,-0.31665504842990855,-2.257721151579324,0.3935925749176146,3.358425107034551,0.17921670573714626,-5.158206518583419,2.8539059371167776,0.8599589675963695]]},{"rows":3,"cols":10,"data":[[-1.420204896435138,-4.8466805705735165,1.6224029835180873,1.6243935406589702,-0.42721499299942156,1.3278892683069843,0.5344968327620795,-1.929419822505246,-0.20529115373071607,1.1961042424818977],[-5.812133677072381,3.8720476727470365,2.251218355234437,1.5403508318311794,5.417782773009846,-0.42101321593389496,-1.6174258953470149,1.68494502871106,1.1379410847474776,-3.0109971049129047],[-1.1684744802710008,7.066155290160946,-2.214950007892755,3.209459640986841,0.6048409685737699,2.1964264192097596,-0.455816254173225,-0.8663514363337171,-2.556289074666381,-0.09116727866763757]]}],"biases":[{"rows":10,"cols":1,"data":[[-1.007181354177853],[-0.9355018468794649],[-0.9943191555137145],[2.0592120631055137],[-0.4532890833696154],[0.7853171448614229],[1.2881525051177467],[1.4468844422213203],[-0.7351803080019226],[-1.4485859650182162]]},{"rows":3,"cols":1,"data":[[1.7116119307594133],[-1.3915249250146862],[-1.3404044501558832]]}],"isDead":false,"currentFitness":108754.90075043392,"positionNumber":21},{"nodesPerLayer":[13,10,3],"numLayers":3,"learningRate":0.1,"weights":[{"rows":10,"cols":13,"data":[[0.5149162621944284,0.35436566523200025,5.775562552857917,1.1104857933699699,-0.5906011880435482,0.08979010967725198,4.0785625846211495,2.016257357654026,1.1571516185561377,-1.5432760799765475,1.0737188461705522,-0.7128851641565708,-0.9752402920611846],[-1.171231376564997,2.8481097246904876,-0.0475327403683411,-0.05404024668131319,1.1557908041033103,6.502326053083569,-1.3541944709026505,-5.4921296562935265,2.3318520557205855,-1.597569796381453,-0.2359834932646998,0.663359482867934,1.2782331407451766],[-4.694508018137814,-1.6383187724830681,-5.690131799360007,-1.1285364223303505,-2.5449380844767027,-2.3007558655013955,-0.9183739875248706,-0.41713518125197724,-2.9362746018735955,0.826546250764842,-1.7418312704799699,2.603480551037388,1.9177106511807054],[-0.16962290769806737,2.826799864387503,-0.7516472643353499,0.7736456002195934,0.4655977679429317,0.14348207709993022,-0.716415987085815,1.1287586712465292,-2.726002432496056,-1.3224608502120638,-2.074007601591991,0.4195269807169925,-0.7853074990907626],[2.4586938304391985,-1.2599347029765053,-4.751831181457968,-1.2951817411653104,0.420293174515271,-0.1843676156267055,-4.345832848408459,2.300785964336254,3.1814340549118327,-2.6995940042844966,1.0845208866827103,2.3285634681039267,0.8586934947853924],[0.3232511113783078,-1.7866492247931842,-1.4541483190404314,0.25100916744914914,1.6370730952036643,-1.5168240812968214,-3.00815861082816,-1.938347862255449,-0.6414666831176711,3.4781361009046026,-0.8266321159518148,3.5734590097303753,0.41303186848203527],[5.097462012530211,-0.1084522221098776,0.7324193753451711,-1.8151679976318453,1.113423719266704,0.6841713611712171,1.6869082854205621,-2.2131829276487984,4.772834412072473,-4.11503553969037,-1.0009421672121872,-0.23148226882643103,3.7480503440405655],[-2.96592325701071,0.23903016971589863,1.089616543247501,-1.8738899976563708,2.893977911759425,2.010382993314585,-3.4303653372434346,-0.07103545416044799,0.8781010534324016,-3.0277508878395833,-2.2046969465795203,0.16246570500023855,-0.9874292757566737],[0.794650824434106,-1.8665650120770256,-1.78576216587009,-1.8994154640421204,-1.2806145768067134,1.8262856786729498,-4.459162416159155,-2.472667275486116,-1.7145523568305572,-0.10362595670064767,1.912825080913733,-1.305158128367275,-2.9319864211664166],[-0.8888650371614712,-0.5462493683262671,1.3308431487890036,0.6136271270355006,6.9254987702547774,-0.9899206898291806,-3.852102648399083,-0.3815471537612516,3.07129495073684,0.9770934480111566,-4.526122052011072,3.39474397710799,1.4039858934119456]]},{"rows":3,"cols":10,"data":[[0.5212421605008398,-3.8949408229499425,0.5196084412369464,1.6410565676241968,0.7326670826622576,1.3278892683069843,-0.45210480493635263,-1.644455978601405,-0.5510854666717444,0.6537820817591846],[-6.346709712331401,3.526060886725974,2.926727149476775,1.317931672990463,5.277125820863596,-0.42101321593389496,-1.1852709467284814,1.836872478648067,1.922133298403684,-3.237434749383917],[-1.4680414694452917,7.997432490911823,-2.214950007892755,4.951963614228582,0.882090926539892,0.7424160288586164,-0.8273292606865889,-1.4770029211438742,-2.829349999516692,0.06991990146029528]]}],"biases":[{"rows":10,"cols":1,"data":[[-1.8243900483998614],[-1.1079673595226973],[-1.8281393190286037],[1.858819530906835],[-0.12599195775362063],[1.4656723983740885],[1.3632587849250064],[1.5444081453403493],[-1.9505111787527787],[-0.688111781575708]]},{"rows":3,"cols":1,"data":[[1.7116119307594133],[-1.6853042242914014],[-1.5971381194089833]]}],"isDead":false,"currentFitness":107850.88440019453,"positionNumber":22,"isBest":true},{"nodesPerLayer":[13,10,3],"numLayers":3,"learningRate":0.1,"weights":[{"rows":10,"cols":13,"data":[[0.34932215099711816,0.7936216912251614,4.274333697488775,1.1104857933699699,-0.5906011880435482,-0.23050131565650336,3.0091342053209424,1.318111436206472,1.6005890117355914,-1.816156349249617,0.7538745666712636,-0.20764595341812117,-1.3214729499413775],[-2.2116444287733303,2.4588022911272662,-0.3739887118046704,0.5827708545351639,1.3680430262785523,5.8301810320742025,-0.8034878706734234,-5.182915234819236,2.5372689900599714,-2.400305672954345,0.8429045424597383,0.5310465060971177,1.3829958224165935],[-3.3473625605642314,-1.5304449487650682,-5.391794335153582,-1.1285364223303505,-3.9601253941936303,-2.515788415635223,-1.126593580990141,-1.1747022544957086,-2.1400434819616274,0.5320831364967233,0.3954690821396734,2.603480551037388,2.306738580278441],[0.8910291676577053,2.460330031254354,-0.15267754042260434,1.3958949866403572,0.4655977679429317,0.14348207709993022,-0.4584410311024817,1.060485171436764,-3.2497965357737106,-1.7309825757336679,-0.7661307059719926,0.1552687300754747,-0.34452044006848564],[2.204241437483876,-0.45777150615999074,-4.9154102990071005,-1.2951817411653104,0.420293174515271,-0.1843676156267055,-4.464280936748316,1.4345485116827172,2.8709563982217094,-2.6995940042844966,-0.11918268525346465,2.2433039723451986,0.8695941025796448],[0.3232511113783078,-2.875570394226347,-0.9102473016697283,-0.4316515722183231,1.6370730952036643,-1.8951470103967902,-1.0861021506554893,-3.086257199778217,-0.7325539323681528,3.18445849417421,0.4217690069199723,2.2719215396726318,0.21714034048482816],[3.989587727081299,1.118600306975314,2.282182132880256,0.2659662263273386,1.0427753024004582,2.3221540395105014,2.1350915615975947,-2.358493748705328,4.630474538067672,-4.224273528401122,-0.2378967735549007,-0.5073431174433685,3.376458279545195],[-4.056832576942561,0.47960839343955436,2.095504265452284,-1.7354300711982371,3.6760784074577977,1.4913076455170424,-3.802964268716557,0.882926563841905,1.8493173559474148,-3.0277508878395833,-1.338068641379119,0.23586249301176804,-1.7701696957708941],[0.54321828312348,-1.4391705290411174,-3.0182226623658677,-1.8354741319613028,-0.19337133707898016,2.5465885053763038,-4.655400840523376,-3.0667493781718513,-1.0278671422354437,0.02365871771829084,0.16163963960009609,-2.7602513286495842,-0.5594239597587958],[-0.026717927362504945,0.9449679803067689,1.0809213611774333,-0.6007506512456346,7.048339884421644,-0.27193990585782984,-3.473546771466694,0.8701991186839539,2.9129904957719663,-0.041098207855811086,-3.750431908141902,1.6463181668427131,1.4039858934119456]]},{"rows":3,"cols":10,"data":[[-0.47051353951547165,-3.95497254345434,0.6514442549945065,2.1511455818348733,-1.2974597348418069,0.5291129477359431,0.17855663716070697,-2.2110502668564744,-1.1151735853302147,0.8063243674639338],[-6.309495798129175,2.658695939529242,2.251218355234437,1.3792750590579972,5.417782773009846,0.6646593929719722,-0.38229760557072057,1.7376279817403708,2.000737369170221,-2.890388257543553],[-3.3336224500413176,5.5236603610542625,-2.2839151674095985,3.932936287728973,1.8254947250353126,1.9760740146451015,1.3212567707647456,-1.0477549274044116,-3.148379279225988,0.15446540236462938]]}],"biases":[{"rows":10,"cols":1,"data":[[-2.6005708984177183],[-0.9073962119945053],[-1.963766104912592],[1.858819530906835],[0.04952728957358832],[1.0175874756494845],[1.2892385136764384],[1.7529391091658852],[-1.580569232718163],[-1.4919583921404131]]},{"rows":3,"cols":1,"data":[[1.9960588808705362],[-1.1625630292669378],[-1.3033020022372692]]}],"isDead":false,"currentFitness":106104.90064331515,"positionNumber":23},{"nodesPerLayer":[13,10,3],"numLayers":3,"learningRate":0.1,"weights":[{"rows":10,"cols":13,"data":[[0.5149162621944284,0.35436566523200025,5.775562552857917,1.1104857933699699,-0.5906011880435482,0.08979010967725198,4.0785625846211495,2.016257357654026,1.1571516185561377,-1.5432760799765475,0.7543041429663474,-0.7128851641565708,-0.9752402920611846],[-1.171231376564997,2.8481097246904876,-0.0475327403683411,-0.05404024668131319,1.1557908041033103,6.502326053083569,-1.3541944709026505,-5.4921296562935265,2.3318520557205855,-1.597569796381453,-0.2359834932646998,0.663359482867934,1.4056892471598332],[-4.694508018137814,-1.6383187724830681,-5.690131799360007,-1.1285364223303505,-2.7353525289368097,-2.3007558655013955,-0.9183739875248706,-1.1806384563571997,-2.9362746018735955,0.826546250764842,-1.733546663793005,2.603480551037388,1.6269146966903756],[0.8910291676577053,2.826799864387503,-0.5058821419672681,0.7736456002195934,1.0960639940025858,1.6936422738703252,-1.179634016587357,0.9101245093734682,-3.3912807549494475,-1.7309825757336679,-0.5812802599200614,-0.023572164233367526,0.7998732546209508],[1.8816215390309918,-0.45777150615999074,-4.796335798669417,-1.2951817411653104,0.6875223775837148,-0.1843676156267055,-4.745187171414365,1.4345485116827172,2.8709563982217094,-2.495434608467673,1.0845208866827103,2.2433039723451986,1.3104130695307454],[0.6433201679705285,-1.7866492247931842,-0.6721848524260836,-0.4316515722183231,1.6370730952036643,-1.8951470103967902,-1.6134653741288556,-3.2343891531459628,-0.7325539323681528,3.1313931753773323,-0.2640804526661362,2.3959769458265923,0.41303186848203527],[5.097462012530211,0.5955710051924017,0.7324193753451711,-1.8151679976318453,1.113423719266704,0.6841713611712171,1.6869082854205621,-2.2131829276487984,4.202125864912051,-4.11503553969037,-1.0009421672121872,0.9583405971222598,3.7480503440405655],[-2.96592325701071,0.23903016971589863,1.089616543247501,-1.8738899976563708,2.893977911759425,2.010382993314585,-3.4303653372434346,-0.07103545416044799,0.8781010534324016,-3.0277508878395833,-2.2046969465795203,0.16246570500023855,-0.9874292757566737],[1.203033447836312,-1.5351287175846013,-1.78576216587009,-1.8994154640421204,-1.95431427238647,1.6725878718050557,-4.459162416159155,-2.472667275486116,-1.7145523568305572,-0.10362595670064767,1.912825080913733,-1.5388112583848432,-2.9319864211664166],[-0.8888650371614712,-0.5462493683262671,1.3356319572078243,0.6136271270355006,6.9254987702547774,-0.5124194431261528,-3.852102648399083,-0.3815471537612516,3.07129495073684,0.9770934480111566,-4.526122052011072,3.39474397710799,1.4039858934119456]]},{"rows":3,"cols":10,"data":[[0.5212421605008398,-3.8949408229499425,0.5196084412369464,1.6410565676241968,0.7326670826622576,1.3278892683069843,-0.15855727887345056,-1.644455978601405,-0.5510854666717444,1.0065547222902809],[-6.309495798129175,3.2641047249545334,2.251218355234437,1.5403508318311794,5.417782773009846,-0.6002241910355841,-0.38229760557072057,1.9563270230966472,2.339005824155997,-3.560316709379902],[-1.4680414694452917,8.320446627134185,-2.214950007892755,4.951963614228582,0.882090926539892,0.7424160288586164,-0.8273292606865889,-1.4770029211438742,-2.829349999516692,0.06991990146029528]]}],"biases":[{"rows":10,"cols":1,"data":[[-1.8419978406698307],[-1.093230181311875],[-1.9625240505817816],[0.008442250761261816],[0.7194342108483005],[1.218038395752919],[1.3632587849250064],[1.5444081453403493],[-2.5269089933043363],[-0.688111781575708]]},{"rows":3,"cols":1,"data":[[1.7116119307594133],[-1.475450139094546],[-1.6274065076898248]]}],"isDead":false,"currentFitness":106094.06417448784,"positionNumber":24,"isBest":true},{"nodesPerLayer":[13,10,3],"numLayers":3,"learningRate":0.1,"weights":[{"rows":10,"cols":13,"data":[[0.09329723771543241,0.7936216912251614,5.781340956076336,1.1104857933699699,-0.5906011880435482,0.0076706138700348425,3.526645875012231,1.8721821081444197,2.0637480849468757,-1.4607821737925195,0.7543041429663474,-0.8822553281426468,-1.782377641899219],[-2.3463497324877447,3.887833416663057,-0.3114514864614707,0.3004728316563636,0.9087757300808961,5.8301810320742025,-0.5968605878123302,-5.928470295683002,2.328781541674421,-2.912347173470853,0.26766495507788485,1.2082529742610792,1.4595061176906585],[-2.3738977647765687,-0.982619122657847,-6.9761518279430845,-1.0136374873102616,-5.07949016508735,-2.515788415635223,-1.126593580990141,-1.5320656198047002,-2.1400434819616274,0.9670218748249951,-0.24994370718108033,2.8414674131558115,2.306738580278441],[-0.40540267662357155,2.826799864387503,-0.7516472643353499,0.7736456002195934,0.4655977679429317,1.4553572702446589,-0.4178568674702332,1.1287586712465292,-3.2497965357737106,-1.454791405023705,-1.2448910282500631,0.4195269807169925,-0.7853074990907626],[2.925572662640534,-1.2599347029765053,-4.9765514324428795,-1.2951817411653104,0.420293174515271,-0.1843676156267055,-4.818260327886527,2.300785964336254,3.1814340549118327,-2.6995940042844966,0.5626576038112246,2.3285634681039267,0.8586934947853924],[0.3232511113783078,-1.7866492247931842,-1.7347435142594532,0.25100916744914914,1.6370730952036643,-1.5281459823873884,-3.00815861082816,-1.938347862255449,-0.4953853825995161,3.4781361009046026,-0.8266321159518148,2.5181091285187596,0.41303186848203527],[4.1380739889726135,1.3905874301236216,1.9108075968663745,-0.30831580028822003,1.5146154989186835,0.860721960937715,1.4651481244485693,-1.0940581539660619,3.07222353123883,-3.773162650111009,-0.2378967735549007,-0.20395955790954703,3.4256578755496143],[-2.0266888919660495,0.49402202605428136,2.778393406707168,-1.7354300711982371,2.3513287740880293,1.324782650009154,-3.802964268716557,0.9606971089825734,1.651774976072588,-3.0277508878395833,-1.9015019571366019,-0.2111199217206265,-2.0055592970561706],[0.54321828312348,-1.8276149604281544,-2.7755231185375333,-1.1452107335695358,-0.19337133707898016,3.019135293985258,-4.991062457667712,-2.294315295271238,-1.9912426635395721,0.1002458729337462,-0.13568017477411098,-2.194940395520268,-0.9170936313670138],[-0.5256674278259688,0.06854404306752651,1.1883078264372735,-0.6007506512456346,6.902764662948096,-0.0070466344143814835,-2.3809665234650415,1.8962686144100167,2.9129904957719663,-0.041098207855811086,-3.350048121659378,1.8032268090805017,1.6052000665018133]]},{"rows":3,"cols":10,"data":[[-1.091819582481728,-4.433103322300664,0.6514442549945065,2.396440534273544,-1.8334413207155138,0.6514947464463472,0.12194375675889305,-1.4854996336988682,-0.21909751328293164,0.7592595665695145],[-6.346709712331401,3.184755527930215,2.2895067302203045,1.317931672990463,5.417782773009846,-0.42101321593389496,-1.1852709467284814,1.8007085108697263,1.734900187922345,-2.890388257543553],[-2.405916870416766,5.560399485411331,-2.1404793725271887,3.932936287728973,1.751412454224666,1.8375765736474816,-0.39225494978477016,-1.3379587574694256,-3.148379279225988,0.19796535842854784]]}],"biases":[{"rows":10,"cols":1,"data":[[-2.006519393892647],[-0.8542137852529768],[-1.5678749824525413],[1.858819530906835],[-0.12599195775362063],[0.7853171448614229],[1.2892385136764384],[1.2014246207033694],[-1.0893040639884968],[-1.7649953655166266]]},{"rows":3,"cols":1,"data":[[2.489372394116713],[-1.475450139094546],[-0.7282432585875847]]}],"isDead":false,"currentFitness":105725.7455505097,"positionNumber":25},{"nodesPerLayer":[13,10,3],"numLayers":3,"learningRate":0.1,"weights":[{"rows":10,"cols":13,"data":[[0.477806830942072,0.09177672053612784,6.019489778773138,1.366096247588533,0.04663406049519525,0.08979010967725198,4.843150495636195,1.6676025771216278,1.6005890117355914,-1.5432760799765475,0.7543041429663474,-0.2854111051860581,0.5074687213689599],[-1.9484158925885458,3.681798233474939,0.3796534877158005,-0.44604378083987184,0.8767376093816042,5.730007136969496,-1.549866265501761,-5.4921296562935265,1.5366990717131295,-0.9370145070968293,0.27647576453821154,1.002615260932045,1.8902518290525192],[-4.694508018137814,-1.9520081677091246,-6.258061387108245,-0.8695974477382269,-3.8726050499476945,-2.515788415635223,-0.21266863788155826,-1.1806384563571997,-2.1400434819616274,0.7842574540514349,-1.252794583865023,2.4209404270046195,1.6269146966903756],[0.8910291676577053,2.772527144979097,-0.5819685961413401,0.7736456002195934,0.4655977679429317,0.14348207709993022,-0.7821644608371099,0.79896253896537,-3.0345053815130596,-1.9928819087551752,-0.5812802599200614,0.1552687300754747,-0.48448228962722334],[2.204241437483876,-0.458849737099705,-4.8676892370724,-1.2951817411653104,0.420293174515271,-0.1843676156267055,-3.8500529698299344,1.4345485116827172,2.8709563982217094,-2.6995940042844966,1.0845208866827103,1.4848106184199628,1.3104130695307454],[0.3232511113783078,-1.7866492247931842,-0.9102473016697283,-0.4316515722183231,1.6370730952036643,-1.8951470103967902,-1.918363344327286,-3.086257199778217,-0.7306831763225589,2.7521504739510623,-0.2640804526661362,2.9662203361066712,0.41303186848203527],[4.480199145606778,-0.1084522221098776,0.7324193753451711,-1.5932084645561844,1.841659200442103,1.7688792950630603,1.6869082854205621,-1.417448710263118,3.726353663527407,-4.118539340123735,-1.0009421672121872,0.22151428544590407,4.034050691874262],[-2.96592325701071,0.23903016971589863,1.266777006815734,-1.8738899976563708,3.5906292962068367,1.7885779073561108,-4.003284355702459,1.2845558019360586,0.7760411225001902,-3.247747043598686,-1.4094515104156353,-0.1478352956955662,-0.9647211366210782],[1.3491707342079682,-1.5351287175846013,-1.7909305052299982,-1.8155609581016454,-0.6782529571966771,2.3585659128914447,-4.459162416159155,-2.3549721054277617,-2.4678665713940457,-0.10362595670064767,0.14494125398066843,-2.354098502956302,-3.435506268232059],[-0.8689016190522574,-1.1298002862952081,1.408543718161357,-0.6307337631732058,6.9254987702547774,-0.31665504842990855,-2.257721151579324,0.3935925749176146,3.358425107034551,0.17921670573714626,-5.5440555810124605,2.8539059371167776,1.2500409533001806]]},{"rows":3,"cols":10,"data":[[-1.3405511192810056,-4.1756016078925375,1.6224029835180873,1.6243935406589702,-1.6170372020224182,1.3278892683069843,-0.05135490548798416,-1.929419822505246,-0.20529115373071607,1.1961042424818977],[-7.160528342387247,2.527488840982796,1.4003699193743986,1.2170702791912027,5.417782773009846,-0.3929189215625599,-0.38229760557072057,1.774074518509068,1.9986200723135121,-2.890388257543553],[-1.1684744802710008,6.414421221214171,-2.214950007892755,3.591913374291496,0.08197783918172785,2.0269060165318216,-0.455816254173225,-0.8663514363337171,-3.231325528492769,-0.09116727866763757]]}],"biases":[{"rows":10,"cols":1,"data":[[-1.6300243335672648],[-0.534381311986694],[-1.191792235963463],[1.858819530906835],[0.04952728957358832],[1.8185033182635517],[1.2881525051177467],[1.4468844422213203],[-0.7351803080019226],[-1.4485859650182162]]},{"rows":3,"cols":1,"data":[[1.7116119307594133],[-1.475450139094546],[-1.3404044501558832]]}],"isDead":false,"currentFitness":105668.92524908896,"positionNumber":26},{"nodesPerLayer":[13,10,3],"numLayers":3,"learningRate":0.1,"weights":[{"rows":10,"cols":13,"data":[[1.365402476355383,0.7936216912251614,5.660928825515351,0.6315171533995763,-0.5906011880435482,0.0076706138700348425,3.526645875012231,3.241417910889161,1.4369394454740385,-0.9887397769127942,0.7543041429663474,-0.3548163271219214,-1.0376827974641312],[-2.1531908873859056,3.187556627057049,-0.3114514864614707,0.5021158059820177,0.9087757300808961,5.49442067700614,-0.9084357004111148,-5.928470295683002,1.869445233832931,-2.167327611050846,0.26766495507788485,0.663359482867934,1.3829958224165935],[-3.285302485045107,-1.1530760599883778,-5.862703435716845,-0.2827872435589406,-3.8819690403443183,-2.515788415635223,-1.126593580990141,-1.5320656198047002,-2.1400434819616274,0.9670218748249951,-0.09253209033656704,3.5240404143224833,2.3629086540349595],[-0.3665802926557993,2.6280058560368613,0.29317087108967554,0.23728334678262986,0.4655977679429317,0.14348207709993022,-1.1032595228227482,-0.1563545572836329,-3.2497965357737106,-1.260299450439175,-1.2448910282500631,-0.16237339486258645,-0.7584452575719726],[1.3946033038051224,-1.357448708013437,-5.507797118635082,-1.2951817411653104,0.6127339379247836,-0.12722664461997363,-4.0022486540090005,1.7579349227332426,2.9690992730353116,-2.9967315781272976,2.170123674452805,1.323745537372492,0.7888790812101477],[0.3232511113783078,-1.7866492247931842,-0.8918725118558747,0.5615795215681774,1.6370730952036643,-0.8610336443809227,-2.0116181892859823,-2.7286302819894006,-1.3210448225490874,3.18445849417421,-0.8266321159518148,2.1785831043336445,0.3387929880768168],[4.307024475177432,1.3905874301236216,1.359381387792206,-0.30831580028822003,1.5146154989186835,0.657196611650391,1.1192918144940276,-1.3656898589443383,4.506907556278705,-3.788298750151646,-0.2378967735549007,-0.20395955790954703,3.368621366473225],[-2.0266888919660495,0.23903016971589863,2.095504265452284,-1.7354300711982371,2.8340599648257667,1.324782650009154,-4.015905858378458,0.9606971089825734,1.7834664404298166,-3.0277508878395833,-1.9015019571366019,-0.2111199217206265,-1.4675224697367835],[-0.1858406782274722,-1.5351287175846013,-3.0182226623658677,-1.7642040500827592,-0.19337133707898016,3.019135293985258,-4.991062457667712,-2.294315295271238,-1.3032254732551538,0.4330632245854066,-0.4571795314439429,-2.194940395520268,-0.9170936313670138],[-0.5256674278259688,0.06854404306752651,1.2278032977951483,-0.4140710951528136,7.3136010460007865,0.21740556238939757,-2.3809665234650415,1.1219372504630336,2.9129904957719663,-0.041098207855811086,-3.350048121659378,2.678430523959223,1.6052000665018133]]},{"rows":3,"cols":10,"data":[[-0.5250403963422721,-5.157597556482567,0.8327882009529649,2.4820784346223923,-1.8334413207155138,0.6514947464463472,-0.01929406420028565,-1.4854996336988682,-0.21909751328293164,0.34625333567488814],[-6.00834186774805,3.8720476727470365,2.3537856110775097,1.5403508318311794,5.417782773009846,-0.8329192279417656,-1.6174258953470149,1.68494502871106,1.1761318792394648,-3.0109971049129047],[-2.405916870416766,5.560399485411331,-2.197087785067771,4.019297744755033,1.751412454224666,1.8375765736474816,0.5212345957933253,-1.3171740513695438,-3.148379279225988,-0.006382801773799518]]}],"biases":[{"rows":10,"cols":1,"data":[[-2.50697514040803],[-1.3730973758401475],[-1.5678749824525413],[2.0592120631055137],[-0.4532890833696154],[0.7853171448614229],[1.2892385136764384],[1.6194794215266792],[-0.32962363948611134],[-0.27334772297536136]]},{"rows":3,"cols":1,"data":[[2.482696712437492],[-1.3915249250146862],[-0.7282432585875847]]}],"isDead":false,"currentFitness":105480.71595104937,"positionNumber":27},{"nodesPerLayer":[13,10,3],"numLayers":3,"learningRate":0.1,"weights":[{"rows":10,"cols":13,"data":[[1.365402476355383,0.7936216912251614,5.660928825515351,1.1104857933699699,-0.5906011880435482,0.0076706138700348425,3.526645875012231,3.241417910889161,2.0637480849468757,-0.9887397769127942,0.7543041429663474,-0.3548163271219214,-1.5494377777150299],[-2.3463497324877447,3.187556627057049,-0.3114514864614707,0.5021158059820177,0.9087757300808961,5.8301810320742025,0.7851226542042684,-5.928470295683002,1.869445233832931,-2.167327611050846,0.26766495507788485,0.663359482867934,1.1329765786185013],[-3.150045518230839,-1.1530760599883778,-6.447072826643492,-0.2827872435589406,-4.310642648897747,-2.716955869039205,-1.126593580990141,-1.5320656198047002,-2.1400434819616274,0.9670218748249951,-0.09253209033656704,